Language model created by QuickLM on Sat Sep 30 13:38:40 EDT 2017
Copyright (c) 1996-2010 Carnegie Mellon University and Alexander I. Rudnicky

The model is in standard ARPA format, designed by Doug Paul while he was at MITRE.

The code that was used to produce this language model is available in Open Source.
Please visit http://www.speech.cs.cmu.edu/tools/ for more information

The (fixed) discount mass is 0.5. The backoffs are computed using the ratio method.
This model based on a corpus of 8 sentences and 196 words

\data\
ngram 1=196
ngram 2=419
ngram 3=458

\1-grams:
-2.9894 "APP" -0.3006
-2.9894 3D -0.2997
-2.0864 </s> -0.3010
-2.0864 <s> -0.2847
-1.9894 A -0.2939
-2.9894 ABLE -0.2934
-2.9894 ACCESS -0.2961
-2.9894 AFTER -0.2925
-2.9894 AGO -0.2988
-2.9894 ALL -0.2925
-2.9894 ALLOWS -0.2934
-1.6277 AND -0.2575
-2.9894 ANYMORE -0.2925
-2.9894 ANYWHERE -0.2934
-2.3874 ARE -0.2898
-2.6884 AS -0.2961
-2.9894 ASK -0.3006
-2.9894 ASSEMBLY -0.2975
-2.0864 AT -0.2866
-2.9894 AVE -0.3006
-2.9894 BABY -0.3006
-2.9894 BACTERIA -0.2975
-2.9894 BE -0.3006
-2.9894 BEAKERS -0.2907
-2.9894 BEAM -0.3001
-2.9894 BECAUSE -0.2988
-2.9894 BIG -0.2992
-2.9894 BIOLOGICAL -0.2907
-2.6884 BIT -0.2975
-2.9894 BLUEPRINT -0.2902
-2.9894 BUG -0.3006
-2.6884 BUT -0.2929
-2.6884 BY -0.3001
-2.9894 CALL -0.3006
-2.2905 CAN -0.2948
-2.9894 CELL -0.2975
-2.9894 CELLS -0.3001
-2.6884 CHEMICAL -0.2997
-2.6884 CHEMIST -0.2997
-2.2905 CHEMISTRY -0.2847
-2.9894 CHEMISTRY? -0.2975
-2.9894 CHEMISTS -0.2988
-2.9894 CHOPPING -0.3001
-2.9894 COMBINE -0.3006
-2.9894 COMPLICATED -0.2997
-2.6884 COOL -0.2988
-2.9894 CORE -0.3001
-2.1444 COULD -0.2838
-2.9894 COUPLE -0.2979
-2.9894 CREATE -0.2902
-2.9894 CURE -0.3001
-2.9894 DEPLOY -0.2970
-2.9894 DESIGN -0.2907
-2.6884 DEVICE -0.2870
-2.9894 DIAGNOSTICS -0.3006
-2.9894 DISCOVERED -0.2970
-2.9894 DISCOVERY -0.2907
-2.3874 DO -0.2768
-2.9894 DOESN -0.2975
-2.5123 DOING -0.2810
-2.9894 DON -0.2975
-2.6884 DOWNLOAD -0.2888
-2.5123 DRUG -0.2925
-2.6884 DRUGS -0.2934
-2.9894 EMBED -0.3006
-2.9894 EMBEDDED -0.2970
-2.9894 EMERGED -0.2934
-2.6884 ENGINE -0.2875
-2.9894 ENGINEERING -0.2907
-2.9894 ENOUGH -0.3006
-2.9894 ENVIRONMENT -0.2907
-2.9894 ESSENCE -0.2979
-2.9894 FABRICATOR -0.3006
-2.9894 FANCIFUL -0.3006
-2.9894 FIRST -0.2979
-2.6884 FOR -0.2966
-2.9894 FUTURE -0.2988
-2.9894 GENES -0.2907
-2.9894 GET -0.3006
-2.9894 GO -0.2934
-2.9894 GO? -0.2988
-2.5123 GOING -0.2925
-2.9894 GROUP -0.2966
-2.9894 HARDWARE -0.2907
-2.9894 HAS -0.3006
-2.3874 HAVE -0.2875
-2.6884 HOW -0.2984
-2.9894 I -0.3006
-2.6884 IDEA -0.2957
-2.2905 IF -0.2810
-2.9894 ILL -0.2975
-2.0352 IN -0.2787
-2.6884 INKS -0.2870
-2.6884 INTO -0.2898
-2.2905 IS -0.2758
-2.0352 IT -0.2829
-2.9894 IT? -0.2988
-2.9894 KILL -0.2988
-2.9894 LAB -0.2975
-2.9894 LAB? -0.2988
-2.9894 LIKE -0.2966
-2.9894 LOOK -0.2975
-2.2905 MAKE -0.2861
-2.9894 MANUFACTURE -0.2970
-2.9894 MANUFACTURING -0.3006
-2.9894 MATTER -0.3006
-2.6884 MAY -0.2997
-2.6884 ME -0.2893
-2.6884 MEAN -0.2870
-2.6884 MEAN? -0.2988
-2.6884 MEDICINE -0.2870
-2.9894 MOLECULAR -0.3006
-2.3874 MOLECULE -0.2819
-2.5123 MOLECULES -0.2893
-2.9894 MOMENT -0.2975
-2.9894 MY -0.3006
-2.5123 NEED -0.2847
-2.9894 NETWORKS -0.3006
-2.5123 NEW -0.2997
-2.6884 NOW -0.2988
-2.1444 OF -0.2842
-2.6884 ON -0.2893
-2.9894 ON-THE-FLY -0.3006
-2.6884 ONE -0.2970
-2.6884 OR -0.2992
-2.6884 ORGANIC -0.2984
-2.9894 OTHER -0.3001
-2.6884 OUR -0.3001
-2.9894 OUT -0.3001
-2.3874 OWN -0.2988
-2.9894 PERHAPS -0.3001
-2.6884 PERSONAL -0.2997
-2.9894 POINT -0.2979
-2.2905 PRINT -0.2842
-2.5123 PRINTER -0.2902
-2.9894 PRINTING -0.2902
-2.9894 PRODUCTION -0.3001
-2.6884 PUT -0.2966
-2.9894 REACTIONWARE -0.2907
-2.6884 REALLY -0.3001
-2.5123 REQUIRES -0.2988
-2.9894 RESEARCH -0.3006
-2.9894 REVERSE -0.3006
-2.5123 SAME -0.2997
-2.9894 SAY -0.2966
-2.9894 SCOTTY -0.2975
-2.6884 SEARCH -0.3001
-2.9894 SEEM -0.3006
-2.9894 SET -0.2979
-2.9894 SET? -0.2970
-2.6884 SIDE -0.2907
-2.9894 SMALL -0.2997
-2.1444 SO -0.2706
-2.6884 SOFTWARE -0.2934
-2.6884 START -0.2934
-2.9894 STARTED -0.2934
-2.9894 STEM -0.3006
-2.9894 STEPS -0.2934
-2.9894 SUPER -0.3006
-2.9894 TAKE -0.3006
-2.9894 TAKING -0.2970
-2.9894 TEST -0.3006
-2.0864 THAT -0.2815
-1.6092 THE -0.2838
-2.9894 THEM -0.3006
-2.9894 THEN -0.2988
-2.9894 THERE -0.3006
-2.9894 THINGS -0.3006
-2.9894 THINK -0.2925
-1.9481 THIS -0.2801
-2.9894 THREAT -0.2979
-2.5123 TIME -0.2810
-1.7590 TO -0.2763
-2.9894 TOGETHER -0.2970
-2.9894 TOOK -0.2966
-2.9894 TOOLKIT -0.2979
-2.9894 TREAT -0.2902
-2.9894 TUBES -0.3001
-2.9894 ULTIMATELY -0.2970
-2.5123 UNIVERSAL -0.2979
-2.6884 UP -0.2961
-2.9894 USING -0.2961
-2.9894 VERY -0.3006
-2.9894 VESSEL -0.2907
-2.5123 WANT -0.2934
-2.9894 WANTED -0.2934
-2.9894 WAY -0.2975
-1.7107 WE -0.2829
-2.2905 WELL -0.2787
-2.2905 WHAT -0.2884
-2.9894 WHERE -0.2992
-2.6884 WITH -0.2861
-2.6884 WOULD -0.2875
-2.9894 YEARS -0.3006
-1.7590 YOU -0.2782
-2.0352 YOUR -0.2948

\2-grams:
-0.3010 "APP" CHEMISTRY? 0.0000
-0.3010 3D PRINTER -0.1249
-1.2041 <s> AND -0.2915
-0.9031 <s> BUT 0.0000
-0.9031 <s> NOW 0.0000
-1.2041 <s> ORGANIC -0.1761
-0.9031 <s> SO -0.2341
-1.3010 A 3D 0.0000
-1.3010 A BIG 0.0000
-1.3010 A CELL 0.0000
-1.3010 A CHEMIST -0.1761
-1.3010 A COUPLE 0.0000
-1.0000 A NEW -0.1249
-1.3010 A REALLY 0.0000
-1.3010 A SEARCH 0.0000
-1.3010 A UNIVERSAL -0.2218
-0.3010 ABLE TO -0.2881
-0.3010 ACCESS THIS -0.2808
-0.3010 AFTER WE -0.2894
-0.3010 AGO IS -0.2553
-0.3010 ALL WE -0.2775
-0.3010 ALLOWS YOU -0.2881
-1.6628 AND AS -0.1761
-1.6628 AND CHEMICAL -0.1761
-1.6628 AND COMBINE 0.0000
-1.6628 AND DOING -0.2218
-1.6628 AND HOW -0.1761
-1.6628 AND IF -0.2553
-1.6628 AND IT -0.2218
-1.6628 AND MANUFACTURING 0.0000
-1.6628 AND OUR -0.1761
-1.6628 AND PRODUCTION 0.0000
-1.6628 AND REVERSE 0.0000
-1.1856 AND SO -0.1963
-1.6628 AND THEN 0.0000
-1.6628 AND THIS -0.2808
-1.6628 AND WE -0.2894
-0.9638 AND YOU -0.2319
-1.6628 AND YOUR -0.2762
-0.3010 ANYMORE WE -0.2527
-0.3010 ANYWHERE YOU -0.2881
-0.9031 ARE DOING -0.2218
-0.6021 ARE GOING -0.1249
-0.9031 ARE WE -0.2894
-0.6021 AS A -0.2788
-0.6021 AS ILL 0.0000
-0.3010 ASK MY 0.0000
-0.3010 ASSEMBLY </s> -0.3010
-1.2041 AT DRUG -0.2218
-1.2041 AT NEED -0.1249
-1.2041 AT POINT 0.0000
-1.2041 AT SEEM 0.0000
-0.6021 AT THE -0.2632
-0.3010 AVE DISCOVERED 0.0000
-0.3010 BABY STEPS 0.0000
-0.3010 BACTERIA THAT -0.2109
-0.3010 BE ABLE 0.0000
-0.3010 BEAKERS AND -0.2915
-0.3010 BEAM ME -0.1761
-0.3010 BECAUSE IF -0.2041
-0.3010 BIG MOLECULE -0.2430
-0.3010 BIOLOGICAL AND -0.2915
-0.6021 BIT GOING -0.2218
-0.6021 BIT IS -0.2553
-0.3010 BLUEPRINT THE -0.2919
-0.3010 BUG HAS 0.0000
-0.6021 BUT PERHAPS 0.0000
-0.6021 BUT TO -0.2881
-0.6021 BY CHOPPING 0.0000
-0.6021 BY PRINTING 0.0000
-0.3010 CALL REACTIONWARE 0.0000
-1.0000 CAN DOWNLOAD -0.1761
-1.0000 CAN EMBED 0.0000
-1.0000 CAN MAKE -0.2553
-1.0000 CAN MANUFACTURE 0.0000
-1.0000 CAN PRINT -0.2553
-0.3010 CELL THAT -0.2730
-0.3010 CELLS WITH -0.1761
-0.6021 CHEMICAL INKS -0.1761
-0.6021 CHEMICAL NETWORKS 0.0000
-0.6021 CHEMIST ANYMORE 0.0000
-0.6021 CHEMIST ONE -0.1761
-1.0000 CHEMISTRY </s> -0.3010
-1.0000 CHEMISTRY AT -0.1761
-1.0000 CHEMISTRY FOR -0.1761
-1.0000 CHEMISTRY SET? 0.0000
-1.0000 CHEMISTRY YOU -0.2881
-0.3010 CHEMISTRY? </s> -0.3010
-0.3010 CHEMISTS MAKE -0.2553
-0.3010 CHOPPING UP -0.1761
-0.3010 COMBINE THEM 0.0000
-0.3010 COMPLICATED MOLECULES -0.2218
-0.6021 COOL BIT -0.1761
-0.6021 COOL UNIVERSAL -0.2218
-0.3010 CORE BIT -0.1761
-1.1461 COULD DEPLOY 0.0000
-1.1461 COULD MEAN -0.1761
-1.1461 COULD PRINT -0.2041
-0.8451 COULD THIS -0.2596
-0.8451 COULD WE -0.2775
-0.3010 COUPLE OF -0.2688
-0.3010 CREATE THE -0.2919
-0.3010 CURE OR -0.1761
-0.3010 DEPLOY IT -0.2762
-0.3010 DESIGN AND -0.2915
-0.6021 DEVICE AND -0.2717
-0.6021 DEVICE AT -0.1761
-0.3010 DIAGNOSTICS SAY 0.0000
-0.3010 DISCOVERED IT -0.2762
-0.3010 DISCOVERY AND -0.2915
-0.9031 DO IT? 0.0000
-0.9031 DO THE -0.2825
-0.9031 DO THIS -0.2808
-0.9031 DO YOU -0.2881
-0.3010 DOESN AT -0.2730
-0.7782 DOING IN -0.1919
-0.7782 DOING THE -0.2825
-0.7782 DOING THIS -0.2808
-0.3010 DON AT -0.2730
-0.6021 DOWNLOAD NEW -0.2218
-0.6021 DOWNLOAD THE -0.2919
-0.7782 DRUG DESIGN 0.0000
-0.7782 DRUG DISCOVERY 0.0000
-0.7782 DRUG TO -0.2881
-0.6021 DRUGS AT -0.2730
-0.6021 DRUGS IN -0.2762
-0.3010 EMBED BIOLOGICAL 0.0000
-0.3010 EMBEDDED IN -0.2499
-0.3010 EMERGED YOU -0.2881
-0.6021 ENGINE AND -0.2511
-0.6021 ENGINE SO -0.2688
-0.3010 ENGINEERING AND -0.2915
-0.3010 ENOUGH WHERE 0.0000
-0.3010 ENVIRONMENT AND -0.2511
-0.3010 ESSENCE COULD -0.2341
-0.3010 FABRICATOR BEAM 0.0000
-0.3010 FANCIFUL ENOUGH 0.0000
-0.3010 FIRST OF -0.2688
-0.6021 FOR ME -0.1761
-0.6021 FOR THAT -0.2730
-0.3010 FUTURE IS -0.2553
-0.3010 GENES AND -0.2915
-0.3010 GET THERE 0.0000
-0.3010 GO TO -0.2881
-0.3010 GO? WELL -0.2553
-0.7782 GOING INTO -0.1761
-0.4771 GOING TO -0.2609
-0.3010 GROUP A -0.2788
-0.3010 HARDWARE AND -0.2915
-0.3010 HAS EMERGED 0.0000
-0.6021 HAVE A -0.2553
-0.9031 HAVE THIS -0.2808
-0.9031 HAVE YOUR -0.1919
-0.6021 HOW ARE -0.2430
-0.6021 HOW WOULD -0.1761
-0.3010 I WANTED 0.0000
-0.6021 IDEA IS -0.2553
-0.6021 IDEA OF -0.2688
-1.0000 IF THAT -0.2730
-0.6990 IF WE -0.2527
-0.6990 IF YOU -0.2747
-0.3010 ILL THAT -0.2109
-1.2553 IN A -0.2553
-1.2553 IN ESSENCE 0.0000
-0.6532 IN THE -0.2533
-1.2553 IN WHAT -0.2041
-0.9542 IN YOUR -0.2499
-0.6021 INKS AND -0.2717
-0.6021 INKS THAT -0.2430
-0.6021 INTO SMALL 0.0000
-0.6021 INTO THE -0.2919
-1.0000 IS COULD -0.2341
-1.0000 IS THAT -0.2430
-1.0000 IS THE -0.2919
-1.0000 IS THIS -0.2808
-1.0000 IS WHAT -0.2041
-1.2553 IT AFTER 0.0000
-1.2553 IT ANYWHERE 0.0000
-1.2553 IT COULD -0.2688
-0.9542 IT IN -0.1249
-0.7782 IT REQUIRES 0.0000
-1.2553 IT WE -0.2894
-0.3010 IT? WELL -0.2553
-0.3010 KILL IF -0.2041
-0.3010 LAB AT -0.1761
-0.3010 LAB? WELL -0.2553
-0.3010 LIKE A -0.2788
-0.3010 LOOK AT -0.2730
-1.0000 MAKE A -0.2788
-1.0000 MAKE DRUGS -0.1761
-1.0000 MAKE IT -0.2499
-1.0000 MAKE MOLECULES -0.2218
-1.0000 MAKE YOUR -0.2762
-0.3010 MANUFACTURE IT -0.2762
-0.3010 MANUFACTURING BECAUSE 0.0000
-0.3010 MATTER FABRICATOR 0.0000
-0.6021 MAY BE 0.0000
-0.6021 MAY START 0.0000
-0.6021 ME THE -0.2919
-0.6021 ME UP -0.1761
-0.6021 MEAN AND -0.2915
-0.6021 MEAN THAT -0.2109
-0.3010 MEAN? WELL -0.2041
-0.6021 MEDICINE </s> -0.3010
-0.6021 MEDICINE AND -0.2915
-0.3010 MOLECULAR ASSEMBLY 0.0000
-0.9031 MOLECULE AND -0.2511
-0.9031 MOLECULE AT -0.1761
-0.9031 MOLECULE IN -0.1919
-0.9031 MOLECULE INTO -0.1761
-0.7782 MOLECULES AND -0.2915
-0.7782 MOLECULES BY -0.1761
-0.7782 MOLECULES VERY 0.0000
-0.3010 MOMENT </s> -0.3010
-0.3010 MY RESEARCH 0.0000
-0.4771 NEED TO -0.2747
-0.7782 NEED WE -0.2527
-0.3010 NETWORKS LIKE 0.0000
-0.7782 NEW DIAGNOSTICS 0.0000
-0.7782 NEW SUPER 0.0000
-0.7782 NEW WAY 0.0000
-0.3010 NOW WHAT -0.1461
-1.1461 OF ALL 0.0000
-1.1461 OF CHEMISTRY -0.2553
-1.1461 OF INKS -0.1761
-1.1461 OF NEED -0.2218
-1.1461 OF TAKING 0.0000
-1.1461 OF THE -0.2919
-1.1461 OF YEARS 0.0000
-0.6021 ON ONE -0.1761
-0.6021 ON THE -0.2919
-0.3010 ON-THE-FLY MOLECULAR 0.0000
-0.6021 ONE OF -0.2688
-0.6021 ONE SIDE 0.0000
-0.6021 OR BACTERIA 0.0000
-0.6021 OR DRUG -0.2218
-0.6021 ORGANIC CHEMISTRY -0.2553
-0.6021 ORGANIC CHEMISTS 0.0000
-0.3010 OTHER SIDE 0.0000
-0.6021 OUR BEAKERS 0.0000
-0.6021 OUR TEST 0.0000
-0.3010 OUT WITH -0.1761
-0.9031 OWN MEDICINE -0.1761
-0.6021 OWN PERSONAL 0.0000
-0.9031 OWN STEM 0.0000
-0.3010 PERHAPS FOR -0.1761
-0.6021 PERSONAL MATTER 0.0000
-0.6021 PERSONAL MEDICINE -0.1761
-0.3010 POINT OF -0.2688
-1.0000 PRINT DRUGS -0.1761
-1.0000 PRINT OUR -0.1761
-1.0000 PRINT THE -0.2919
-0.6990 PRINT YOUR -0.1919
-0.4771 PRINTER AND -0.2403
-0.7782 PRINTER USING 0.0000
-0.3010 PRINTING THE -0.2919
-0.3010 PRODUCTION OR -0.1761
-0.6021 PUT IT -0.2499
-0.6021 PUT OUT 0.0000
-0.3010 REACTIONWARE AND -0.2717
-0.3010 REALLY COOL 0.0000
-0.7782 REQUIRES CHEMICAL -0.1761
-0.7782 REQUIRES HARDWARE 0.0000
-0.7782 REQUIRES SOFTWARE -0.1761
-0.3010 RESEARCH GROUP 0.0000
-0.3010 REVERSE ENGINEERING 0.0000
-0.3010 SAME TIME 0.0000
-0.3010 SAY A -0.2553
-0.3010 SCOTTY </s> -0.3010
-0.3010 SEARCH ENGINE 0.0000
-0.3010 SEEM FANCIFUL 0.0000
-0.3010 SET OF -0.2688
-0.3010 SET? IN -0.2762
-0.3010 SIDE AND -0.2817
-0.3010 SMALL MOLECULES -0.2218
-1.1461 SO BY -0.1761
-1.1461 SO HOW -0.1761
-1.1461 SO IF -0.2041
-1.1461 SO THE -0.2919
-1.1461 SO THIS -0.2808
-1.1461 SO WHAT -0.2041
-1.1461 SO YOU -0.2881
-0.6021 SOFTWARE </s> -0.3010
-0.6021 SOFTWARE IT -0.2218
-0.3010 START TO -0.2747
-0.3010 STARTED TO -0.2881
-0.3010 STEM CELLS 0.0000
-0.3010 STEPS TO -0.2881
-0.3010 SUPER BUG 0.0000
-0.3010 TAKE BABY 0.0000
-0.3010 TAKING YOUR -0.1919
-0.3010 TEST TUBES 0.0000
-1.2041 THAT AS -0.1761
-1.2041 THAT DOESN 0.0000
-1.2041 THAT MOLECULE -0.2430
-0.9031 THAT WE -0.2653
-0.7270 THAT YOU -0.2609
-1.6812 THE BLUEPRINT 0.0000
-1.6812 THE CHEMIST -0.1761
-1.3802 THE CHEMISTRY -0.2041
-1.6812 THE CORE 0.0000
-1.6812 THE DEVICE -0.1761
-1.6812 THE DRUG -0.2218
-1.6812 THE FUTURE 0.0000
-1.6812 THE IDEA -0.1761
-1.6812 THE LAB 0.0000
-1.6812 THE LAB? 0.0000
-1.6812 THE MOLECULE -0.2430
-1.6812 THE MOMENT 0.0000
-1.6812 THE ORGANIC -0.1761
-1.6812 THE OTHER 0.0000
-1.3802 THE PRINTER 0.0000
-1.6812 THE REALLY 0.0000
-1.2041 THE SAME 0.0000
-1.6812 THE THINGS 0.0000
-1.6812 THE THREAT 0.0000
-1.6812 THE VESSEL 0.0000
-0.3010 THEM TOGETHER 0.0000
-0.3010 THEN PRINT -0.2553
-0.3010 THERE FIRST 0.0000
-0.3010 THINGS I 0.0000
-0.3010 THINK WE -0.2775
-1.3424 THIS ALLOWS 0.0000
-1.3424 THIS EMBEDDED 0.0000
-1.3424 THIS IDEA -0.1761
-1.3424 THIS IN -0.1919
-1.3424 THIS IS -0.2553
-1.3424 THIS MEAN -0.1761
-1.0414 THIS MEAN? 0.0000
-1.3424 THIS SOFTWARE -0.1761
-1.3424 THIS UNIVERSAL -0.2218
-1.3424 THIS WE -0.2894
-0.3010 THREAT SO -0.2688
-0.7782 TIME AND -0.2511
-0.7782 TIME ON -0.1761
-0.7782 TIME WE -0.2894
-1.5315 TO ACCESS 0.0000
-1.5315 TO ASK 0.0000
-1.5315 TO CURE 0.0000
-1.5315 TO DO -0.2430
-1.5315 TO GET 0.0000
-1.5315 TO GO 0.0000
-1.5315 TO GO? 0.0000
-1.2304 TO HAVE -0.0969
-1.5315 TO KILL 0.0000
-1.5315 TO LOOK 0.0000
-1.5315 TO MAKE -0.2553
-1.5315 TO PRINT -0.2553
-1.5315 TO START 0.0000
-1.5315 TO TAKE 0.0000
-1.5315 TO THE -0.2919
-1.5315 TO TREAT 0.0000
-0.3010 TOGETHER IN -0.2762
-0.3010 TOOK A -0.2788
-0.3010 TOOLKIT OF -0.2688
-0.3010 TREAT THE -0.2919
-0.3010 TUBES ON -0.1761
-0.3010 ULTIMATELY IT -0.2762
-0.7782 UNIVERSAL CHEMISTRY -0.2553
-0.7782 UNIVERSAL SET 0.0000
-0.7782 UNIVERSAL TOOLKIT 0.0000
-0.6021 UP A -0.2788
-0.6021 UP SCOTTY 0.0000
-0.3010 USING THIS -0.2808
-0.3010 VERY COMPLICATED 0.0000
-0.3010 VESSEL AND -0.2915
-0.3010 WANT TO -0.2467
-0.3010 WANTED TO -0.2881
-0.3010 WAY </s> -0.3010
-1.5798 WE "APP" 0.0000
-1.2788 WE ARE -0.0969
-1.5798 WE AVE 0.0000
-1.5798 WE CALL 0.0000
-0.9777 WE CAN -0.0792
-1.5798 WE COULD -0.2688
-1.5798 WE DO -0.2430
-1.5798 WE DOING -0.2218
-1.5798 WE MAKE -0.2553
-1.5798 WE MAY -0.1761
-1.5798 WE PUT -0.1761
-1.5798 WE STARTED 0.0000
-1.5798 WE TOOK 0.0000
-1.2788 WE WANT 0.0000
-1.0000 WELL IF -0.2041
-1.0000 WELL IT -0.2218
-1.0000 WELL TO -0.2881
-1.0000 WELL ULTIMATELY 0.0000
-1.0000 WELL YOU -0.2881
-0.6990 WHAT COULD -0.2341
-0.6990 WHAT WE -0.2653
-1.0000 WHAT WOULD -0.1761
-0.3010 WHERE DO -0.2430
-0.6021 WITH THE -0.2825
-0.6021 WITH YOUR -0.2762
-0.6021 WOULD THIS -0.2808
-0.6021 WOULD WE -0.2894
-0.3010 YEARS AGO 0.0000
-1.5315 YOU ARE -0.1761
-1.5315 YOU CAN -0.2553
-1.5315 YOU COULD -0.2688
-1.5315 YOU CREATE 0.0000
-1.5315 YOU DO -0.2430
-1.5315 YOU DON 0.0000
-1.5315 YOU DOWNLOAD -0.1761
-1.2304 YOU HAVE -0.0969
-1.5315 YOU MAKE -0.2553
-1.5315 YOU MAY -0.1761
-1.5315 YOU NEED -0.1249
-1.5315 YOU ON-THE-FLY 0.0000
-1.5315 YOU PRINT -0.2041
-1.5315 YOU PUT -0.1761
-1.5315 YOU THINK 0.0000
-1.5315 YOU WANT 0.0000
-1.2553 YOUR DEVICE -0.1761
-1.2553 YOUR ENVIRONMENT 0.0000
-1.2553 YOUR GENES 0.0000
-1.2553 YOUR MOLECULE -0.2430
-0.6532 YOUR OWN 0.0000
-1.2553 YOUR SEARCH 0.0000

\3-grams:
-0.3010 "APP" CHEMISTRY? </s>
-0.3010 3D PRINTER AND
-0.3010 <s> AND IF
-0.6021 <s> BUT PERHAPS
-0.6021 <s> BUT TO
-0.3010 <s> NOW WHAT
-0.3010 <s> ORGANIC CHEMISTS
-0.6021 <s> SO HOW
-0.6021 <s> SO WHAT
-0.3010 A 3D PRINTER
-0.3010 A BIG MOLECULE
-0.3010 A CELL THAT
-0.3010 A CHEMIST ONE
-0.3010 A COUPLE OF
-0.6021 A NEW SUPER
-0.6021 A NEW WAY
-0.3010 A REALLY COOL
-0.3010 A SEARCH ENGINE
-0.3010 A UNIVERSAL SET
-0.3010 ABLE TO MAKE
-0.3010 ACCESS THIS UNIVERSAL
-0.3010 AFTER WE AVE
-0.3010 AGO IS COULD
-0.3010 ALL WE WANT
-0.3010 ALLOWS YOU ON-THE-FLY
-0.3010 AND AS A
-0.3010 AND CHEMICAL NETWORKS
-0.3010 AND COMBINE THEM
-0.3010 AND DOING THE
-0.3010 AND HOW WOULD
-0.3010 AND IF THAT
-0.3010 AND IT REQUIRES
-0.3010 AND MANUFACTURING BECAUSE
-0.3010 AND OUR TEST
-0.3010 AND PRODUCTION OR
-0.3010 AND REVERSE ENGINEERING
-0.7782 AND SO BY
-0.7782 AND SO THE
-0.7782 AND SO YOU
-0.3010 AND THEN PRINT
-0.3010 AND THIS IS
-0.3010 AND WE STARTED
-1.0000 AND YOU CREATE
-1.0000 AND YOU DO
-1.0000 AND YOU DOWNLOAD
-1.0000 AND YOU MAKE
-1.0000 AND YOU PRINT
-0.3010 AND YOUR ENVIRONMENT
-0.3010 ANYMORE WE CAN
-0.3010 ANYWHERE YOU DON
-0.3010 ARE DOING IN
-0.3010 ARE GOING TO
-0.3010 ARE WE DOING
-0.3010 AS A CHEMIST
-0.3010 AS ILL THAT
-0.3010 ASK MY RESEARCH
-0.3010 AT DRUG DESIGN
-0.3010 AT NEED TO
-0.3010 AT POINT OF
-0.3010 AT SEEM FANCIFUL
-0.9031 AT THE MOMENT
-0.4260 AT THE SAME
-0.3010 AVE DISCOVERED IT
-0.3010 BABY STEPS TO
-0.3010 BACTERIA THAT YOU
-0.3010 BE ABLE TO
-0.3010 BEAKERS AND OUR
-0.3010 BEAM ME UP
-0.3010 BECAUSE IF WE
-0.3010 BIG MOLECULE INTO
-0.3010 BIOLOGICAL AND CHEMICAL
-0.3010 BIT GOING INTO
-0.3010 BIT IS THE
-0.3010 BLUEPRINT THE ORGANIC
-0.3010 BUG HAS EMERGED
-0.3010 BUT PERHAPS FOR
-0.3010 BUT TO TAKE
-0.3010 BY CHOPPING UP
-0.3010 BY PRINTING THE
-0.3010 CALL REACTIONWARE AND
-0.3010 CAN DOWNLOAD NEW
-0.3010 CAN EMBED BIOLOGICAL
-0.3010 CAN MAKE YOUR
-0.3010 CAN MANUFACTURE IT
-0.3010 CAN PRINT DRUGS
-0.3010 CELL THAT AS
-0.3010 CELLS WITH YOUR
-0.3010 CHEMICAL INKS AND
-0.3010 CHEMICAL NETWORKS LIKE
-0.3010 CHEMIST ANYMORE WE
-0.3010 CHEMIST ONE OF
-0.3010 CHEMISTRY AT THE
-0.3010 CHEMISTRY FOR THAT
-0.3010 CHEMISTRY SET? IN
-0.3010 CHEMISTRY YOU MAY
-0.3010 CHEMISTS MAKE MOLECULES
-0.3010 CHOPPING UP A
-0.3010 COMBINE THEM TOGETHER
-0.3010 COMPLICATED MOLECULES BY
-0.3010 COOL BIT IS
-0.3010 COOL UNIVERSAL CHEMISTRY
-0.3010 CORE BIT GOING
-0.3010 COULD DEPLOY IT
-0.3010 COULD MEAN THAT
-0.3010 COULD PRINT YOUR
-0.3010 COULD THIS MEAN?
-0.6021 COULD WE "APP"
-0.6021 COULD WE MAKE
-0.3010 COUPLE OF YEARS
-0.3010 CREATE THE DRUG
-0.3010 CURE OR BACTERIA
-0.3010 DEPLOY IT ANYWHERE
-0.3010 DESIGN AND PRODUCTION
-0.3010 DEVICE AND SO
-0.3010 DEVICE AT THE
-0.3010 DIAGNOSTICS SAY A
-0.3010 DISCOVERED IT WE
-0.3010 DISCOVERY AND MANUFACTURING
-0.3010 DO IT? WELL
-0.3010 DO THE CHEMISTRY
-0.3010 DO THIS WE
-0.3010 DO YOU THINK
-0.3010 DOESN AT SEEM
-0.3010 DOING IN THE
-0.3010 DOING THE CHEMISTRY
-0.3010 DOING THIS IN
-0.3010 DON AT NEED
-0.3010 DOWNLOAD NEW DIAGNOSTICS
-0.3010 DOWNLOAD THE BLUEPRINT
-0.3010 DRUG DESIGN AND
-0.3010 DRUG DISCOVERY AND
-0.3010 DRUG TO TREAT
-0.3010 DRUGS AT POINT
-0.3010 DRUGS IN A
-0.3010 EMBED BIOLOGICAL AND
-0.3010 EMBEDDED IN YOUR
-0.3010 EMERGED YOU PUT
-0.3010 ENGINE AND YOU
-0.3010 ENGINE SO IF
-0.3010 ENGINEERING AND AS
-0.3010 ENOUGH WHERE DO
-0.3010 ENVIRONMENT AND YOU
-0.3010 ESSENCE COULD WE
-0.3010 FABRICATOR BEAM ME
-0.3010 FANCIFUL ENOUGH WHERE
-0.3010 FIRST OF ALL
-0.3010 FOR ME THE
-0.3010 FOR THAT MOLECULE
-0.3010 FUTURE IS THIS
-0.3010 GENES AND YOUR
-0.3010 GET THERE FIRST
-0.3010 GO TO THE
-0.3010 GO? WELL YOU
-0.3010 GOING INTO THE
-0.6021 GOING TO GO?
-0.6021 GOING TO HAVE
-0.3010 GROUP A COUPLE
-0.3010 HARDWARE AND IT
-0.3010 HAS EMERGED YOU
-0.6021 HAVE A CELL
-0.6021 HAVE A UNIVERSAL
-0.3010 HAVE THIS EMBEDDED
-0.3010 HAVE YOUR OWN
-0.3010 HOW ARE WE
-0.3010 HOW WOULD WE
-0.3010 I WANTED TO
-0.3010 IDEA IS THAT
-0.3010 IDEA OF TAKING
-0.3010 IF THAT DOESN
-0.3010 IF WE CAN
-0.3010 IF YOU HAVE
-0.3010 ILL THAT YOU
-0.3010 IN A NEW
-0.3010 IN ESSENCE COULD
-0.9031 IN THE DEVICE
-0.9031 IN THE LAB
-0.9031 IN THE LAB?
-0.9031 IN THE PRINTER
-0.3010 IN WHAT WE
-0.6021 IN YOUR DEVICE
-0.6021 IN YOUR SEARCH
-0.3010 INKS AND SO
-0.3010 INKS THAT WE
-0.3010 INTO SMALL MOLECULES
-0.3010 INTO THE FUTURE
-0.3010 IS COULD WE
-0.3010 IS THAT WE
-0.3010 IS THE IDEA
-0.3010 IS THIS IDEA
-0.3010 IS WHAT WE
-0.3010 IT AFTER WE
-0.3010 IT ANYWHERE YOU
-0.3010 IT COULD MEAN
-0.6021 IT IN THE
-0.6021 IT IN YOUR
-0.7782 IT REQUIRES CHEMICAL
-0.7782 IT REQUIRES HARDWARE
-0.7782 IT REQUIRES SOFTWARE
-0.3010 IT WE COULD
-0.3010 IT? WELL TO
-0.3010 KILL IF YOU
-0.3010 LAB AT THE
-0.3010 LAB? WELL IT
-0.3010 LIKE A SEARCH
-0.3010 LOOK AT DRUG
-0.3010 MAKE A REALLY
-0.3010 MAKE DRUGS IN
-0.3010 MAKE IT IN
-0.3010 MAKE MOLECULES VERY
-0.3010 MAKE YOUR MOLECULE
-0.3010 MANUFACTURE IT AFTER
-0.3010 MANUFACTURING BECAUSE IF
-0.3010 MATTER FABRICATOR BEAM
-0.3010 MAY BE ABLE
-0.3010 MAY START TO
-0.3010 ME THE CORE
-0.3010 ME UP SCOTTY
-0.3010 MEAN AND HOW
-0.3010 MEAN THAT YOU
-0.6021 MEAN? WELL IF
-0.6021 MEAN? WELL ULTIMATELY
-0.3010 MEDICINE AND THIS
-0.3010 MOLECULAR ASSEMBLY </s>
-0.3010 MOLECULE AND YOU
-0.3010 MOLECULE AT THE
-0.3010 MOLECULE IN THE
-0.3010 MOLECULE INTO SMALL
-0.3010 MOLECULES AND REVERSE
-0.3010 MOLECULES BY CHOPPING
-0.3010 MOLECULES VERY COMPLICATED
-0.3010 MY RESEARCH GROUP
-0.6021 NEED TO CURE
-0.6021 NEED TO GO
-0.3010 NEED WE CAN
-0.3010 NETWORKS LIKE A
-0.3010 NEW DIAGNOSTICS SAY
-0.3010 NEW SUPER BUG
-0.3010 NEW WAY </s>
-0.6021 NOW WHAT COULD
-0.6021 NOW WHAT WOULD
-0.3010 OF ALL WE
-0.3010 OF CHEMISTRY </s>
-0.3010 OF INKS THAT
-0.3010 OF NEED WE
-0.3010 OF TAKING YOUR
-0.3010 OF THE THINGS
-0.3010 OF YEARS AGO
-0.3010 ON ONE SIDE
-0.3010 ON THE OTHER
-0.3010 ON-THE-FLY MOLECULAR ASSEMBLY
-0.3010 ONE OF THE
-0.3010 ONE SIDE AND
-0.3010 OR BACTERIA THAT
-0.3010 OR DRUG DISCOVERY
-0.3010 ORGANIC CHEMISTRY FOR
-0.3010 ORGANIC CHEMISTS MAKE
-0.3010 OTHER SIDE AND
-0.3010 OUR BEAKERS AND
-0.3010 OUR TEST TUBES
-0.3010 OUT WITH THE
-0.3010 OWN MEDICINE AND
-0.6021 OWN PERSONAL MATTER
-0.6021 OWN PERSONAL MEDICINE
-0.3010 OWN STEM CELLS
-0.3010 PERHAPS FOR ME
-0.3010 PERSONAL MATTER FABRICATOR
-0.3010 PERSONAL MEDICINE </s>
-0.3010 POINT OF NEED
-0.3010 PRINT DRUGS AT
-0.3010 PRINT OUR BEAKERS
-0.3010 PRINT THE MOLECULE
-0.3010 PRINT YOUR OWN
-0.6021 PRINTER AND WE
-0.6021 PRINTER AND YOU
-0.3010 PRINTER USING THIS
-0.3010 PRINTING THE VESSEL
-0.3010 PRODUCTION OR DRUG
-0.3010 PUT IT IN
-0.3010 PUT OUT WITH
-0.3010 REACTIONWARE AND SO
-0.6021 REALLY COOL BIT
-0.6021 REALLY COOL UNIVERSAL
-0.3010 REQUIRES CHEMICAL INKS
-0.3010 REQUIRES HARDWARE AND
-0.3010 REQUIRES SOFTWARE IT
-0.3010 RESEARCH GROUP A
-0.3010 REVERSE ENGINEERING AND
-0.7782 SAME TIME AND
-0.7782 SAME TIME ON
-0.7782 SAME TIME WE
-0.3010 SAY A NEW
-0.6021 SEARCH ENGINE AND
-0.6021 SEARCH ENGINE SO
-0.3010 SEEM FANCIFUL ENOUGH
-0.3010 SET OF INKS
-0.3010 SET? IN ESSENCE
-0.6021 SIDE AND COMBINE
-0.6021 SIDE AND THEN
-0.3010 SMALL MOLECULES AND
-0.3010 SO BY PRINTING
-0.3010 SO HOW ARE
-0.3010 SO IF YOU
-0.3010 SO THE REALLY
-0.3010 SO THIS ALLOWS
-0.3010 SO WHAT COULD
-0.3010 SO YOU CAN
-0.3010 SOFTWARE IT REQUIRES
-0.6021 START TO ACCESS
-0.6021 START TO DO
-0.3010 STARTED TO PRINT
-0.3010 STEM CELLS WITH
-0.3010 STEPS TO GET
-0.3010 SUPER BUG HAS
-0.3010 TAKE BABY STEPS
-0.3010 TAKING YOUR OWN
-0.3010 TEST TUBES ON
-0.3010 THAT AS ILL
-0.3010 THAT DOESN AT
-0.3010 THAT MOLECULE AND
-0.6021 THAT WE PUT
-0.6021 THAT WE WANT
-0.7782 THAT YOU COULD
-0.7782 THAT YOU NEED
-0.7782 THAT YOU WANT
-0.3010 THE BLUEPRINT THE
-0.3010 THE CHEMIST ANYMORE
-0.6021 THE CHEMISTRY AT
-0.6021 THE CHEMISTRY YOU
-0.3010 THE CORE BIT
-0.3010 THE DEVICE AND
-0.3010 THE DRUG TO
-0.3010 THE FUTURE IS
-0.3010 THE IDEA IS
-0.3010 THE LAB AT
-0.3010 THE LAB? WELL
-0.3010 THE MOLECULE AT
-0.3010 THE MOMENT </s>
-0.3010 THE ORGANIC CHEMISTRY
-0.3010 THE OTHER SIDE
-0.6021 THE PRINTER AND
-0.6021 THE PRINTER USING
-0.3010 THE REALLY COOL
-0.3010 THE SAME TIME
-0.3010 THE THINGS I
-0.3010 THE THREAT SO
-0.3010 THE VESSEL AND
-0.3010 THEM TOGETHER IN
-0.3010 THEN PRINT THE
-0.3010 THERE FIRST OF
-0.3010 THINGS I WANTED
-0.3010 THINK WE ARE
-0.3010 THIS ALLOWS YOU
-0.3010 THIS EMBEDDED IN
-0.3010 THIS IDEA OF
-0.3010 THIS IN THE
-0.3010 THIS IS WHAT
-0.3010 THIS MEAN AND
-0.3010 THIS MEAN? WELL
-0.3010 THIS SOFTWARE </s>
-0.3010 THIS UNIVERSAL TOOLKIT
-0.3010 THIS WE TOOK
-0.3010 THREAT SO THIS
-0.3010 TIME AND YOU
-0.3010 TIME ON THE
-0.3010 TIME WE MAY
-0.3010 TO ACCESS THIS
-0.3010 TO ASK MY
-0.3010 TO CURE OR
-0.3010 TO DO THIS
-0.3010 TO GET THERE
-0.3010 TO GO TO
-0.3010 TO GO? WELL
-0.6021 TO HAVE A
-0.6021 TO HAVE YOUR
-0.3010 TO KILL IF
-0.3010 TO LOOK AT
-0.3010 TO MAKE DRUGS
-0.3010 TO PRINT OUR
-0.3010 TO START TO
-0.3010 TO TAKE BABY
-0.3010 TO THE CHEMIST
-0.3010 TO TREAT THE
-0.3010 TOGETHER IN WHAT
-0.3010 TOOK A 3D
-0.3010 TOOLKIT OF CHEMISTRY
-0.3010 TREAT THE THREAT
-0.3010 TUBES ON ONE
-0.3010 ULTIMATELY IT COULD
-0.3010 UNIVERSAL CHEMISTRY SET?
-0.3010 UNIVERSAL SET OF
-0.3010 UNIVERSAL TOOLKIT OF
-0.3010 UP A BIG
-0.3010 UP SCOTTY </s>
-0.3010 USING THIS SOFTWARE
-0.3010 VERY COMPLICATED MOLECULES
-0.3010 VESSEL AND DOING
-0.7782 WANT TO HAVE
-0.7782 WANT TO KILL
-0.7782 WANT TO LOOK
-0.3010 WANTED TO ASK
-0.3010 WE "APP" CHEMISTRY?
-0.6021 WE ARE DOING
-0.6021 WE ARE GOING
-0.3010 WE AVE DISCOVERED
-0.3010 WE CALL REACTIONWARE
-0.9031 WE CAN DOWNLOAD
-0.9031 WE CAN EMBED
-0.9031 WE CAN MANUFACTURE
-0.9031 WE CAN PRINT
-0.3010 WE COULD DEPLOY
-0.3010 WE DO IT?
-0.3010 WE DOING THIS
-0.3010 WE MAKE A
-0.3010 WE MAY START
-0.3010 WE PUT OUT
-0.3010 WE STARTED TO
-0.3010 WE TOOK A
-0.3010 WE WANT TO
-0.3010 WELL IF WE
-0.3010 WELL IT REQUIRES
-0.3010 WELL TO START
-0.3010 WELL ULTIMATELY IT
-0.3010 WELL YOU ARE
-0.3010 WHAT COULD THIS
-0.6021 WHAT WE ARE
-0.6021 WHAT WE CALL
-0.3010 WHAT WOULD THIS
-0.3010 WHERE DO YOU
-0.3010 WITH THE PRINTER
-0.3010 WITH YOUR GENES
-0.3010 WOULD THIS MEAN
-0.3010 WOULD WE DO
-0.3010 YEARS AGO IS
-0.3010 YOU ARE GOING
-0.3010 YOU CAN MAKE
-0.3010 YOU COULD PRINT
-0.3010 YOU CREATE THE
-0.3010 YOU DO THE
-0.3010 YOU DON AT
-0.3010 YOU DOWNLOAD THE
-0.6021 YOU HAVE A
-0.6021 YOU HAVE THIS
-0.3010 YOU MAKE IT
-0.3010 YOU MAY BE
-0.3010 YOU NEED TO
-0.3010 YOU ON-THE-FLY MOLECULAR
-0.3010 YOU PRINT YOUR
-0.3010 YOU PUT IT
-0.3010 YOU THINK WE
-0.3010 YOU WANT TO
-0.3010 YOUR DEVICE AT
-0.3010 YOUR ENVIRONMENT AND
-0.3010 YOUR GENES AND
-0.3010 YOUR MOLECULE IN
-0.9031 YOUR OWN MEDICINE
-0.6021 YOUR OWN PERSONAL
-0.9031 YOUR OWN STEM
-0.3010 YOUR SEARCH ENGINE

\end\
