Language model created by QuickLM on Sat Sep 30 13:32:30 EDT 2017
Copyright (c) 1996-2010 Carnegie Mellon University and Alexander I. Rudnicky

The model is in standard ARPA format, designed by Doug Paul while he was at MITRE.

The code that was used to produce this language model is available in Open Source.
Please visit http://www.speech.cs.cmu.edu/tools/ for more information

The (fixed) discount mass is 0.5. The backoffs are computed using the ratio method.
This model based on a corpus of 11 sentences and 350 words

\data\
ngram 1=350
ngram 2=653
ngram 3=697

\1-grams:
-3.1744 '90S -0.2981
-2.8733 000 -0.2993
-3.1744 10 -0.3004
-3.1744 2012 -0.3004
-3.1744 40-YEAR -0.3007
-3.1744 50 -0.3004
-2.1330 </s> -0.3010
-2.1330 <s> -0.2928
-2.0282 A -0.2946
-3.1744 ABILITY -0.2937
-2.6972 ABLE -0.2937
-3.1744 ACADEMIA -0.2987
-3.1744 ACCOUNTANTS -0.2975
-3.1744 AGAIN -0.2925
-3.1744 AGAINST -0.2972
-3.1744 AHEAD -0.2940
-3.1744 ALGORITHM -0.2981
-2.8733 ALGORITHMS -0.3004
-3.1744 ALLOWS -0.2972
-3.1744 ALMOST -0.3007
-2.5723 AN -0.2996
-2.0952 AND -0.2820
-3.1744 ANSWER -0.2937
-2.8733 ANY -0.3002
-3.1744 APPLICATIONS -0.3007
-2.2713 ARE -0.2966
-3.1744 ARTIFICIAL -0.3007
-3.1744 AS -0.3007
-3.1744 ASSESSING -0.3007
-2.8733 AT -0.2987
-3.1744 ATTENTION -0.2981
-3.1744 AUDITS -0.2975
-2.8733 AUTOMATE -0.2972
-3.1744 AUTOMATED -0.2993
-3.1744 BAR -0.3004
-2.6972 BE -0.2990
-2.8733 BEFORE -0.2892
-2.8733 BEHIND -0.2961
-3.1744 BEING -0.3007
-3.1744 BOILERPLATE -0.2993
-3.1744 BRANCH -0.2940
-3.1744 BREAKTHROUGHS -0.2993
-2.8733 BRING -0.2993
-3.1744 BUILD -0.2999
-2.8733 BUSINESS -0.3004
-2.6972 BUT -0.2946
-2.3962 BY -0.2841
-3.1744 CALLED -0.3007
-3.1744 CAMPAIGN -0.3004
-3.1744 CAMPAIGNS -0.2975
-2.4754 CAN -0.2966
-2.6972 CAN'T -0.2987
-3.1744 CANNOT -0.3007
-3.1744 CAPABLE -0.2940
-3.1744 CAREER -0.2999
-3.1744 CERTAIN -0.3007
-2.8733 CHALLENGE -0.2993
-3.1744 CHALLENGED -0.3004
-3.1744 CHANCE -0.2940
-3.1744 CHARACTERS -0.2993
-3.1744 CHOCOLATE -0.3007
-3.1744 CODES -0.3002
-3.1744 COLLEGE -0.2925
-3.1744 COME -0.2993
-3.1744 COMES -0.2937
-3.1744 COMING -0.3004
-3.1744 COMMUNITY -0.2937
-3.1744 COMPANY -0.3004
-3.1744 COMPETE -0.2999
-3.1744 COMPETING -0.3007
-2.8733 COMPLEX -0.2987
-3.1744 CONCLUDED -0.2981
-3.1744 CONDUCT -0.3002
-2.8733 CONNECT -0.2999
-3.1744 CONSUMERS -0.3007
-3.1744 CONTRACTS -0.3007
-3.1744 COOKING -0.2984
-2.8733 COPY -0.3004
-3.1744 COULD -0.3004
-3.1744 CREATING -0.2925
-3.1744 CREATIVITY -0.3002
-3.1744 CREDIT -0.3004
-3.1744 CROSS-POLLINATION -0.3007
-3.1744 CROWD -0.3004
-3.1744 CUTTING -0.3007
-3.1744 DAD -0.2975
-2.6972 DATA -0.2922
-2.8733 DAY -0.2966
-3.1744 DECIDE -0.2937
-3.1744 DEVELOPING -0.3002
-3.1744 DIABETIC -0.3007
-2.8733 DIAGNOSE -0.2996
-3.1744 DIAGNOSES -0.3002
-3.1744 DID -0.2969
-3.1744 DIFFERENT -0.2978
-3.1744 DIFFICULT -0.3004
-3.1744 DISEASE -0.3007
-3.1744 DISEASES -0.3002
-3.1744 DISPARATE -0.3007
-3.1744 DISRUPTION -0.3007
-2.3293 DO -0.2892
-3.1744 DOCTOR -0.2975
-2.6972 DOES -0.2955
-3.1744 DOING -0.2981
-3.1744 DON'T -0.2993
-3.1744 DRAMATIC -0.3007
-3.1744 DRAMATICALLY -0.3007
-3.1744 DURING -0.3007
-3.1744 EACH -0.2940
-3.1744 EARLY -0.3007
-3.1744 EDGE -0.2940
-3.1744 ELECTROMAGNETIC -0.3007
-3.1744 ELSE -0.2975
-2.5723 ESSAYS -0.2889
-3.1744 EVEN -0.3004
-2.8733 EVERY -0.3002
-3.1744 EXAMPLE -0.2940
-3.1744 EXPERTS -0.2937
-2.8733 EXTENT -0.2966
-2.8733 EYE -0.2972
-2.8733 EYES -0.2966
-2.8733 FAR -0.2999
-3.1744 FEW -0.3004
-3.1744 FINDING -0.3007
-2.3962 FOR -0.2901
-2.6972 FREQUENT -0.3002
-2.3962 FROM -0.2904
-2.8733 FUNDAMENTAL -0.3004
-2.6972 FUTURE -0.2937
-3.1744 GAPS -0.2984
-3.1744 GETTING -0.3004
-2.6972 GIVEN -0.2907
-3.1744 GIVES -0.3002
-3.1744 GOES -0.2937
-2.4754 GOING -0.2937
-3.1744 GRAB -0.3007
-2.8733 GRADE -0.2996
-3.1744 GRADES -0.3002
-3.1744 GUESSES -0.2925
-3.1744 HANDLE -0.2996
-3.1744 HANDWRITTEN -0.3007
-3.1744 HAPPENS -0.2993
-3.1744 HARDER -0.2937
-3.1744 HAS -0.2937
-2.4754 HAVE -0.2874
-3.1744 HAVEN'T -0.3004
-2.8733 HE -0.2999
-2.5723 HER -0.2999
-3.1744 HIGH -0.3004
-3.1744 HIGH-SCHOOL -0.2999
-2.6972 HIGH-VOLUME -0.2990
-2.6972 HIS -0.3002
-2.6972 HUMAN -0.2984
-2.4754 HUMANS -0.2958
-3.1744 HUNDREDS -0.2940
-3.1744 IF -0.2981
-3.1744 II -0.3004
-3.1744 IMAGES -0.2940
-3.1744 IMPORTANT -0.3004
-2.2201 IN -0.2898
-2.8733 INDUSTRY -0.2949
-3.1744 INTELLIGENCE -0.2981
-3.1744 INTO -0.3004
-3.1744 INVENT -0.3004
-3.1744 INVOLVE -0.3002
-2.0952 IS -0.2790
-3.1744 ISSUED -0.2999
-2.1744 IT -0.2961
-3.1744 IT'S -0.2925
-2.8733 ITS -0.3004
-2.8733 JOB -0.3004
-2.5723 JOBS -0.2961
-2.8733 KAGGLE -0.3004
-3.1744 KNOWLEDGE -0.2940
-3.1744 LARGE -0.3007
-3.1744 LAST -0.3007
-3.1744 LAWYER -0.2993
-3.1744 LAWYERS -0.2987
-2.8733 LEARN -0.2993
-2.4754 LEARNING -0.2949
-3.1744 LEGAL -0.3007
-3.1744 LET -0.3004
-3.1744 LIES -0.2984
-2.8733 LIKE -0.2984
-3.1744 LIMIT -0.2987
-3.1744 LIMITATIONS -0.2940
-3.1744 LITIGATION -0.3002
-3.1744 LITTLE -0.3004
-3.1744 LOAN -0.3007
-3.1744 LOOK -0.3007
-2.3962 MACHINE -0.2981
-2.0604 MACHINES -0.2780
-2.8733 MADE -0.3004
-3.1744 MAGNETRON -0.3002
-3.1744 MAIL -0.2993
-3.1744 MAKE -0.3007
-2.8733 MAKING -0.2999
-3.1744 MANY -0.3004
-3.1744 MARKET -0.2996
-2.8733 MARKETING -0.3004
-2.8733 MATCH -0.2925
-3.1744 MEAN -0.2993
-3.1744 MEANS -0.3007
-3.1744 MELTING -0.3002
-3.1744 MENTIONED -0.2972
-3.1744 MICROWAVE -0.3007
-2.6972 MIGHT -0.2990
-2.8733 MILLIONS -0.2940
-3.1744 MIMIC -0.3007
-3.1744 MINUTES -0.2993
-3.1744 MONTHS -0.3007
-2.8733 MORE -0.3002
-2.8733 MOST -0.2937
-3.1744 MUM -0.2975
-2.8733 MY -0.3004
-3.1744 NAME -0.2975
-2.8733 NEEDED -0.2984
-2.8733 NEEDS -0.2937
-3.1744 NEVER -0.3004
-3.1744 NEW -0.3004
-3.1744 NIECE -0.2999
-3.1744 NINE -0.3007
-3.1744 NO -0.3007
-3.1744 NOBODY -0.3007
-3.1744 NOT -0.3004
-3.1744 NOTICED -0.2925
-2.5723 NOVEL -0.2999
-2.4754 NOW -0.2958
-1.7941 OF -0.2796
-3.1744 OLD -0.2999
-2.2713 ON -0.2883
-3.1744 ONE -0.2984
-3.1744 OPERATES -0.2987
-3.1744 OPHTHALMOLOGIST -0.3002
-3.1744 OPHTHALMOLOGISTS -0.2978
-2.8733 OR -0.3002
-3.1744 ORDER -0.2937
-2.6972 OUR -0.2996
-3.1744 OUT -0.2993
-3.1744 OUTPERFORM -0.2996
-3.1744 OVEN -0.2978
-2.6972 OVER -0.2880
-3.1744 OXFORD -0.3007
-3.1744 PARENTS -0.2990
-3.1744 PARTICULARLY -0.3007
-2.8733 PAST -0.2999
-3.1744 PATHBREAKING -0.3007
-3.1744 PER -0.3004
-3.1744 PERCY -0.3007
-3.1744 PERSPECTIVE -0.2987
-3.1744 PHYSICIST -0.3007
-3.1744 POWERFUL -0.3007
-2.8733 PROBLEMS -0.2990
-2.8733 PROGRESS -0.2952
-3.1744 PUTS -0.2969
-3.1744 QUESTION -0.2937
-3.1744 RADAR -0.3007
-3.1744 RADIATION -0.2999
-3.1744 RANKS -0.2975
-2.6972 READ -0.2999
-3.1744 READING -0.3007
-3.1744 REDUCIBLE -0.2937
-3.1744 RELATIVELY -0.3007
-3.1744 REMARKABLE -0.3007
-3.1744 RESEARCHERS -0.3004
-3.1744 RESPONSIBLE -0.2993
-3.1744 RETINOPATHY -0.3007
-3.1744 RIGHT -0.3002
-2.8733 RISK -0.2922
-2.8733 SEE -0.3002
-3.1744 SEEMINGLY -0.3007
-2.8733 SEEN -0.3002
-3.1744 SHE -0.2975
-3.1744 SHRINK -0.3007
-3.1744 SIMPLE -0.2990
-2.8733 SINGLE -0.3002
-2.5723 SITUATIONS -0.2844
-3.1744 SMALL -0.3007
-2.8733 SMARTER -0.2972
-2.6972 SO -0.2961
-2.8733 SOLVE -0.3002
-3.1744 SOME -0.2940
-3.1744 SORT -0.2940
-3.1744 SORTING -0.2925
-3.1744 SPENCER -0.3002
-3.1744 STAND -0.3007
-2.6972 STARTED -0.2993
-3.1744 STATE -0.2940
-3.1744 STAY -0.3007
-3.1744 STILL -0.3004
-2.8733 STRATEGY -0.2975
-3.1744 STRUCTURING -0.2993
-3.1744 STUDY -0.2987
-2.6972 TACKLING -0.2999
-3.1744 TAKE -0.3007
-2.3293 TASKS -0.2811
-3.1744 TAX -0.3007
-3.1744 TEACHER -0.3002
-3.1744 TEACHERS -0.3007
-3.1744 TECHNOLOGY -0.3007
-3.1744 THANK -0.2996
-2.1744 THAT -0.2889
-3.1744 THAT'S -0.3007
-1.7120 THE -0.2850
-3.1744 THEIR -0.3007
-3.1744 THEN -0.2996
-3.1744 THERE -0.2987
-3.1744 THESE -0.2999
-2.3293 THEY -0.2975
-2.6972 THEY'RE -0.2996
-2.4754 THINGS -0.2937
-2.2713 THIS -0.2919
-2.8733 THOUSANDS -0.2940
-3.1744 THREADS -0.2937
-3.1744 THREATEN -0.2978
-3.1744 TIME -0.3002
-2.8733 TIMES -0.3002
-1.7764 TO -0.2844
-3.1744 TODAY -0.2990
-3.1744 TOGETHER -0.3007
-3.1744 TWO -0.2999
-3.1744 UNDERSTANDING -0.2940
-3.1744 UNIQUE -0.3007
-3.1744 UNIVERSITY -0.3007
-2.6972 US -0.2937
-3.1744 VERY -0.3007
-3.1744 VOLUMES -0.2940
-3.1744 WAR -0.3007
-2.6972 WAS -0.2958
-3.1744 WAY -0.3007
-3.1744 WAYS -0.3004
-2.3962 WE -0.2972
-3.1744 WE'VE -0.3007
-2.8733 WERE -0.3002
-2.3962 WHAT -0.2925
-3.1744 WHATEVER -0.2996
-2.8733 WHEN -0.2975
-3.1744 WHERE -0.2972
-2.4754 WILL -0.2990
-2.8733 WINNING -0.3004
-2.5723 WITH -0.2975
-3.1744 WITHIN -0.3007
-2.8733 WORK -0.2904
-3.1744 WORKING -0.2987
-3.1744 WORLD -0.3007
-2.6972 YAHLI -0.3002
-3.1744 YEAR -0.2993
-2.8733 YEARS -0.2984
-2.4754 YOU -0.2916
-3.1744 ZIP -0.3007

\2-grams:
-0.3010 '90S IT -0.2553
-0.6021 000 ESSAYS -0.2430
-0.6021 000 EYES -0.1761
-0.3010 10 000 -0.1761
-0.3010 2012 KAGGLE -0.1761
-0.3010 40-YEAR CAREER 0.0000
-0.3010 50 000 -0.1761
-1.3424 <s> BUT -0.2218
-1.3424 <s> IN -0.2762
-1.3424 <s> MACHINE -0.0669
-0.8653 <s> NOW -0.1461
-1.3424 <s> PERCY 0.0000
-0.8653 <s> SO 0.0000
-1.3424 <s> THANK 0.0000
-1.4472 A 40-YEAR 0.0000
-1.4472 A DOCTOR 0.0000
-1.4472 A FUNDAMENTAL -0.1761
-1.4472 A HIGH 0.0000
-1.4472 A LAWYER 0.0000
-1.4472 A MACHINE -0.2632
-1.4472 A MARKETING -0.1761
-1.4472 A NEW 0.0000
-1.4472 A PARTICULARLY 0.0000
-1.4472 A PHYSICIST 0.0000
-1.4472 A SINGLE -0.1761
-1.4472 A STUDY 0.0000
-1.4472 A TEACHER 0.0000
-1.4472 A UNIQUE 0.0000
-0.3010 ABILITY TO -0.2833
-0.3010 ABLE TO -0.2648
-0.3010 ACADEMIA THIS -0.2730
-0.3010 ACCOUNTANTS AND -0.2825
-0.3010 AGAIN THE -0.2858
-0.3010 AGAINST MACHINES -0.2840
-0.3010 AHEAD OF -0.2730
-0.3010 ALGORITHM THAT -0.2788
-0.3010 ALGORITHMS WERE 0.0000
-0.3010 ALLOWS MACHINES -0.2840
-0.3010 ALMOST ONE 0.0000
-0.9031 AN ALGORITHM 0.0000
-0.9031 AN EVEN 0.0000
-0.9031 AN EYE -0.1761
-0.9031 AN OPHTHALMOLOGIST 0.0000
-1.3802 AND ACADEMIA 0.0000
-1.3802 AND DIAGNOSE -0.1761
-1.3802 AND HER -0.2430
-1.3802 AND IT -0.2553
-1.3802 AND LAWYERS 0.0000
-1.3802 AND MAKE 0.0000
-1.3802 AND MIMIC 0.0000
-1.3802 AND SMARTER -0.1761
-1.3802 AND THEY'RE 0.0000
-1.3802 AND THIS -0.2730
-1.3802 AND TO -0.2833
-1.3802 AND WHAT -0.2632
-0.3010 ANSWER TO -0.2923
-0.6021 ANY GUESSES 0.0000
-0.6021 ANY SINGLE -0.1761
-0.3010 APPLICATIONS SORTING 0.0000
-1.2041 ARE CREATING 0.0000
-1.2041 ARE DEVELOPING 0.0000
-1.2041 ARE GETTING 0.0000
-0.9031 ARE GOING 0.0000
-1.2041 ARE NOT 0.0000
-1.2041 ARE STILL 0.0000
-1.2041 ARE THINGS -0.2553
-0.3010 ARTIFICIAL INTELLIGENCE 0.0000
-0.3010 AS MENTIONED 0.0000
-0.3010 ASSESSING CREDIT 0.0000
-0.6021 AT OXFORD 0.0000
-0.6021 AT TASKS -0.2688
-0.3010 ATTENTION IT -0.2788
-0.3010 AUDITS AND -0.2825
-0.6021 AUTOMATE </s> -0.3010
-0.6021 AUTOMATE OR -0.1761
-0.3010 AUTOMATED BY -0.2632
-0.3010 BAR HE -0.1761
-0.4771 BE HUMANS -0.2041
-0.7782 BE NEEDED -0.1761
-0.6021 BEFORE </s> -0.3010
-0.6021 BEFORE THE -0.2935
-0.6021 BEHIND A -0.2852
-0.6021 BEHIND OUR -0.2218
-0.3010 BEING AUTOMATED 0.0000
-0.3010 BOILERPLATE FROM -0.2632
-0.3010 BRANCH OF -0.2919
-0.3010 BREAKTHROUGHS MACHINE -0.0669
-0.6021 BRING TOGETHER 0.0000
-0.6021 BRING YOU -0.2553
-0.3010 BUILD AN -0.2430
-0.3010 BUSINESS STRATEGY 0.0000
-0.7782 BUT MACHINES -0.2663
-0.7782 BUT THERE 0.0000
-0.7782 BUT THIS -0.2730
-1.0792 BY </s> -0.3010
-0.7782 BY HUMAN -0.1249
-1.0792 BY MACHINES -0.2840
-1.0792 BY READING 0.0000
-1.0792 BY THE -0.2935
-0.3010 CALLED DIABETIC 0.0000
-0.3010 CAMPAIGN NEEDS 0.0000
-0.3010 CAMPAIGNS AND -0.2825
-0.5229 CAN DO -0.1963
-1.0000 CAN READ -0.2218
-1.0000 CAN YOU -0.2553
-0.4771 CAN'T DO -0.2341
-0.7782 CAN'T HANDLE 0.0000
-0.3010 CANNOT COMPETE 0.0000
-0.3010 CAPABLE OF -0.2919
-0.3010 CAREER AN -0.2430
-0.3010 CERTAIN DISEASES 0.0000
-0.6021 CHALLENGE CAN -0.2553
-0.6021 CHALLENGE IF 0.0000
-0.3010 CHALLENGED ITS -0.1761
-0.3010 CHANCE OF -0.2919
-0.3010 CHARACTERS FROM -0.2632
-0.3010 CHOCOLATE BAR 0.0000
-0.3010 CODES OVER -0.2218
-0.3010 COLLEGE THE -0.2935
-0.3010 COME BY -0.2632
-0.3010 COMES TO -0.2923
-0.3010 COMING YEARS -0.1761
-0.3010 COMMUNITY TO -0.2923
-0.3010 COMPANY KAGGLE -0.1761
-0.3010 COMPETE WITH -0.2430
-0.3010 COMPETING AGAINST 0.0000
-0.6021 COMPLEX TASKS -0.2688
-0.6021 COMPLEX TAX 0.0000
-0.3010 CONCLUDED THAT -0.2788
-0.3010 CONDUCT OUR -0.2218
-0.6021 CONNECT HIS -0.2218
-0.6021 CONNECT SEEMINGLY 0.0000
-0.3010 CONSUMERS ATTENTION 0.0000
-0.3010 CONTRACTS ACCOUNTANTS 0.0000
-0.3010 COOKING IN -0.2762
-0.3010 COPY BEHIND 0.0000
-0.3010 COULD GRADE -0.1761
-0.3010 CREATING THE -0.2858
-0.3010 CREATIVITY BUT -0.2218
-0.3010 CREDIT RISK -0.1761
-0.3010 CROSS-POLLINATION HAPPENS 0.0000
-0.3010 CROWD BUSINESS 0.0000
-0.3010 CUTTING EDGE 0.0000
-0.3010 DAD IS -0.2430
-0.7782 DATA AND -0.2825
-0.7782 DATA MACHINES -0.2478
-0.7782 DATA NOW -0.2553
-0.6021 DAY BRING -0.1761
-0.6021 DAY MACHINES -0.2840
-0.3010 DECIDE TO -0.2923
-0.3010 DEVELOPING OUR -0.2218
-0.3010 DIABETIC RETINOPATHY 0.0000
-0.6021 DIAGNOSE AN -0.2430
-0.6021 DIAGNOSE CERTAIN 0.0000
-0.3010 DIAGNOSES GIVEN -0.1249
-0.3010 DID A -0.2852
-0.3010 DIFFERENT </s> -0.3010
-0.3010 DIFFICULT CHALLENGE -0.1761
-0.3010 DISEASE CALLED 0.0000
-0.3010 DISEASES OVER -0.2218
-0.3010 DISPARATE THREADS 0.0000
-0.3010 DISRUPTION IT'S 0.0000
-1.1461 DO AND -0.2825
-1.1461 DO ARE -0.2430
-1.1461 DO LET 0.0000
-1.1461 DO MY -0.1761
-1.1461 DO THAT -0.2553
-1.1461 DO WHAT -0.2632
-1.1461 DO WHERE 0.0000
-0.3010 DOCTOR AND -0.2825
-0.7782 DOES IT -0.2788
-0.7782 DOES THEN 0.0000
-0.7782 DOES THIS -0.2730
-0.3010 DOING IT -0.2553
-0.3010 DON'T WE -0.1761
-0.3010 DRAMATIC BREAKTHROUGHS 0.0000
-0.3010 DRAMATICALLY DIFFERENT 0.0000
-0.3010 DURING WORLD 0.0000
-0.3010 EACH OF -0.2919
-0.3010 EARLY '90S 0.0000
-0.3010 EDGE OF -0.2825
-0.3010 ELECTROMAGNETIC RADIATION 0.0000
-0.3010 ELSE IS -0.2825
-0.9031 ESSAYS OR -0.1761
-0.9031 ESSAYS OVER -0.2218
-0.9031 ESSAYS THE -0.2858
-0.9031 ESSAYS THEY -0.2688
-0.3010 EVEN MORE -0.1761
-0.6021 EVERY DAY -0.1761
-0.6021 EVERY TWO 0.0000
-0.3010 EXAMPLE OF -0.2919
-0.3010 EXPERTS TO -0.2833
-0.6021 EXTENT DOES -0.2218
-0.6021 EXTENT IS -0.2632
-0.6021 EYE AND -0.2825
-0.6021 EYE DISEASE 0.0000
-0.6021 EYES A -0.2852
-0.6021 EYES WITHIN 0.0000
-0.6021 FAR FAR -0.1761
-0.6021 FAR MORE -0.1761
-0.3010 FEW YEARS -0.1761
-0.3010 FINDING GAPS 0.0000
-1.0792 FOR COMPLEX -0.1761
-1.0792 FOR EACH 0.0000
-1.0792 FOR INDUSTRY -0.1761
-1.0792 FOR MOST -0.1761
-1.0792 FOR PATHBREAKING 0.0000
-1.0792 FOR THE -0.2780
-0.3010 FREQUENT HIGH-VOLUME 0.0000
-1.0792 FROM DATA -0.2218
-1.0792 FROM LARGE 0.0000
-1.0792 FROM LEGAL 0.0000
-1.0792 FROM LOAN 0.0000
-1.0792 FROM THE -0.2935
-1.0792 FROM ZIP 0.0000
-0.6021 FUNDAMENTAL LIMIT 0.0000
-0.6021 FUNDAMENTAL LIMITATIONS 0.0000
-0.4771 FUTURE OF -0.2825
-0.7782 FUTURE STATE 0.0000
-0.3010 GAPS IN -0.2218
-0.3010 GETTING SMARTER -0.1761
-0.4771 GIVEN BY -0.2218
-0.7782 GIVEN THE -0.2935
-0.3010 GIVES US -0.2218
-0.3010 GOES TO -0.2923
-0.3010 GOING TO -0.2553
-0.3010 GRAB CONSUMERS 0.0000
-0.6021 GRADE ESSAYS -0.2430
-0.6021 GRADE HIGH-SCHOOL 0.0000
-0.3010 GRADES GIVEN -0.1249
-0.3010 GUESSES THE -0.2935
-0.3010 HANDLE THINGS -0.2553
-0.3010 HANDWRITTEN CHARACTERS 0.0000
-0.3010 HAPPENS FOR -0.2632
-0.3010 HARDER TO -0.2923
-0.3010 HAS TO -0.2923
-1.0000 HAVE A -0.2852
-0.6990 HAVE MADE 0.0000
-1.0000 HAVE NO 0.0000
-1.0000 HAVE THE -0.2935
-0.3010 HAVEN'T SEEN -0.1761
-0.6021 HE NOTICED 0.0000
-0.6021 HE WAS -0.2218
-0.9031 HER DAD 0.0000
-0.9031 HER MUM 0.0000
-0.9031 HER NAME 0.0000
-0.9031 HER PARENTS 0.0000
-0.3010 HIGH RISK -0.1761
-0.3010 HIGH-SCHOOL ESSAYS -0.2430
-0.3010 HIGH-VOLUME TASKS -0.1963
-0.7782 HIS CHOCOLATE 0.0000
-0.7782 HIS KNOWLEDGE 0.0000
-0.7782 HIS UNDERSTANDING 0.0000
-0.7782 HUMAN OPHTHALMOLOGISTS 0.0000
-0.7782 HUMAN TASKS -0.2688
-0.7782 HUMAN TEACHERS 0.0000
-1.0000 HUMANS AT -0.1761
-1.0000 HUMANS CAN -0.1461
-1.0000 HUMANS DON'T 0.0000
-0.6990 HUMANS THAT -0.2553
-0.3010 HUNDREDS OF -0.2919
-0.3010 IF IT -0.2788
-0.3010 II WHEN -0.1761
-0.3010 IMAGES OF -0.2730
-0.3010 IMPORTANT PROBLEMS -0.1761
-1.2553 IN 2012 0.0000
-1.2553 IN EVERY -0.1761
-1.2553 IN ORDER 0.0000
-1.2553 IN RESEARCHERS 0.0000
-1.2553 IN SMALL 0.0000
-1.2553 IN TACKLING 0.0000
-0.7782 IN THE -0.2780
-0.6021 INDUSTRY AND -0.2825
-0.6021 INDUSTRY IN -0.2218
-0.3010 INTELLIGENCE IT -0.2788
-0.3010 INTO INDUSTRY -0.1761
-0.3010 INVENT ANY -0.1761
-0.3010 INVOLVE TACKLING 0.0000
-0.9031 IS A -0.2518
-1.3802 IS DOING 0.0000
-1.3802 IS IN -0.2762
-1.3802 IS MY -0.1761
-1.3802 IS NINE 0.0000
-1.3802 IS NOW -0.2553
-1.0792 IS THAT -0.2553
-1.3802 IS THE -0.2935
-1.3802 IS YAHLI -0.2218
-0.3010 ISSUED AN -0.2430
-1.3010 IT ALLOWS 0.0000
-1.3010 IT COMES 0.0000
-1.3010 IT DOES -0.2218
-1.3010 IT HAS 0.0000
-1.3010 IT INVOLVE 0.0000
-1.3010 IT NEEDS 0.0000
-1.0000 IT STARTED -0.1249
-1.0000 IT WILL -0.2041
-0.3010 IT'S THE -0.2935
-0.6021 ITS COMMUNITY 0.0000
-0.6021 ITS WAY 0.0000
-0.6021 JOB LIES 0.0000
-0.6021 JOB REDUCIBLE 0.0000
-0.9031 JOBS HARDER 0.0000
-0.9031 JOBS HAVE -0.2553
-0.9031 JOBS HER -0.2430
-0.9031 JOBS THEY -0.2688
-0.6021 KAGGLE CHALLENGED 0.0000
-0.6021 KAGGLE OPERATES 0.0000
-0.3010 KNOWLEDGE OF -0.2919
-0.3010 LARGE VOLUMES 0.0000
-0.3010 LAST YEAR 0.0000
-0.3010 LAWYER BY -0.2632
-0.3010 LAWYERS ARE -0.2730
-0.3010 LEARN FROM -0.2218
-0.5229 LEARNING IS -0.2218
-1.0000 LEARNING STARTED -0.2218
-1.0000 LEARNING WE -0.2632
-0.3010 LEGAL CONTRACTS 0.0000
-0.3010 LET EVERY -0.1761
-0.3010 LIES IN -0.2218
-0.6021 LIKE ASSESSING 0.0000
-0.6021 LIKE THIS -0.2730
-0.3010 LIMIT ON -0.2109
-0.3010 LIMITATIONS OF -0.2825
-0.3010 LITIGATION BUT -0.2218
-0.3010 LITTLE PROGRESS -0.1761
-0.3010 LOAN APPLICATIONS 0.0000
-0.3010 LOOK DRAMATICALLY 0.0000
-1.0792 MACHINE CAN -0.2553
-0.3802 MACHINE LEARNING 0.0000
-1.4150 MACHINES </s> -0.3010
-0.9379 MACHINES ARE -0.1761
-1.4150 MACHINES CAN -0.1461
-1.4150 MACHINES CAN'T -0.1249
-1.4150 MACHINES CANNOT 0.0000
-1.4150 MACHINES HAVE -0.2041
-1.4150 MACHINES MACHINE -0.0669
-1.4150 MACHINES ON -0.2430
-1.4150 MACHINES TO -0.2833
-1.1139 MACHINES WILL -0.2041
-0.6021 MADE DRAMATIC 0.0000
-0.6021 MADE VERY 0.0000
-0.3010 MAGNETRON WAS -0.2218
-0.3010 MAIL BY -0.2632
-0.3010 MAKE THESE 0.0000
-0.6021 MAKING ITS -0.1761
-0.6021 MAKING PROGRESS -0.1761
-0.3010 MANY TIMES -0.1761
-0.3010 MARKET THINGS -0.2041
-0.6021 MARKETING CAMPAIGN 0.0000
-0.6021 MARKETING CAMPAIGNS 0.0000
-0.3010 MATCH THE -0.2858
-0.3010 MEAN FOR -0.2632
-0.3010 MEANS FINDING 0.0000
-0.3010 MELTING HIS -0.2218
-0.3010 MENTIONED MACHINES -0.2478
-0.3010 MICROWAVE OVEN 0.0000
-0.7782 MIGHT AUTOMATE -0.1761
-0.7782 MIGHT READ -0.2218
-0.7782 MIGHT SEE -0.1761
-0.3010 MILLIONS OF -0.2825
-0.3010 MIMIC SOME 0.0000
-0.3010 MINUTES WE -0.1761
-0.3010 MONTHS OLD 0.0000
-0.6021 MORE COMPLEX -0.1761
-0.6021 MORE DIFFICULT 0.0000
-0.6021 MOST OF -0.2919
-0.6021 MOST POWERFUL 0.0000
-0.3010 MUM IS -0.2430
-0.6021 MY COMPANY 0.0000
-0.6021 MY NIECE 0.0000
-0.3010 NAME IS -0.2825
-0.6021 NEEDED FOR -0.2632
-0.6021 NEEDED THEY'RE 0.0000
-0.3010 NEEDS TO -0.2742
-0.3010 NEVER SEEN -0.1761
-0.3010 NEW CHALLENGE -0.1761
-0.3010 NIECE HER -0.2430
-0.3010 NINE MONTHS 0.0000
-0.3010 NO CHANCE 0.0000
-0.3010 NOBODY ELSE 0.0000
-0.3010 NOT MAKING -0.1761
-0.3010 NOTICED THE -0.2935
-0.3010 NOVEL SITUATIONS 0.0000
-1.0000 NOW AS 0.0000
-1.0000 NOW CAPABLE 0.0000
-1.0000 NOW GIVEN -0.2218
-1.0000 NOW HUMANS -0.2553
-1.0000 NOW THIS -0.2430
-1.6812 OF ANY -0.1761
-1.6812 OF ARTIFICIAL 0.0000
-1.6812 OF BEING 0.0000
-1.6812 OF COMPETING 0.0000
-1.6812 OF COOKING 0.0000
-1.6812 OF CREATIVITY 0.0000
-1.6812 OF CROSS-POLLINATION 0.0000
-1.6812 OF ELECTROMAGNETIC 0.0000
-1.6812 OF ESSAYS -0.2430
-1.6812 OF EXPERTS 0.0000
-1.6812 OF EYES -0.1761
-1.6812 OF FAR -0.1761
-1.3802 OF MACHINE -0.0669
-1.6812 OF PAST -0.1761
-1.2041 OF THE -0.2780
-1.6812 OF THIS -0.2730
-1.6812 OF THOUSANDS 0.0000
-1.6812 OF TIMES -0.1761
-1.6812 OF US -0.2218
-1.3802 OF WORK 0.0000
-0.3010 OLD HER -0.2430
-0.9031 ON FREQUENT 0.0000
-1.2041 ON NOVEL 0.0000
-1.2041 ON RADAR 0.0000
-0.7270 ON THE -0.2619
-1.2041 ON WHAT -0.2632
-0.3010 ONE IN -0.2762
-0.3010 OPERATES ON -0.2109
-0.3010 OPHTHALMOLOGIST MIGHT -0.2218
-0.3010 OPHTHALMOLOGISTS </s> -0.3010
-0.6021 OR SEE -0.1761
-0.6021 OR THREATEN 0.0000
-0.3010 ORDER TO -0.2923
-0.7782 OUR AUDITS 0.0000
-0.7782 OUR BUSINESS 0.0000
-0.7782 OUR MARKETING -0.1761
-0.3010 OUT FROM -0.2632
-0.3010 OUTPERFORM HUMANS -0.2553
-0.3010 OVEN </s> -0.3010
-0.7782 OVER A -0.2852
-0.7782 OVER COMING 0.0000
-0.7782 OVER THE -0.2935
-0.3010 OXFORD UNIVERSITY 0.0000
-0.3010 PARENTS DO -0.2688
-0.3010 PARTICULARLY REMARKABLE 0.0000
-0.6021 PAST DATA -0.2218
-0.6021 PAST FEW 0.0000
-0.3010 PATHBREAKING LITIGATION 0.0000
-0.3010 PER DAY -0.1761
-0.3010 PERCY SPENCER 0.0000
-0.3010 PERSPECTIVE ON -0.2730
-0.3010 PHYSICIST WORKING 0.0000
-0.3010 POWERFUL BRANCH 0.0000
-0.6021 PROBLEMS FOR -0.2632
-0.6021 PROBLEMS WE'VE 0.0000
-0.6021 PROGRESS IS -0.2825
-0.6021 PROGRESS ON -0.2730
-0.3010 PUTS A -0.2852
-0.3010 QUESTION TO -0.2833
-0.3010 RADAR DURING 0.0000
-0.3010 RADIATION WITH -0.2430
-0.3010 RANKS AND -0.2825
-0.7782 READ 10 0.0000
-0.7782 READ BOILERPLATE 0.0000
-0.7782 READ MILLIONS 0.0000
-0.3010 READING HANDWRITTEN 0.0000
-0.3010 REDUCIBLE TO -0.2923
-0.3010 RELATIVELY SIMPLE 0.0000
-0.3010 REMARKABLE EXAMPLE 0.0000
-0.3010 RESEARCHERS AT -0.1761
-0.3010 RESPONSIBLE FOR -0.2632
-0.3010 RETINOPATHY AGAIN 0.0000
-0.3010 RIGHT DATA -0.2218
-0.6021 RISK FROM -0.2632
-0.6021 RISK OF -0.2919
-0.6021 SEE 50 0.0000
-0.6021 SEE MILLIONS 0.0000
-0.3010 SEEMINGLY DISPARATE 0.0000
-0.6021 SEEN BEFORE -0.1761
-0.6021 SEEN MANY 0.0000
-0.3010 SHE IS -0.2825
-0.3010 SHRINK THEIR 0.0000
-0.3010 SIMPLE TASKS -0.2688
-0.6021 SINGLE JOB -0.1761
-0.6021 SINGLE QUESTION 0.0000
-0.9031 SITUATIONS AND -0.2825
-0.9031 SITUATIONS ON -0.2430
-0.9031 SITUATIONS THE -0.2858
-0.9031 SITUATIONS THEY -0.2341
-0.3010 SMALL WAYS 0.0000
-0.6021 SMARTER AND -0.2825
-0.6021 SMARTER TODAY 0.0000
-0.7782 SO THIS -0.2430
-0.7782 SO WHAT -0.2632
-0.7782 SO YAHLI -0.2218
-0.6021 SOLVE IMPORTANT 0.0000
-0.6021 SOLVE PROBLEMS -0.1761
-0.3010 SOME OF -0.2730
-0.3010 SORT OF -0.2919
-0.3010 SORTING THE -0.2935
-0.3010 SPENCER WAS -0.2218
-0.3010 STAND OUT 0.0000
-0.7782 STARTED MAKING -0.1761
-0.4771 STARTED WITH -0.1761
-0.3010 STATE OF -0.2919
-0.3010 STAY AHEAD 0.0000
-0.3010 STILL NEEDED -0.1761
-0.6021 STRATEGY </s> -0.3010
-0.6021 STRATEGY MEANS 0.0000
-0.3010 STRUCTURING FOR -0.2632
-0.3010 STUDY ON -0.2109
-0.3010 TACKLING NOVEL 0.0000
-0.3010 TAKE IMAGES 0.0000
-1.1461 TASKS </s> -0.3010
-1.1461 TASKS AND -0.2825
-1.1461 TASKS IN -0.2762
-1.1461 TASKS IT -0.2553
-1.1461 TASKS LIKE -0.1761
-1.1461 TASKS MACHINES -0.2478
-1.1461 TASKS THAT -0.2553
-0.3010 TAX STRUCTURING 0.0000
-0.3010 TEACHER MIGHT -0.2218
-0.3010 TEACHERS LAST 0.0000
-0.3010 TECHNOLOGY THAT'S 0.0000
-0.3010 THANK YOU -0.2553
-1.3010 THAT ALMOST 0.0000
-1.0000 THAT ARE -0.2430
-1.3010 THAT COULD 0.0000
-1.3010 THAT HUMANS -0.2553
-1.3010 THAT IT -0.2788
-1.3010 THAT JOB -0.1761
-1.0000 THAT MACHINES -0.2478
-1.3010 THAT NOBODY 0.0000
-0.3010 THAT'S RESPONSIBLE 0.0000
-1.7634 THE ABILITY 0.0000
-1.7634 THE ANSWER 0.0000
-1.4624 THE COPY 0.0000
-1.7634 THE CROWD 0.0000
-1.7634 THE CUTTING 0.0000
-1.7634 THE DIAGNOSES 0.0000
-1.7634 THE EARLY 0.0000
-1.7634 THE EYE -0.1761
-1.7634 THE FUNDAMENTAL -0.1761
-1.2863 THE FUTURE 0.0000
-1.7634 THE GRADES 0.0000
-1.7634 THE HUMAN -0.2218
-1.7634 THE JOBS -0.2430
-1.7634 THE MACHINES -0.2840
-1.7634 THE MAGNETRON 0.0000
-1.7634 THE MAIL 0.0000
-1.7634 THE MARKET 0.0000
-1.7634 THE MICROWAVE 0.0000
-1.7634 THE MOST -0.1761
-1.7634 THE PAST -0.1761
-1.7634 THE RIGHT 0.0000
-1.7634 THE TECHNOLOGY 0.0000
-1.7634 THE THINGS -0.2041
-1.7634 THE TIME 0.0000
-1.4624 THE WINNING 0.0000
-0.3010 THEIR RANKS 0.0000
-0.3010 THEN YOU -0.2553
-0.3010 THERE ARE -0.2730
-0.3010 THESE JOBS -0.2430
-0.8451 THEY CAN'T 0.0000
-1.1461 THEY CONCLUDED 0.0000
-1.1461 THEY DIAGNOSE -0.1761
-1.1461 THEY GRADE -0.1761
-1.1461 THEY HAVEN'T 0.0000
-1.1461 THEY MIGHT -0.2218
-0.3010 THEY'RE GOING 0.0000
-1.0000 THINGS LIKE -0.1761
-0.6990 THINGS THAT -0.2553
-1.0000 THINGS THEY -0.2688
-1.0000 THINGS WE -0.2632
-1.2041 THIS A -0.2852
-1.2041 THIS DISRUPTION 0.0000
-1.2041 THIS GIVES 0.0000
-0.9031 THIS IS -0.2218
-1.2041 THIS MEAN 0.0000
-1.2041 THIS PUTS 0.0000
-1.2041 THIS SORT 0.0000
-0.3010 THOUSANDS OF -0.2825
-0.3010 THREADS TO -0.2833
-0.3010 THREATEN </s> -0.3010
-0.3010 TIME YAHLI -0.2218
-0.6021 TIMES BEFORE -0.1761
-0.6021 TIMES PER 0.0000
-1.6990 TO A -0.2852
-1.6990 TO BE -0.2218
-1.6990 TO BUILD 0.0000
-1.6990 TO COLLEGE 0.0000
-1.6990 TO COME 0.0000
-1.6990 TO CONDUCT 0.0000
-1.3979 TO CONNECT 0.0000
-1.6990 TO DO -0.2688
-1.6990 TO FREQUENT 0.0000
-1.6990 TO GRAB 0.0000
-1.6990 TO INVENT 0.0000
-1.3979 TO LEARN 0.0000
-1.6990 TO LOOK 0.0000
-1.3979 TO MATCH 0.0000
-1.6990 TO OUTPERFORM 0.0000
-1.6990 TO READ -0.2218
-1.3979 TO SOLVE 0.0000
-1.6990 TO STAND 0.0000
-1.6990 TO TACKLING 0.0000
-1.3979 TO WHAT -0.2218
-0.3010 TODAY THEY -0.2688
-0.3010 TOGETHER HUNDREDS 0.0000
-0.3010 TWO JOBS -0.2430
-0.3010 UNDERSTANDING OF -0.2919
-0.3010 UNIQUE PERSPECTIVE 0.0000
-0.3010 UNIVERSITY DID 0.0000
-0.7782 US A -0.2852
-0.7782 US IN -0.2762
-0.7782 US WHEN -0.1761
-0.3010 VERY LITTLE 0.0000
-0.3010 VOLUMES OF -0.2919
-0.3010 WAR II 0.0000
-0.7782 WAS A -0.2852
-0.7782 WAS ABLE 0.0000
-0.7782 WAS MELTING 0.0000
-0.3010 WAY INTO 0.0000
-0.3010 WAYS THOUSANDS 0.0000
-1.0792 WE BRING -0.1761
-1.0792 WE CAN -0.1461
-0.6021 WE HAVE -0.0792
-1.0792 WE ISSUED 0.0000
-0.3010 WE'VE NEVER 0.0000
-0.3010 WERE ABLE 0.0000
-1.0792 WHAT DOES -0.2218
-0.7782 WHAT EXTENT 0.0000
-1.0792 WHAT JOBS -0.2430
-1.0792 WHAT MACHINES -0.2840
-1.0792 WHAT THEY -0.2341
-0.3010 WHATEVER YOU -0.2553
-0.6021 WHEN HE -0.1761
-0.6021 WHEN IT -0.2788
-0.3010 WHERE MACHINES -0.2840
-1.0000 WILL AUTOMATE -0.1761
-0.6990 WILL BE -0.1249
-1.0000 WILL SHRINK 0.0000
-1.0000 WILL STAY 0.0000
-0.3010 WINNING ALGORITHMS 0.0000
-0.9031 WITH HIS -0.2218
-0.9031 WITH RELATIVELY 0.0000
-0.9031 WITH THINGS -0.2553
-0.9031 WITH US -0.2218
-0.3010 WITHIN MINUTES 0.0000
-0.6021 WORK THE -0.2780
-0.6021 WORK THEY -0.2688
-0.3010 WORKING ON -0.2730
-0.3010 WORLD WAR 0.0000
-0.7782 YAHLI GOES 0.0000
-0.7782 YAHLI SHE 0.0000
-0.7782 YAHLI WHATEVER 0.0000
-0.3010 YEAR WE -0.2632
-0.6021 YEARS THEY'RE 0.0000
-0.6021 YEARS WE -0.1761
-1.0000 YOU </s> -0.3010
-1.0000 YOU A -0.2852
-1.0000 YOU DECIDE 0.0000
-1.0000 YOU TAKE 0.0000
-1.0000 YOU WILL -0.2553
-0.3010 ZIP CODES 0.0000

\3-grams:
-0.3010 '90S IT STARTED
-0.3010 000 ESSAYS OVER
-0.3010 000 EYES A
-0.3010 10 000 ESSAYS
-0.3010 2012 KAGGLE CHALLENGED
-0.3010 40-YEAR CAREER AN
-0.3010 50 000 EYES
-0.3010 <s> BUT THERE
-0.3010 <s> IN RESEARCHERS
-0.3010 <s> MACHINE LEARNING
-0.7782 <s> NOW AS
-0.7782 <s> NOW GIVEN
-0.7782 <s> NOW THIS
-0.3010 <s> PERCY SPENCER
-0.7782 <s> SO THIS
-0.7782 <s> SO WHAT
-0.7782 <s> SO YAHLI
-0.3010 <s> THANK YOU
-0.3010 A 40-YEAR CAREER
-0.3010 A DOCTOR AND
-0.3010 A FUNDAMENTAL LIMIT
-0.3010 A HIGH RISK
-0.3010 A LAWYER BY
-0.3010 A MACHINE CAN
-0.3010 A MARKETING CAMPAIGN
-0.3010 A NEW CHALLENGE
-0.3010 A PARTICULARLY REMARKABLE
-0.3010 A PHYSICIST WORKING
-0.3010 A SINGLE QUESTION
-0.3010 A STUDY ON
-0.3010 A TEACHER MIGHT
-0.3010 A UNIQUE PERSPECTIVE
-0.3010 ABILITY TO CONNECT
-0.7782 ABLE TO CONNECT
-0.4771 ABLE TO MATCH
-0.3010 ACADEMIA THIS GIVES
-0.3010 ACCOUNTANTS AND LAWYERS
-0.3010 AGAIN THE WINNING
-0.3010 AGAINST MACHINES ON
-0.3010 AHEAD OF THE
-0.3010 ALGORITHM THAT COULD
-0.3010 ALGORITHMS WERE ABLE
-0.3010 ALLOWS MACHINES TO
-0.3010 ALMOST ONE IN
-0.3010 AN ALGORITHM THAT
-0.3010 AN EVEN MORE
-0.3010 AN EYE DISEASE
-0.3010 AN OPHTHALMOLOGIST MIGHT
-0.3010 AND ACADEMIA THIS
-0.3010 AND DIAGNOSE AN
-0.3010 AND HER DAD
-0.3010 AND IT WILL
-0.3010 AND LAWYERS ARE
-0.3010 AND MAKE THESE
-0.3010 AND MIMIC SOME
-0.3010 AND SMARTER TODAY
-0.3010 AND THEY'RE GOING
-0.3010 AND THIS PUTS
-0.3010 AND TO WHAT
-0.3010 AND WHAT JOBS
-0.3010 ANSWER TO A
-0.3010 ANY GUESSES THE
-0.3010 ANY SINGLE JOB
-0.3010 APPLICATIONS SORTING THE
-0.3010 ARE CREATING THE
-0.3010 ARE DEVELOPING OUR
-0.3010 ARE GETTING SMARTER
-0.3010 ARE GOING TO
-0.3010 ARE NOT MAKING
-0.3010 ARE STILL NEEDED
-0.3010 ARE THINGS WE
-0.3010 ARTIFICIAL INTELLIGENCE IT
-0.3010 AS MENTIONED MACHINES
-0.3010 ASSESSING CREDIT RISK
-0.3010 AT OXFORD UNIVERSITY
-0.3010 AT TASKS LIKE
-0.3010 ATTENTION IT HAS
-0.3010 AUDITS AND THEY'RE
-0.3010 AUTOMATE OR THREATEN
-0.3010 AUTOMATED BY MACHINES
-0.3010 BAR HE WAS
-0.3010 BE HUMANS THAT
-0.3010 BE NEEDED FOR
-0.3010 BEFORE THE FUNDAMENTAL
-0.3010 BEHIND A MARKETING
-0.3010 BEHIND OUR MARKETING
-0.3010 BEING AUTOMATED BY
-0.3010 BOILERPLATE FROM LEGAL
-0.3010 BRANCH OF ARTIFICIAL
-0.3010 BREAKTHROUGHS MACHINE LEARNING
-0.3010 BRING TOGETHER HUNDREDS
-0.3010 BRING YOU A
-0.3010 BUILD AN ALGORITHM
-0.6021 BUSINESS STRATEGY </s>
-0.6021 BUSINESS STRATEGY MEANS
-0.3010 BUT MACHINES WILL
-0.3010 BUT THERE ARE
-0.3010 BUT THIS SORT
-0.6021 BY HUMAN OPHTHALMOLOGISTS
-0.6021 BY HUMAN TEACHERS
-0.3010 BY MACHINES MACHINE
-0.3010 BY READING HANDWRITTEN
-0.3010 BY THE TIME
-0.3010 CALLED DIABETIC RETINOPATHY
-0.3010 CAMPAIGN NEEDS TO
-0.3010 CAMPAIGNS AND IT
-0.7782 CAN DO MY
-0.7782 CAN DO THAT
-0.7782 CAN DO WHAT
-0.3010 CAN READ MILLIONS
-0.3010 CAN YOU TAKE
-0.6021 CAN'T DO AND
-0.6021 CAN'T DO WHERE
-0.3010 CAN'T HANDLE THINGS
-0.3010 CANNOT COMPETE WITH
-0.3010 CAPABLE OF FAR
-0.3010 CAREER AN OPHTHALMOLOGIST
-0.3010 CERTAIN DISEASES OVER
-0.3010 CHALLENGE CAN YOU
-0.3010 CHALLENGE IF IT
-0.3010 CHALLENGED ITS COMMUNITY
-0.3010 CHANCE OF COMPETING
-0.3010 CHARACTERS FROM ZIP
-0.3010 CHOCOLATE BAR HE
-0.3010 CODES OVER THE
-0.3010 COLLEGE THE JOBS
-0.3010 COME BY </s>
-0.3010 COMES TO TACKLING
-0.3010 COMING YEARS THEY'RE
-0.3010 COMMUNITY TO BUILD
-0.3010 COMPANY KAGGLE OPERATES
-0.3010 COMPETE WITH US
-0.3010 COMPETING AGAINST MACHINES
-0.3010 COMPLEX TASKS IN
-0.3010 COMPLEX TAX STRUCTURING
-0.3010 CONCLUDED THAT ALMOST
-0.3010 CONDUCT OUR AUDITS
-0.3010 CONNECT HIS UNDERSTANDING
-0.3010 CONNECT SEEMINGLY DISPARATE
-0.3010 CONSUMERS ATTENTION IT
-0.3010 CONTRACTS ACCOUNTANTS AND
-0.3010 COOKING IN ORDER
-0.6021 COPY BEHIND A
-0.6021 COPY BEHIND OUR
-0.3010 COULD GRADE HIGH-SCHOOL
-0.3010 CREATING THE COPY
-0.3010 CREATIVITY BUT THIS
-0.3010 CREDIT RISK FROM
-0.3010 CROSS-POLLINATION HAPPENS FOR
-0.3010 CROWD BUSINESS STRATEGY
-0.3010 CUTTING EDGE OF
-0.3010 DAD IS A
-0.3010 DATA AND MIMIC
-0.3010 DATA MACHINES ARE
-0.3010 DATA NOW HUMANS
-0.3010 DAY BRING YOU
-0.3010 DAY MACHINES CANNOT
-0.3010 DECIDE TO DO
-0.3010 DEVELOPING OUR BUSINESS
-0.3010 DIABETIC RETINOPATHY AGAIN
-0.3010 DIAGNOSE AN EYE
-0.3010 DIAGNOSE CERTAIN DISEASES
-0.3010 DIAGNOSES GIVEN BY
-0.3010 DID A STUDY
-0.3010 DIFFICULT CHALLENGE CAN
-0.3010 DISEASE CALLED DIABETIC
-0.3010 DISEASES OVER COMING
-0.3010 DISPARATE THREADS TO
-0.3010 DISRUPTION IT'S THE
-0.3010 DO AND WHAT
-0.3010 DO ARE GOING
-0.3010 DO LET EVERY
-0.3010 DO MY COMPANY
-0.3010 DO THAT MACHINES
-0.3010 DO WHAT THEY
-0.3010 DO WHERE MACHINES
-0.3010 DOCTOR AND HER
-0.3010 DOES IT INVOLVE
-0.3010 DOES THEN YOU
-0.3010 DOES THIS MEAN
-0.3010 DOING IT WILL
-0.3010 DON'T WE HAVE
-0.3010 DRAMATIC BREAKTHROUGHS MACHINE
-0.3010 DRAMATICALLY DIFFERENT </s>
-0.3010 DURING WORLD WAR
-0.3010 EACH OF US
-0.3010 EARLY '90S IT
-0.3010 EDGE OF MACHINE
-0.3010 ELECTROMAGNETIC RADIATION WITH
-0.3010 ELSE IS DOING
-0.3010 ESSAYS OR SEE
-0.3010 ESSAYS OVER A
-0.3010 ESSAYS THE WINNING
-0.3010 ESSAYS THEY DIAGNOSE
-0.3010 EVEN MORE DIFFICULT
-0.3010 EVERY DAY BRING
-0.3010 EVERY TWO JOBS
-0.3010 EXAMPLE OF CREATIVITY
-0.3010 EXPERTS TO SOLVE
-0.3010 EXTENT DOES IT
-0.3010 EXTENT IS THAT
-0.3010 EYE AND DIAGNOSE
-0.3010 EYE DISEASE CALLED
-0.3010 EYES A MACHINE
-0.3010 EYES WITHIN MINUTES
-0.3010 FAR FAR MORE
-0.3010 FAR MORE COMPLEX
-0.3010 FEW YEARS WE
-0.3010 FINDING GAPS IN
-0.3010 FOR COMPLEX TAX
-0.3010 FOR EACH OF
-0.3010 FOR INDUSTRY AND
-0.3010 FOR MOST OF
-0.3010 FOR PATHBREAKING LITIGATION
-0.3010 FOR THE FUTURE
-0.3010 FREQUENT HIGH-VOLUME TASKS
-0.3010 FROM DATA AND
-0.3010 FROM LARGE VOLUMES
-0.3010 FROM LEGAL CONTRACTS
-0.3010 FROM LOAN APPLICATIONS
-0.3010 FROM THE CROWD
-0.3010 FROM ZIP CODES
-0.3010 FUNDAMENTAL LIMIT ON
-0.3010 FUNDAMENTAL LIMITATIONS OF
-0.3010 FUTURE OF WORK
-0.3010 FUTURE STATE OF
-0.3010 GAPS IN THE
-0.3010 GETTING SMARTER AND
-0.3010 GIVEN BY HUMAN
-0.3010 GIVEN THE RIGHT
-0.3010 GIVES US A
-0.3010 GOES TO COLLEGE
-1.0000 GOING TO BE
-1.0000 GOING TO CONDUCT
-1.0000 GOING TO LOOK
-1.0000 GOING TO OUTPERFORM
-1.0000 GOING TO READ
-0.3010 GRAB CONSUMERS ATTENTION
-0.3010 GRADE ESSAYS THEY
-0.3010 GRADE HIGH-SCHOOL ESSAYS
-0.3010 GRADES GIVEN BY
-0.3010 GUESSES THE MICROWAVE
-0.3010 HANDLE THINGS THEY
-0.3010 HANDWRITTEN CHARACTERS FROM
-0.3010 HAPPENS FOR EACH
-0.3010 HARDER TO COME
-0.3010 HAS TO STAND
-0.3010 HAVE A HIGH
-0.6021 HAVE MADE DRAMATIC
-0.6021 HAVE MADE VERY
-0.3010 HAVE NO CHANCE
-0.3010 HAVE THE ABILITY
-0.3010 HAVEN'T SEEN MANY
-0.3010 HE NOTICED THE
-0.3010 HE WAS ABLE
-0.3010 HER DAD IS
-0.3010 HER MUM IS
-0.3010 HER NAME IS
-0.3010 HER PARENTS DO
-0.3010 HIGH RISK OF
-0.3010 HIGH-SCHOOL ESSAYS THE
-0.7782 HIGH-VOLUME TASKS </s>
-0.7782 HIGH-VOLUME TASKS AND
-0.7782 HIGH-VOLUME TASKS MACHINES
-0.3010 HIS CHOCOLATE BAR
-0.3010 HIS KNOWLEDGE OF
-0.3010 HIS UNDERSTANDING OF
-0.3010 HUMAN OPHTHALMOLOGISTS </s>
-0.3010 HUMAN TASKS THAT
-0.3010 HUMAN TEACHERS LAST
-0.3010 HUMANS AT TASKS
-0.3010 HUMANS CAN DO
-0.3010 HUMANS DON'T WE
-0.3010 HUMANS THAT ARE
-0.3010 HUNDREDS OF THOUSANDS
-0.3010 IF IT DOES
-0.3010 II WHEN HE
-0.3010 IMAGES OF THE
-0.3010 IMPORTANT PROBLEMS FOR
-0.3010 IN 2012 KAGGLE
-0.3010 IN EVERY TWO
-0.3010 IN ORDER TO
-0.3010 IN RESEARCHERS AT
-0.3010 IN SMALL WAYS
-0.3010 IN TACKLING NOVEL
-0.7782 IN THE ANSWER
-0.7782 IN THE EARLY
-0.7782 IN THE MARKET
-0.3010 INDUSTRY AND ACADEMIA
-0.3010 INDUSTRY IN THE
-0.3010 INTELLIGENCE IT ALLOWS
-0.3010 INTO INDUSTRY IN
-0.3010 INVENT ANY GUESSES
-0.3010 INVOLVE TACKLING NOVEL
-0.7782 IS A DOCTOR
-0.7782 IS A LAWYER
-0.7782 IS A PARTICULARLY
-0.3010 IS DOING IT
-0.3010 IS IN TACKLING
-0.3010 IS MY NIECE
-0.3010 IS NINE MONTHS
-0.3010 IS NOW CAPABLE
-0.6021 IS THAT IT
-0.6021 IS THAT JOB
-0.3010 IS THE TECHNOLOGY
-0.3010 IS YAHLI SHE
-0.3010 ISSUED AN EVEN
-0.3010 IT ALLOWS MACHINES
-0.3010 IT COMES TO
-0.3010 IT DOES THEN
-0.3010 IT HAS TO
-0.3010 IT INVOLVE TACKLING
-0.3010 IT NEEDS TO
-0.3010 IT STARTED WITH
-0.3010 IT WILL BE
-0.3010 IT'S THE MOST
-0.3010 ITS COMMUNITY TO
-0.3010 ITS WAY INTO
-0.3010 JOB LIES IN
-0.3010 JOB REDUCIBLE TO
-0.3010 JOBS HARDER TO
-0.3010 JOBS HAVE A
-0.3010 JOBS HER PARENTS
-0.3010 JOBS THEY MIGHT
-0.3010 KAGGLE CHALLENGED ITS
-0.3010 KAGGLE OPERATES ON
-0.3010 KNOWLEDGE OF COOKING
-0.3010 LARGE VOLUMES OF
-0.3010 LAST YEAR WE
-0.3010 LAWYER BY THE
-0.3010 LAWYERS ARE STILL
-0.6021 LEARN FROM DATA
-0.6021 LEARN FROM LARGE
-0.7782 LEARNING IS NOW
-0.7782 LEARNING IS THAT
-0.7782 LEARNING IS THE
-0.3010 LEARNING STARTED MAKING
-0.3010 LEARNING WE BRING
-0.3010 LEGAL CONTRACTS ACCOUNTANTS
-0.3010 LET EVERY DAY
-0.3010 LIES IN THE
-0.3010 LIKE ASSESSING CREDIT
-0.3010 LIKE THIS A
-0.3010 LIMIT ON THE
-0.3010 LIMITATIONS OF MACHINE
-0.3010 LITIGATION BUT MACHINES
-0.3010 LITTLE PROGRESS IS
-0.3010 LOAN APPLICATIONS SORTING
-0.3010 LOOK DRAMATICALLY DIFFERENT
-0.3010 MACHINE CAN READ
-0.5229 MACHINE LEARNING IS
-1.0000 MACHINE LEARNING STARTED
-1.0000 MACHINE LEARNING WE
-0.7782 MACHINES ARE GETTING
-0.7782 MACHINES ARE GOING
-0.7782 MACHINES ARE NOT
-0.3010 MACHINES CAN DO
-0.3010 MACHINES CAN'T DO
-0.3010 MACHINES CANNOT COMPETE
-0.3010 MACHINES HAVE MADE
-0.3010 MACHINES MACHINE LEARNING
-0.3010 MACHINES ON FREQUENT
-0.3010 MACHINES TO LEARN
-0.6021 MACHINES WILL AUTOMATE
-0.6021 MACHINES WILL SHRINK
-0.3010 MADE DRAMATIC BREAKTHROUGHS
-0.3010 MADE VERY LITTLE
-0.3010 MAGNETRON WAS MELTING
-0.3010 MAIL BY READING
-0.3010 MAKE THESE JOBS
-0.3010 MAKING ITS WAY
-0.3010 MAKING PROGRESS ON
-0.3010 MANY TIMES BEFORE
-0.3010 MARKET THINGS THAT
-0.3010 MARKETING CAMPAIGN NEEDS
-0.3010 MARKETING CAMPAIGNS AND
-0.6021 MATCH THE DIAGNOSES
-0.6021 MATCH THE GRADES
-0.3010 MEAN FOR THE
-0.3010 MEANS FINDING GAPS
-0.3010 MELTING HIS CHOCOLATE
-0.3010 MENTIONED MACHINES ARE
-0.3010 MICROWAVE OVEN </s>
-0.3010 MIGHT AUTOMATE OR
-0.3010 MIGHT READ 10
-0.3010 MIGHT SEE 50
-0.6021 MILLIONS OF ESSAYS
-0.6021 MILLIONS OF EYES
-0.3010 MIMIC SOME OF
-0.3010 MINUTES WE HAVE
-0.3010 MONTHS OLD HER
-0.3010 MORE COMPLEX TASKS
-0.3010 MORE DIFFICULT CHALLENGE
-0.3010 MOST OF THIS
-0.3010 MOST POWERFUL BRANCH
-0.3010 MUM IS A
-0.3010 MY COMPANY KAGGLE
-0.3010 MY NIECE HER
-0.3010 NAME IS YAHLI
-0.3010 NEEDED FOR COMPLEX
-0.3010 NEEDED THEY'RE GOING
-0.6021 NEEDS TO GRAB
-0.6021 NEEDS TO LEARN
-0.3010 NEVER SEEN BEFORE
-0.3010 NEW CHALLENGE IF
-0.3010 NIECE HER NAME
-0.3010 NINE MONTHS OLD
-0.3010 NO CHANCE OF
-0.3010 NOBODY ELSE IS
-0.3010 NOT MAKING PROGRESS
-0.3010 NOTICED THE MAGNETRON
-0.9031 NOVEL SITUATIONS AND
-0.9031 NOVEL SITUATIONS ON
-0.9031 NOVEL SITUATIONS THE
-0.9031 NOVEL SITUATIONS THEY
-0.3010 NOW AS MENTIONED
-0.3010 NOW CAPABLE OF
-0.3010 NOW GIVEN THE
-0.3010 NOW HUMANS DON'T
-0.3010 NOW THIS IS
-0.3010 OF ANY SINGLE
-0.3010 OF ARTIFICIAL INTELLIGENCE
-0.3010 OF BEING AUTOMATED
-0.3010 OF COMPETING AGAINST
-0.3010 OF COOKING IN
-0.3010 OF CREATIVITY BUT
-0.3010 OF CROSS-POLLINATION HAPPENS
-0.3010 OF ELECTROMAGNETIC RADIATION
-0.3010 OF ESSAYS OR
-0.3010 OF EXPERTS TO
-0.3010 OF EYES WITHIN
-0.3010 OF FAR FAR
-0.3010 OF MACHINE LEARNING
-0.3010 OF PAST DATA
-0.7782 OF THE EYE
-0.7782 OF THE MACHINES
-0.7782 OF THE THINGS
-0.3010 OF THIS DISRUPTION
-0.3010 OF THOUSANDS OF
-0.3010 OF TIMES PER
-0.3010 OF US IN
-0.6021 OF WORK THE
-0.6021 OF WORK THEY
-0.3010 OLD HER MUM
-0.3010 ON FREQUENT HIGH-VOLUME
-0.3010 ON NOVEL SITUATIONS
-0.3010 ON RADAR DURING
-0.7782 ON THE CUTTING
-0.7782 ON THE FUTURE
-0.7782 ON THE HUMAN
-0.3010 ON WHAT MACHINES
-0.3010 ONE IN EVERY
-0.3010 OPERATES ON THE
-0.3010 OPHTHALMOLOGIST MIGHT SEE
-0.3010 OR SEE MILLIONS
-0.3010 OR THREATEN </s>
-0.3010 ORDER TO INVENT
-0.3010 OUR AUDITS AND
-0.3010 OUR BUSINESS STRATEGY
-0.3010 OUR MARKETING CAMPAIGNS
-0.3010 OUT FROM THE
-0.3010 OUTPERFORM HUMANS AT
-0.3010 OVER A 40-YEAR
-0.3010 OVER COMING YEARS
-0.3010 OVER THE PAST
-0.3010 OXFORD UNIVERSITY DID
-0.3010 PARENTS DO ARE
-0.3010 PARTICULARLY REMARKABLE EXAMPLE
-0.3010 PAST DATA NOW
-0.3010 PAST FEW YEARS
-0.3010 PATHBREAKING LITIGATION BUT
-0.3010 PER DAY MACHINES
-0.3010 PERCY SPENCER WAS
-0.3010 PERSPECTIVE ON WHAT
-0.3010 PHYSICIST WORKING ON
-0.3010 POWERFUL BRANCH OF
-0.3010 PROBLEMS FOR INDUSTRY
-0.3010 PROBLEMS WE'VE NEVER
-0.3010 PROGRESS IS IN
-0.3010 PROGRESS ON NOVEL
-0.3010 PUTS A FUNDAMENTAL
-0.3010 QUESTION TO WHAT
-0.3010 RADAR DURING WORLD
-0.3010 RADIATION WITH HIS
-0.3010 RANKS AND MAKE
-0.3010 READ 10 000
-0.3010 READ BOILERPLATE FROM
-0.3010 READ MILLIONS OF
-0.3010 READING HANDWRITTEN CHARACTERS
-0.3010 REDUCIBLE TO FREQUENT
-0.3010 RELATIVELY SIMPLE TASKS
-0.3010 REMARKABLE EXAMPLE OF
-0.3010 RESEARCHERS AT OXFORD
-0.3010 RESPONSIBLE FOR MOST
-0.3010 RETINOPATHY AGAIN THE
-0.3010 RIGHT DATA MACHINES
-0.3010 RISK FROM LOAN
-0.3010 RISK OF BEING
-0.3010 SEE 50 000
-0.3010 SEE MILLIONS OF
-0.3010 SEEMINGLY DISPARATE THREADS
-0.3010 SEEN BEFORE </s>
-0.3010 SEEN MANY TIMES
-0.3010 SHE IS NINE
-0.3010 SHRINK THEIR RANKS
-0.3010 SIMPLE TASKS IT
-0.3010 SINGLE JOB LIES
-0.3010 SINGLE QUESTION TO
-0.3010 SITUATIONS AND THIS
-0.3010 SITUATIONS ON FREQUENT
-0.3010 SITUATIONS THE COPY
-0.3010 SITUATIONS THEY CAN'T
-0.3010 SMALL WAYS THOUSANDS
-0.3010 SMARTER AND SMARTER
-0.3010 SMARTER TODAY THEY
-0.3010 SO THIS IS
-0.3010 SO WHAT DOES
-0.3010 SO YAHLI WHATEVER
-0.3010 SOLVE IMPORTANT PROBLEMS
-0.3010 SOLVE PROBLEMS WE'VE
-0.3010 SOME OF THE
-0.3010 SORT OF CROSS-POLLINATION
-0.3010 SORTING THE MAIL
-0.3010 SPENCER WAS A
-0.3010 STAND OUT FROM
-0.3010 STARTED MAKING ITS
-0.6021 STARTED WITH RELATIVELY
-0.6021 STARTED WITH THINGS
-0.3010 STATE OF ANY
-0.3010 STAY AHEAD OF
-0.3010 STILL NEEDED THEY'RE
-0.3010 STRATEGY MEANS FINDING
-0.3010 STRUCTURING FOR PATHBREAKING
-0.3010 STUDY ON THE
-0.3010 TACKLING NOVEL SITUATIONS
-0.3010 TAKE IMAGES OF
-0.3010 TASKS AND TO
-0.3010 TASKS IN 2012
-0.3010 TASKS IT STARTED
-0.3010 TASKS LIKE THIS
-0.3010 TASKS MACHINES ARE
-0.3010 TASKS THAT MACHINES
-0.3010 TAX STRUCTURING FOR
-0.3010 TEACHER MIGHT READ
-0.3010 TEACHERS LAST YEAR
-0.3010 TECHNOLOGY THAT'S RESPONSIBLE
-0.3010 THANK YOU </s>
-0.3010 THAT ALMOST ONE
-0.6021 THAT ARE CREATING
-0.6021 THAT ARE DEVELOPING
-0.3010 THAT COULD GRADE
-0.3010 THAT HUMANS CAN
-0.3010 THAT IT NEEDS
-0.3010 THAT JOB REDUCIBLE
-0.6021 THAT MACHINES CAN'T
-0.6021 THAT MACHINES WILL
-0.3010 THAT NOBODY ELSE
-0.3010 THAT'S RESPONSIBLE FOR
-0.3010 THE ABILITY TO
-0.3010 THE ANSWER TO
-0.3010 THE COPY BEHIND
-0.3010 THE CROWD BUSINESS
-0.3010 THE CUTTING EDGE
-0.3010 THE DIAGNOSES GIVEN
-0.3010 THE EARLY '90S
-0.3010 THE EYE AND
-0.3010 THE FUNDAMENTAL LIMITATIONS
-0.4771 THE FUTURE OF
-0.7782 THE FUTURE STATE
-0.3010 THE GRADES GIVEN
-0.3010 THE HUMAN TASKS
-0.3010 THE JOBS HER
-0.3010 THE MACHINES </s>
-0.3010 THE MAGNETRON WAS
-0.3010 THE MAIL BY
-0.3010 THE MARKET THINGS
-0.3010 THE MICROWAVE OVEN
-0.3010 THE MOST POWERFUL
-0.3010 THE PAST FEW
-0.3010 THE RIGHT DATA
-0.3010 THE TECHNOLOGY THAT'S
-0.3010 THE THINGS THAT
-0.3010 THE TIME YAHLI
-0.3010 THE WINNING ALGORITHMS
-0.3010 THEIR RANKS AND
-0.3010 THEN YOU WILL
-0.3010 THERE ARE THINGS
-0.3010 THESE JOBS HARDER
-0.6021 THEY CAN'T DO
-0.6021 THEY CAN'T HANDLE
-0.3010 THEY CONCLUDED THAT
-0.3010 THEY DIAGNOSE CERTAIN
-0.3010 THEY GRADE ESSAYS
-0.3010 THEY HAVEN'T SEEN
-0.3010 THEY MIGHT AUTOMATE
-0.3010 THEY'RE GOING TO
-0.3010 THINGS LIKE ASSESSING
-0.6021 THINGS THAT HUMANS
-0.6021 THINGS THAT NOBODY
-0.3010 THINGS THEY HAVEN'T
-0.3010 THINGS WE CAN
-0.3010 THIS A TEACHER
-0.3010 THIS DISRUPTION IT'S
-0.3010 THIS GIVES US
-0.6021 THIS IS A
-0.6021 THIS IS MY
-0.3010 THIS MEAN FOR
-0.3010 THIS PUTS A
-0.3010 THIS SORT OF
-0.6021 THOUSANDS OF EXPERTS
-0.6021 THOUSANDS OF TIMES
-0.3010 THREADS TO SOLVE
-0.3010 TIME YAHLI GOES
-0.3010 TIMES BEFORE THE
-0.3010 TIMES PER DAY
-0.3010 TO A SINGLE
-0.3010 TO BE NEEDED
-0.3010 TO BUILD AN
-0.3010 TO COLLEGE THE
-0.3010 TO COME BY
-0.3010 TO CONDUCT OUR
-0.6021 TO CONNECT HIS
-0.6021 TO CONNECT SEEMINGLY
-0.3010 TO DO LET
-0.3010 TO FREQUENT HIGH-VOLUME
-0.3010 TO GRAB CONSUMERS
-0.3010 TO INVENT ANY
-0.3010 TO LEARN FROM
-0.3010 TO LOOK DRAMATICALLY
-0.3010 TO MATCH THE
-0.3010 TO OUTPERFORM HUMANS
-0.3010 TO READ BOILERPLATE
-0.6021 TO SOLVE IMPORTANT
-0.6021 TO SOLVE PROBLEMS
-0.3010 TO STAND OUT
-0.3010 TO TACKLING NOVEL
-0.3010 TO WHAT EXTENT
-0.3010 TODAY THEY GRADE
-0.3010 TOGETHER HUNDREDS OF
-0.3010 TWO JOBS HAVE
-0.3010 UNDERSTANDING OF ELECTROMAGNETIC
-0.3010 UNIQUE PERSPECTIVE ON
-0.3010 UNIVERSITY DID A
-0.3010 US A UNIQUE
-0.3010 US IN SMALL
-0.3010 US WHEN IT
-0.3010 VERY LITTLE PROGRESS
-0.3010 VOLUMES OF PAST
-0.3010 WAR II WHEN
-0.3010 WAS A PHYSICIST
-0.3010 WAS ABLE TO
-0.3010 WAS MELTING HIS
-0.3010 WAY INTO INDUSTRY
-0.3010 WAYS THOUSANDS OF
-0.3010 WE BRING TOGETHER
-0.3010 WE CAN DO
-0.7782 WE HAVE MADE
-0.7782 WE HAVE NO
-0.7782 WE HAVE THE
-0.3010 WE ISSUED AN
-0.3010 WE'VE NEVER SEEN
-0.3010 WERE ABLE TO
-0.3010 WHAT DOES THIS
-0.6021 WHAT EXTENT DOES
-0.6021 WHAT EXTENT IS
-0.3010 WHAT JOBS THEY
-0.3010 WHAT MACHINES CAN
-0.3010 WHAT THEY CAN'T
-0.3010 WHATEVER YOU DECIDE
-0.3010 WHEN HE NOTICED
-0.3010 WHEN IT COMES
-0.3010 WHERE MACHINES HAVE
-0.3010 WILL AUTOMATE </s>
-0.3010 WILL BE HUMANS
-0.3010 WILL SHRINK THEIR
-0.3010 WILL STAY AHEAD
-0.3010 WINNING ALGORITHMS WERE
-0.3010 WITH HIS KNOWLEDGE
-0.3010 WITH RELATIVELY SIMPLE
-0.3010 WITH THINGS LIKE
-0.3010 WITH US WHEN
-0.3010 WITHIN MINUTES WE
-0.3010 WORK THE FUTURE
-0.3010 WORK THEY CONCLUDED
-0.3010 WORKING ON RADAR
-0.3010 WORLD WAR II
-0.3010 YAHLI GOES TO
-0.3010 YAHLI SHE IS
-0.3010 YAHLI WHATEVER YOU
-0.3010 YEAR WE ISSUED
-0.3010 YEARS THEY'RE GOING
-0.3010 YEARS WE HAVE
-0.3010 YOU A NEW
-0.3010 YOU DECIDE TO
-0.3010 YOU TAKE IMAGES
-0.3010 YOU WILL STAY
-0.3010 ZIP CODES OVER

\end\
