Language model created by QuickLM on Sat Sep 30 13:08:33 EDT 2017
Copyright (c) 1996-2010 Carnegie Mellon University and Alexander I. Rudnicky

The model is in standard ARPA format, designed by Doug Paul while he was at MITRE.

The code that was used to produce this language model is available in Open Source.
Please visit http://www.speech.cs.cmu.edu/tools/ for more information

The (fixed) discount mass is 0.5. The backoffs are computed using the ratio method.
This model based on a corpus of 9 sentences and 194 words

\data\
ngram 1=194
ngram 2=372
ngram 3=404

\1-grams:
-2.9465 4.5 -0.3005
-1.9922 </s> -0.3010
-1.9922 <s> -0.2921
-1.8325 A -0.2936
-2.9465 ABOUT -0.2976
-2.6454 ACCESS -0.2976
-2.9465 ACCUMULATE -0.3000
-2.4693 ACCUMULATING -0.2881
-2.9465 AGRICULTURE -0.3005
-2.6454 ALSO -0.2891
-2.9465 AM -0.3005
-2.6454 AMOUNT -0.2956
-2.3444 AN -0.2971
-1.6454 AND -0.2700
-2.9465 ANY -0.3005
-2.9465 APPLY -0.3000
-2.4693 ARE -0.2991
-2.9465 AREA -0.2976
-2.6454 AROUND -0.2896
-2.6454 AS -0.2986
-2.6454 AT -0.2896
-2.9465 ATTRACTS -0.2996
-2.6454 BACK -0.2986
-2.1683 BACTERIA -0.2835
-2.9465 BEFORE -0.3000
-2.9465 BEGINNING -0.2956
-2.9465 BILLION -0.3005
-2.3444 BRINE -0.2855
-2.9465 BRINE. -0.2911
-2.4693 BUT -0.2819
-2.6454 BY -0.2991
-2.9465 CALCIUM, -0.3005
-2.6454 CAN -0.2996
-2.9465 CHARGE -0.2911
-2.4693 CLEAN -0.2961
-2.9465 COLLABORATE -0.2991
-2.9465 COLLABORATION -0.2991
-2.9465 COMES -0.2996
-2.9465 CONCENTRATED -0.3005
-2.9465 COST -0.3005
-2.6454 COUNTRIES -0.2996
-2.9465 CREATE -0.2991
-2.9465 CRITICAL -0.3005
-2.9465 DAY -0.2956
-2.9465 DEFILING -0.2896
-2.9465 DESALINATED -0.2976
-2.2475 DESALINATION -0.2966
-2.9465 DETRIMENTAL -0.2976
-2.4693 DO -0.2926
-2.9465 DOES -0.3000
-2.9465 DOESN'T -0.3005
-2.9465 DOING -0.3000
-2.9465 DOLLAR -0.2991
-2.4693 DRINKING -0.2876
-2.9465 EARTH -0.3000
-2.9465 ECOLOGY -0.2956
-2.9465 ELECTRICAL -0.3005
-2.9465 ENERGY -0.3005
-2.6454 ENVIRONMENT -0.2906
-2.9465 EQUALLY -0.3005
-2.9465 EQUATES -0.2976
-2.9465 EXISTED -0.3005
-2.9465 EXPENSIVE -0.2911
-2.9465 FILTRATION -0.3000
-2.9465 FOOTAGE -0.2976
-2.1683 FOR -0.2936
-2.9465 FORCES -0.2896
-2.2475 FROM -0.2825
-2.6454 GLOBE -0.2865
-2.9465 HARMONY -0.2991
-2.9465 HASN'T -0.3005
-2.6454 HAVE -0.2996
-2.9465 HELPING -0.3005
-2.6454 HERE -0.2946
-2.9465 HOUR -0.2966
-2.9465 HUNDRED -0.3005
-2.2475 I -0.2981
-2.9465 I'D -0.3000
-2.9465 IMAGE -0.2946
-2.6454 IMAGINE -0.2916
-2.1683 IN -0.2804
-2.9465 INADEQUATE -0.3000
-2.2475 INDUSTRY -0.2916
-2.4693 INTO -0.2845
-1.8325 IS -0.2742
-2.9465 IT -0.2981
-2.6454 IT'S -0.2996
-2.6454 JUST -0.2996
-2.9465 LEADING -0.2996
-2.9465 LEFT -0.2991
-2.6454 LIKE -0.2976
-2.9465 LITERS -0.3005
-2.6454 LOCAL -0.2996
-2.9465 MADE -0.3005
-2.6454 MAGNESIUM -0.2886
-2.9465 MANY -0.3000
-2.9465 MASSIVE -0.3000
-2.9465 MEAN -0.3005
-2.6454 MEMBRANE -0.2961
-2.9465 MENTIONED -0.3005
-2.9465 METABOLIZING -0.2911
-2.4693 METALS -0.2971
-2.9465 MILLION -0.3005
-2.4693 MINERALS -0.2956
-2.3444 MINING -0.2986
-2.6454 MOMENT -0.2845
-2.9465 MOST -0.3005
-2.9465 MOTION -0.3005
-2.9465 MY -0.3005
-2.9465 NATURAL -0.3005
-2.9465 NATURE -0.2966
-2.9465 NINE -0.3005
-2.6454 NOT -0.3000
-1.9051 OF -0.2799
-2.9465 OFTENTIMES -0.3000
-2.9465 ON -0.2896
-2.4693 ONE -0.2936
-2.9465 OR -0.2991
-2.6454 OSMOSIS -0.2946
-2.2475 OUT -0.2931
-2.9465 OVER -0.2896
-2.9465 PARTICULARLY -0.2996
-2.9465 PEOPLE -0.2946
-2.9465 PER -0.3005
-2.9465 PERIOD -0.2956
-2.9465 PERVASIVE -0.3005
-2.4693 PLACE -0.2936
-2.9465 PLAY -0.2966
-2.9465 POTASSIUM -0.2911
-2.9465 PRECIPITATING -0.2911
-2.6454 PRESSURE -0.2906
-2.9465 PROBLEMS -0.2981
-2.6454 PROCESS -0.2946
-2.6454 PRODUCE -0.2986
-2.9465 PRODUCED -0.2946
-2.9465 PRODUCING -0.2996
-2.9465 PROHIBITIVE -0.2981
-2.9465 PROPOSES -0.3000
-2.6454 PUMPED -0.3000
-2.9465 REALLY -0.2946
-2.9465 RECENTLY -0.2996
-2.9465 REMOVING -0.2896
-2.9465 RESOURCES -0.2966
-2.6454 REVERSE -0.3000
-2.9465 SALT -0.3005
-2.6454 SALTS -0.2956
-2.6454 SEA -0.2906
-2.9465 SEA. -0.2911
-2.4693 SEAWATER -0.2991
-2.9465 SEDIMENTING -0.2996
-2.6454 SEE -0.2971
-2.9465 SEEING -0.3000
-2.9465 SHOW -0.2981
-2.4693 SINGAPORE -0.2931
-2.9465 SIXTY -0.2976
-2.1683 SO -0.2941
-2.9465 SOLUTION -0.3005
-2.9465 SOME -0.3005
-2.9465 STOP -0.3005
-2.9465 SURFACE -0.2956
-2.6454 TAKE -0.2871
-2.9465 TAKES -0.3005
-2.9465 TECHNIQUE -0.2981
-2.6454 TECHNOLOGY -0.2881
-2.9465 TERMS -0.2956
-2.9465 TEST -0.3005
-2.9465 THANK -0.2981
-2.1014 THAT -0.2886
-2.6454 THAT'S -0.3000
-1.5847 THE -0.2778
-2.6454 THEIR -0.2991
-2.9465 THESE -0.2996
-2.6454 THEY -0.2991
-1.9922 THIS -0.2876
-2.6454 THROUGH -0.2936
-2.1014 TO -0.2794
-2.9465 TODAY -0.2981
-2.9465 TUBE -0.2946
-2.9465 TWENTY -0.3005
-2.9465 US -0.2996
-2.9465 USE -0.3005
-2.9465 VERY -0.3005
-2.1014 WATER -0.2819
-2.9465 WAY -0.2976
-2.1683 WE -0.2971
-2.9465 WE'RE -0.2996
-2.4693 WHAT -0.2951
-2.4693 WHERE -0.2946
-2.9465 WHO -0.2996
-2.6454 WILL -0.2991
-2.3444 WITH -0.2911
-2.9465 WORK -0.2981
-2.9465 WORLD -0.3005
-2.1683 YOU -0.2891

\2-grams:
-0.3010 4.5 BILLION 0.0000
-1.2553 <s> BUT -0.2218
-1.2553 <s> I -0.2553
-1.2553 <s> ONE -0.2218
-0.5563 <s> SO -0.0669
-1.2553 <s> THANK 0.0000
-1.4150 A 4.5 0.0000
-1.4150 A CONCENTRATED 0.0000
-1.4150 A CRITICAL 0.0000
-1.4150 A LEADING 0.0000
-1.1139 A MEMBRANE 0.0000
-0.9379 A MINING 0.0000
-1.1139 A PLACE -0.1249
-1.4150 A TEST 0.0000
-1.4150 A WAY 0.0000
-0.3010 ABOUT TO -0.2688
-0.3010 ACCESS TO -0.2341
-0.3010 ACCUMULATE AS -0.1761
-0.7782 ACCUMULATING AND -0.2900
-0.7782 ACCUMULATING METALS -0.2218
-0.7782 ACCUMULATING MINERALS -0.2218
-0.3010 AGRICULTURE REMOVING 0.0000
-0.6021 ALSO LEFT 0.0000
-0.6021 ALSO THE -0.2915
-0.3010 AM ABOUT 0.0000
-0.3010 AMOUNT OF -0.2139
-0.9031 AN ELECTRICAL 0.0000
-0.9031 AN EQUALLY 0.0000
-0.9031 AN HOUR 0.0000
-0.9031 AN INDUSTRY -0.2041
-1.6021 AND AGRICULTURE 0.0000
-1.6021 AND ALSO -0.1761
-1.6021 AND AS -0.1761
-1.6021 AND I -0.2553
-1.6021 AND IT'S -0.1761
-1.6021 AND MAGNESIUM -0.1761
-1.6021 AND PRECIPITATING 0.0000
-1.6021 AND SEDIMENTING 0.0000
-1.6021 AND SINGAPORE -0.2218
-1.3010 AND THE -0.2817
-1.6021 AND THESE 0.0000
-0.8239 AND THIS -0.1249
-1.6021 AND WE -0.2632
-1.6021 AND WHAT -0.1249
-0.3010 ANY NATURAL 0.0000
-0.3010 APPLY PRESSURE -0.1761
-0.7782 ARE ALSO -0.1761
-0.7782 ARE DOING 0.0000
-0.7782 ARE SEEING 0.0000
-0.3010 AREA THAT -0.2688
-0.3010 AROUND THE -0.2817
-0.6021 AS MINERALS -0.2218
-0.6021 AS THEY -0.1761
-0.3010 AT THE -0.2817
-0.3010 ATTRACTS METALS -0.2218
-0.3010 BACK OUT -0.2041
-1.0792 BACTERIA </s> -0.3010
-1.0792 BACTERIA ACCUMULATING -0.2218
-1.0792 BACTERIA AND -0.2900
-1.0792 BACTERIA COMES 0.0000
-1.0792 BACTERIA HELPING 0.0000
-1.0792 BACTERIA METABOLIZING 0.0000
-0.3010 BEFORE IMAGINE -0.1761
-0.3010 BEGINNING OF -0.2596
-0.3010 BILLION DOLLAR 0.0000
-0.9031 BRINE </s> -0.3010
-0.6021 BRINE AND -0.2175
-0.9031 BRINE THAT'S -0.1761
-0.3010 BRINE. AND -0.2304
-0.7782 BUT THE -0.2915
-0.7782 BUT THIS -0.2762
-0.7782 BUT WE -0.2218
-0.6021 BY ACCUMULATING -0.2218
-0.6021 BY TWENTY 0.0000
-0.3010 CALCIUM, POTASSIUM 0.0000
-0.6021 CAN SEE -0.1761
-0.6021 CAN USE 0.0000
-0.3010 CHARGE AND -0.2304
-0.4771 CLEAN DRINKING -0.1249
-0.7782 CLEAN WATER -0.2341
-0.3010 COLLABORATE WITH -0.1761
-0.3010 COLLABORATION WITH -0.1761
-0.3010 COMES INTO -0.2218
-0.3010 CONCENTRATED SALT 0.0000
-0.3010 COST PROHIBITIVE 0.0000
-0.6021 COUNTRIES AROUND 0.0000
-0.6021 COUNTRIES WHO 0.0000
-0.3010 CREATE AN -0.2430
-0.3010 CRITICAL TECHNIQUE 0.0000
-0.3010 DAY OF -0.2808
-0.3010 DEFILING THE -0.2915
-0.3010 DESALINATED WATER -0.2341
-0.6990 DESALINATION BRINE -0.1761
-1.0000 DESALINATION BRINE. 0.0000
-1.0000 DESALINATION PROCESS 0.0000
-1.0000 DESALINATION TECHNOLOGY -0.1761
-0.3010 DETRIMENTAL TO -0.2688
-0.7782 DO NOT 0.0000
-0.7782 DO SO -0.2632
-0.7782 DO THIS -0.2762
-0.3010 DOES NOT 0.0000
-0.3010 DOESN'T MEAN 0.0000
-0.3010 DOING AT 0.0000
-0.3010 DOLLAR MINING 0.0000
-0.7782 DRINKING AND -0.2900
-0.4771 DRINKING WATER -0.2341
-0.3010 EARTH IMAGINE -0.1761
-0.3010 ECOLOGY OF -0.2374
-0.3010 ELECTRICAL CHARGE 0.0000
-0.3010 ENERGY PRODUCING 0.0000
-0.6021 ENVIRONMENT AND -0.2900
-0.6021 ENVIRONMENT OVER 0.0000
-0.3010 EQUALLY MASSIVE 0.0000
-0.3010 EQUATES TO -0.2688
-0.3010 EXISTED BEFORE 0.0000
-0.3010 EXPENSIVE AND -0.2900
-0.3010 FILTRATION TECHNOLOGY -0.1761
-0.3010 FOOTAGE THAT -0.2341
-1.0792 FOR COUNTRIES -0.1761
-1.0792 FOR DESALINATION -0.2553
-1.0792 FOR DRINKING -0.2218
-1.0792 FOR MANY 0.0000
-1.0792 FOR PEOPLE 0.0000
-1.0792 FOR SINGAPORE -0.2218
-0.3010 FORCES THE -0.2915
-1.0000 FROM OUT -0.2041
-1.0000 FROM THE -0.2817
-0.6990 FROM THEIR 0.0000
-1.0000 FROM WATER -0.2688
-0.6021 GLOBE </s> -0.3010
-0.6021 GLOBE AND -0.2900
-0.3010 HARMONY WITH -0.2430
-0.3010 HASN'T EXISTED 0.0000
-0.6021 HAVE ACCESS 0.0000
-0.6021 HAVE ANY 0.0000
-0.3010 HELPING US 0.0000
-0.3010 HERE IS -0.2663
-0.3010 HOUR </s> -0.3010
-0.3010 HUNDRED MILLION 0.0000
-1.0000 I AM 0.0000
-1.0000 I COLLABORATE 0.0000
-1.0000 I JUST -0.1761
-1.0000 I MADE 0.0000
-1.0000 I WORK 0.0000
-0.3010 I'D LIKE -0.1761
-0.3010 IMAGE A -0.2478
-0.6021 IMAGINE A -0.2478
-0.6021 IMAGINE BACTERIA -0.2632
-0.7782 IN A -0.2663
-1.0792 IN HARMONY 0.0000
-1.0792 IN SINGAPORE -0.2218
-1.0792 IN TERMS 0.0000
-1.0792 IN THE -0.2915
-0.3010 INADEQUATE ACCESS 0.0000
-1.0000 INDUSTRY FOR -0.2632
-0.6990 INDUSTRY IN -0.2218
-0.6990 INDUSTRY THAT -0.2341
-0.7782 INTO </s> -0.3010
-0.7782 INTO PLAY 0.0000
-0.7782 INTO THE -0.2915
-0.9379 IS A -0.2083
-1.4150 IS DETRIMENTAL 0.0000
-1.4150 IS IN -0.2632
-1.4150 IS INADEQUATE 0.0000
-1.4150 IS OFTENTIMES 0.0000
-1.4150 IS ONE -0.2218
-1.1139 IS THE -0.2717
-1.4150 IS VERY 0.0000
-1.4150 IS WE'RE 0.0000
-1.4150 IS WHERE -0.2218
-0.3010 IT FOR -0.2632
-0.6021 IT'S COST 0.0000
-0.6021 IT'S PUMPED 0.0000
-0.6021 JUST MENTIONED 0.0000
-0.6021 JUST PUMPED 0.0000
-0.3010 LEADING PLACE -0.2218
-0.3010 LEFT WITH -0.2430
-0.6021 LIKE CALCIUM, 0.0000
-0.6021 LIKE YOU -0.2632
-0.3010 LITERS PER 0.0000
-0.6021 LOCAL ECOLOGY 0.0000
-0.6021 LOCAL ENVIRONMENT -0.1761
-0.3010 MADE RECENTLY 0.0000
-0.6021 MAGNESIUM AND -0.2788
-0.6021 MAGNESIUM FROM -0.2553
-0.3010 MANY COUNTRIES -0.1761
-0.3010 MASSIVE AMOUNT 0.0000
-0.3010 MEAN DEFILING 0.0000
-0.6021 MEMBRANE FILTRATION 0.0000
-0.6021 MEMBRANE THIS -0.2762
-0.3010 MENTIONED EQUATES 0.0000
-0.3010 METABOLIZING AND -0.2900
-0.7782 METALS ACCUMULATE 0.0000
-0.7782 METALS FROM -0.2041
-0.7782 METALS LIKE -0.1761
-0.3010 MILLION LITERS 0.0000
-0.7782 MINERALS FROM -0.2041
-0.7782 MINERALS ON 0.0000
-0.7782 MINERALS OUT -0.2041
-0.3010 MINING INDUSTRY 0.0000
-0.6021 MOMENT AND -0.2304
-0.6021 MOMENT IS -0.2840
-0.3010 MOST PERVASIVE 0.0000
-0.3010 MOTION FOOTAGE 0.0000
-0.3010 MY COLLABORATION 0.0000
-0.3010 NATURAL RESOURCES 0.0000
-0.3010 NATURE </s> -0.3010
-0.3010 NINE HUNDRED 0.0000
-0.3010 NOT HAVE 0.0000
-1.0414 OF AN -0.1761
-1.3424 OF DESALINATED 0.0000
-0.8653 OF DESALINATION -0.1461
-1.3424 OF MAGNESIUM -0.1761
-0.8653 OF THE -0.2511
-1.3424 OF WATER -0.2688
-0.3010 OFTENTIMES JUST -0.1761
-0.3010 ON THE -0.2915
-0.7782 ONE HASN'T 0.0000
-0.7782 ONE OF -0.2374
-0.7782 ONE WHERE -0.2218
-0.3010 OR BRINE -0.2430
-0.3010 OSMOSIS IS -0.2478
-0.6990 OUT INTO -0.1249
-0.6990 OUT OF -0.2374
-1.0000 OUT SALTS -0.1761
-0.3010 OVER THE -0.2915
-0.3010 PARTICULARLY SEAWATER -0.1249
-0.3010 PEOPLE IS -0.2840
-0.3010 PER DAY 0.0000
-0.3010 PERIOD OF -0.2596
-0.3010 PERVASIVE PROBLEMS 0.0000
-0.7782 PLACE FOR -0.2632
-0.7782 PLACE THAT -0.2688
-0.7782 PLACE THAT'S -0.1761
-0.3010 PLAY </s> -0.3010
-0.3010 POTASSIUM AND -0.2900
-0.3010 PRECIPITATING AND -0.2900
-0.6021 PRESSURE AND -0.2304
-0.6021 PRESSURE FORCES 0.0000
-0.3010 PROBLEMS IN -0.2632
-0.3010 PROCESS IS -0.2663
-0.6021 PRODUCE AN -0.2430
-0.6021 PRODUCE NINE 0.0000
-0.3010 PRODUCED IS -0.2840
-0.3010 PRODUCING CLEAN -0.2218
-0.3010 PROHIBITIVE FOR -0.2632
-0.3010 PROPOSES BY -0.1761
-0.3010 PUMPED BACK 0.0000
-0.3010 REALLY A -0.2840
-0.3010 RECENTLY WHERE -0.2218
-0.3010 REMOVING THE -0.2915
-0.3010 RESOURCES </s> -0.3010
-0.3010 REVERSE OSMOSIS 0.0000
-0.3010 SALT SOLUTION 0.0000
-0.6021 SALTS FROM -0.2553
-0.6021 SALTS WE -0.2632
-0.6021 SEA AND -0.2900
-0.6021 SEA AREA 0.0000
-0.3010 SEA. AND -0.2304
-0.7782 SEAWATER REVERSE 0.0000
-0.4771 SEAWATER THROUGH 0.0000
-0.3010 SEDIMENTING MINERALS -0.2218
-0.6021 SEE BACTERIA -0.2632
-0.6021 SEE HERE 0.0000
-0.3010 SEEING HERE 0.0000
-0.3010 SHOW YOU -0.2632
-0.7782 SINGAPORE A -0.2663
-0.7782 SINGAPORE AT 0.0000
-0.7782 SINGAPORE PROPOSES 0.0000
-0.3010 SIXTY TO -0.2688
-1.0792 SO I -0.2553
-1.0792 SO I'D 0.0000
-1.0792 SO SEAWATER -0.2218
-1.0792 SO THEY -0.1761
-0.7782 SO WHAT 0.0000
-0.3010 SOLUTION OR 0.0000
-0.3010 SOME STOP 0.0000
-0.3010 STOP MOTION 0.0000
-0.3010 SURFACE OF -0.2374
-0.6021 TAKE OUT -0.2553
-0.6021 TAKE THE -0.2915
-0.3010 TAKES ENERGY 0.0000
-0.3010 TECHNIQUE FOR -0.2632
-0.6021 TECHNOLOGY AND -0.2900
-0.6021 TECHNOLOGY WE -0.2218
-0.3010 TERMS OF -0.2808
-0.3010 TEST TUBE 0.0000
-0.3010 THANK YOU -0.2632
-1.1461 THAT DOES 0.0000
-1.1461 THAT DOESN'T 0.0000
-0.8451 THAT I -0.2041
-1.1461 THAT IS -0.2840
-1.1461 THAT IT'S -0.1761
-1.1461 THAT ONE -0.2218
-0.6021 THAT'S PRODUCED 0.0000
-0.6021 THAT'S REALLY 0.0000
-1.6628 THE AMOUNT 0.0000
-1.3617 THE BACTERIA -0.2218
-1.6628 THE BEGINNING 0.0000
-1.6628 THE BRINE -0.2430
-1.6628 THE DESALINATION -0.2553
-1.6628 THE EARTH 0.0000
-1.3617 THE GLOBE 0.0000
-1.6628 THE LOCAL -0.1761
-1.3617 THE MOMENT 0.0000
-1.6628 THE MOST 0.0000
-1.6628 THE PERIOD 0.0000
-1.6628 THE PROCESS 0.0000
-1.6628 THE SALTS -0.1761
-1.3617 THE SEA 0.0000
-1.6628 THE SEA. 0.0000
-1.6628 THE SEAWATER -0.1249
-1.6628 THE SURFACE 0.0000
-1.6628 THE WATER -0.2688
-1.6628 THE WORLD 0.0000
-0.6021 THEIR ENVIRONMENT -0.1761
-0.6021 THEIR LOCAL -0.1761
-0.3010 THESE METALS -0.2218
-0.6021 THEY CREATE 0.0000
-0.6021 THEY DO -0.2218
-1.2553 THIS ATTRACTS 0.0000
-1.2553 THIS BY -0.1761
-1.2553 THIS IN -0.2632
-0.7782 THIS IS -0.2083
-1.2553 THIS PRESSURE -0.1761
-1.2553 THIS TAKES 0.0000
-1.2553 THIS WILL -0.1761
-0.6021 THROUGH A -0.2663
-0.6021 THROUGH REVERSE 0.0000
-1.1461 TO A -0.2840
-0.8451 TO CLEAN -0.1249
-1.1461 TO IMAGE 0.0000
-1.1461 TO PRODUCE -0.1761
-1.1461 TO SHOW 0.0000
-1.1461 TO THE -0.2915
-0.3010 TODAY FOR -0.2632
-0.3010 TUBE A -0.2478
-0.3010 TWENTY SIXTY 0.0000
-0.3010 US DO -0.2218
-0.3010 USE IT 0.0000
-0.3010 VERY EXPENSIVE 0.0000
-1.1461 WATER AND -0.2788
-1.1461 WATER AROUND 0.0000
-0.8451 WATER BUT -0.1249
-1.1461 WATER FROM -0.2553
-1.1461 WATER PARTICULARLY 0.0000
-1.1461 WATER THAT -0.2341
-0.3010 WAY THAT -0.2688
-1.0792 WE APPLY 0.0000
-0.7782 WE ARE -0.1249
-1.0792 WE CAN -0.1761
-0.7782 WE TAKE 0.0000
-0.3010 WE'RE ACCUMULATING -0.2218
-0.7782 WHAT WE -0.2218
-0.4771 WHAT YOU -0.2218
-0.7782 WHERE MY 0.0000
-0.7782 WHERE WE -0.2218
-0.7782 WHERE YOU -0.2632
-0.3010 WHO DO -0.2218
-0.6021 WILL PRODUCE -0.1761
-0.6021 WILL SEE -0.1761
-0.9031 WITH A -0.2840
-0.6021 WITH BACTERIA -0.2218
-0.9031 WITH NATURE 0.0000
-0.3010 WORK IN -0.2632
-0.3010 WORLD TODAY 0.0000
-1.0792 YOU </s> -0.3010
-1.0792 YOU ARE -0.2218
-1.0792 YOU CAN -0.1761
-1.0792 YOU SOME 0.0000
-1.0792 YOU TO -0.2688
-1.0792 YOU WILL -0.1761

\3-grams:
-0.3010 4.5 BILLION DOLLAR
-0.3010 <s> BUT THE
-0.3010 <s> I COLLABORATE
-0.3010 <s> ONE OF
-1.0000 <s> SO I
-1.0000 <s> SO I'D
-1.0000 <s> SO SEAWATER
-0.6990 <s> SO WHAT
-0.3010 <s> THANK YOU
-0.3010 A 4.5 BILLION
-0.3010 A CONCENTRATED SALT
-0.3010 A CRITICAL TECHNIQUE
-0.3010 A LEADING PLACE
-0.6021 A MEMBRANE FILTRATION
-0.6021 A MEMBRANE THIS
-0.3010 A MINING INDUSTRY
-0.6021 A PLACE THAT
-0.6021 A PLACE THAT'S
-0.3010 A TEST TUBE
-0.3010 A WAY THAT
-0.3010 ABOUT TO SHOW
-0.3010 ACCESS TO CLEAN
-0.3010 ACCUMULATE AS MINERALS
-0.3010 ACCUMULATING AND PRECIPITATING
-0.3010 ACCUMULATING METALS LIKE
-0.3010 ACCUMULATING MINERALS FROM
-0.3010 AGRICULTURE REMOVING THE
-0.3010 ALSO LEFT WITH
-0.3010 ALSO THE BRINE
-0.3010 AM ABOUT TO
-0.6021 AMOUNT OF DESALINATION
-0.6021 AMOUNT OF WATER
-0.3010 AN ELECTRICAL CHARGE
-0.3010 AN EQUALLY MASSIVE
-0.3010 AN HOUR </s>
-0.3010 AN INDUSTRY IN
-0.3010 AND AGRICULTURE REMOVING
-0.3010 AND ALSO THE
-0.3010 AND AS THEY
-0.3010 AND I AM
-0.3010 AND IT'S COST
-0.3010 AND MAGNESIUM FROM
-0.3010 AND PRECIPITATING AND
-0.3010 AND SEDIMENTING MINERALS
-0.3010 AND SINGAPORE PROPOSES
-0.6021 AND THE AMOUNT
-0.6021 AND THE DESALINATION
-0.3010 AND THESE METALS
-1.0792 AND THIS ATTRACTS
-1.0792 AND THIS IN
-0.6021 AND THIS IS
-1.0792 AND THIS PRESSURE
-0.3010 AND WE APPLY
-0.3010 AND WHAT YOU
-0.3010 ANY NATURAL RESOURCES
-0.3010 APPLY PRESSURE AND
-0.3010 ARE ALSO LEFT
-0.3010 ARE DOING AT
-0.3010 ARE SEEING HERE
-0.3010 AREA THAT IT'S
-0.3010 AROUND THE GLOBE
-0.3010 AS MINERALS ON
-0.3010 AS THEY DO
-0.3010 AT THE MOMENT
-0.3010 ATTRACTS METALS FROM
-0.3010 BACK OUT INTO
-0.3010 BACTERIA ACCUMULATING MINERALS
-0.3010 BACTERIA AND I
-0.3010 BACTERIA COMES INTO
-0.3010 BACTERIA HELPING US
-0.3010 BACTERIA METABOLIZING AND
-0.3010 BEFORE IMAGINE A
-0.3010 BEGINNING OF AN
-0.3010 BILLION DOLLAR MINING
-0.6021 BRINE AND THIS
-0.6021 BRINE AND WHAT
-0.3010 BRINE THAT'S PRODUCED
-0.3010 BRINE. AND THIS
-0.3010 BUT THE PROCESS
-0.3010 BUT THIS WILL
-0.3010 BUT WE ARE
-0.3010 BY ACCUMULATING AND
-0.3010 BY TWENTY SIXTY
-0.3010 CALCIUM, POTASSIUM AND
-0.3010 CAN SEE HERE
-0.3010 CAN USE IT
-0.3010 CHARGE AND THIS
-0.3010 CLEAN DRINKING WATER
-0.3010 CLEAN WATER BUT
-0.3010 COLLABORATE WITH BACTERIA
-0.3010 COLLABORATION WITH BACTERIA
-0.3010 COMES INTO PLAY
-0.3010 CONCENTRATED SALT SOLUTION
-0.3010 COST PROHIBITIVE FOR
-0.3010 COUNTRIES AROUND THE
-0.3010 COUNTRIES WHO DO
-0.3010 CREATE AN ELECTRICAL
-0.3010 CRITICAL TECHNIQUE FOR
-0.3010 DAY OF DESALINATED
-0.3010 DEFILING THE EARTH
-0.3010 DESALINATED WATER BUT
-0.3010 DESALINATION BRINE AND
-0.3010 DESALINATION BRINE. AND
-0.3010 DESALINATION PROCESS IS
-0.3010 DESALINATION TECHNOLOGY AND
-0.3010 DETRIMENTAL TO THE
-0.3010 DO NOT HAVE
-0.3010 DO SO THEY
-0.3010 DO THIS BY
-0.3010 DOES NOT HAVE
-0.3010 DOESN'T MEAN DEFILING
-0.3010 DOING AT THE
-0.3010 DOLLAR MINING INDUSTRY
-0.3010 DRINKING AND AGRICULTURE
-0.6021 DRINKING WATER AND
-0.6021 DRINKING WATER AROUND
-0.3010 EARTH IMAGINE BACTERIA
-0.3010 ECOLOGY OF THE
-0.3010 ELECTRICAL CHARGE AND
-0.3010 ENERGY PRODUCING CLEAN
-0.3010 ENVIRONMENT AND THESE
-0.3010 ENVIRONMENT OVER THE
-0.3010 EQUALLY MASSIVE AMOUNT
-0.3010 EQUATES TO A
-0.3010 EXISTED BEFORE IMAGINE
-0.3010 EXPENSIVE AND IT'S
-0.3010 FILTRATION TECHNOLOGY WE
-0.3010 FOOTAGE THAT I
-0.3010 FOR COUNTRIES WHO
-0.3010 FOR DESALINATION TECHNOLOGY
-0.3010 FOR DRINKING AND
-0.3010 FOR MANY COUNTRIES
-0.3010 FOR PEOPLE IS
-0.3010 FOR SINGAPORE A
-0.3010 FORCES THE SEAWATER
-0.3010 FROM OUT OF
-0.3010 FROM THE SEA
-0.6021 FROM THEIR ENVIRONMENT
-0.6021 FROM THEIR LOCAL
-0.3010 FROM WATER PARTICULARLY
-0.3010 GLOBE AND ALSO
-0.3010 HARMONY WITH NATURE
-0.3010 HASN'T EXISTED BEFORE
-0.3010 HAVE ACCESS TO
-0.3010 HAVE ANY NATURAL
-0.3010 HELPING US DO
-0.3010 HERE IS THE
-0.3010 HUNDRED MILLION LITERS
-0.3010 I AM ABOUT
-0.3010 I COLLABORATE WITH
-0.3010 I JUST MENTIONED
-0.3010 I MADE RECENTLY
-0.3010 I WORK IN
-0.3010 I'D LIKE YOU
-0.3010 IMAGE A MINING
-0.3010 IMAGINE A MINING
-0.3010 IMAGINE BACTERIA HELPING
-0.6021 IN A TEST
-0.6021 IN A WAY
-0.3010 IN HARMONY WITH
-0.3010 IN SINGAPORE AT
-0.3010 IN TERMS OF
-0.3010 IN THE WORLD
-0.3010 INADEQUATE ACCESS TO
-0.3010 INDUSTRY FOR SINGAPORE
-0.3010 INDUSTRY IN A
-0.6021 INDUSTRY THAT DOESN'T
-0.6021 INDUSTRY THAT IS
-0.3010 INTO PLAY </s>
-0.3010 INTO THE SEA.
-0.7782 IS A CRITICAL
-0.7782 IS A MEMBRANE
-0.7782 IS A PLACE
-0.3010 IS DETRIMENTAL TO
-0.3010 IS IN HARMONY
-0.3010 IS INADEQUATE ACCESS
-0.3010 IS OFTENTIMES JUST
-0.3010 IS ONE WHERE
-0.6021 IS THE BACTERIA
-0.6021 IS THE BEGINNING
-0.3010 IS VERY EXPENSIVE
-0.3010 IS WE'RE ACCUMULATING
-0.3010 IS WHERE MY
-0.3010 IT FOR DRINKING
-0.3010 IT'S COST PROHIBITIVE
-0.3010 IT'S PUMPED BACK
-0.3010 JUST MENTIONED EQUATES
-0.3010 JUST PUMPED BACK
-0.3010 LEADING PLACE FOR
-0.3010 LEFT WITH A
-0.3010 LIKE CALCIUM, POTASSIUM
-0.3010 LIKE YOU TO
-0.3010 LITERS PER DAY
-0.3010 LOCAL ECOLOGY OF
-0.3010 LOCAL ENVIRONMENT AND
-0.3010 MADE RECENTLY WHERE
-0.3010 MAGNESIUM AND THE
-0.3010 MAGNESIUM FROM OUT
-0.3010 MANY COUNTRIES AROUND
-0.3010 MASSIVE AMOUNT OF
-0.3010 MEAN DEFILING THE
-0.3010 MEMBRANE FILTRATION TECHNOLOGY
-0.3010 MEMBRANE THIS TAKES
-0.3010 MENTIONED EQUATES TO
-0.3010 METABOLIZING AND AS
-0.3010 METALS ACCUMULATE AS
-0.3010 METALS FROM THEIR
-0.3010 METALS LIKE CALCIUM,
-0.3010 MILLION LITERS PER
-0.3010 MINERALS FROM THEIR
-0.3010 MINERALS ON THE
-0.3010 MINERALS OUT OF
-0.9031 MINING INDUSTRY FOR
-0.9031 MINING INDUSTRY IN
-0.6021 MINING INDUSTRY THAT
-0.3010 MOMENT AND THIS
-0.3010 MOMENT IS WE'RE
-0.3010 MOST PERVASIVE PROBLEMS
-0.3010 MOTION FOOTAGE THAT
-0.3010 MY COLLABORATION WITH
-0.3010 NATURAL RESOURCES </s>
-0.3010 NINE HUNDRED MILLION
-0.6021 NOT HAVE ACCESS
-0.6021 NOT HAVE ANY
-0.6021 OF AN HOUR
-0.6021 OF AN INDUSTRY
-0.3010 OF DESALINATED WATER
-0.4771 OF DESALINATION BRINE
-0.7782 OF DESALINATION BRINE.
-0.3010 OF MAGNESIUM AND
-0.7782 OF THE BACTERIA
-0.7782 OF THE MOST
-0.7782 OF THE SEA
-0.3010 OF WATER THAT
-0.3010 OFTENTIMES JUST PUMPED
-0.3010 ON THE SURFACE
-0.3010 ONE HASN'T EXISTED
-0.3010 ONE OF THE
-0.3010 ONE WHERE WE
-0.3010 OR BRINE </s>
-0.3010 OSMOSIS IS A
-0.6021 OUT INTO </s>
-0.6021 OUT INTO THE
-0.3010 OUT OF DESALINATION
-0.3010 OUT SALTS WE
-0.3010 OVER THE PERIOD
-0.3010 PARTICULARLY SEAWATER THROUGH
-0.3010 PEOPLE IS INADEQUATE
-0.3010 PER DAY OF
-0.3010 PERIOD OF AN
-0.3010 PERVASIVE PROBLEMS IN
-0.3010 PLACE FOR DESALINATION
-0.3010 PLACE THAT DOES
-0.3010 PLACE THAT'S REALLY
-0.3010 POTASSIUM AND MAGNESIUM
-0.3010 PRECIPITATING AND SEDIMENTING
-0.3010 PRESSURE AND THIS
-0.3010 PRESSURE FORCES THE
-0.3010 PROBLEMS IN THE
-0.6021 PROCESS IS ONE
-0.6021 PROCESS IS VERY
-0.3010 PRODUCE AN EQUALLY
-0.3010 PRODUCE NINE HUNDRED
-0.3010 PRODUCED IS OFTENTIMES
-0.3010 PRODUCING CLEAN WATER
-0.3010 PROHIBITIVE FOR MANY
-0.3010 PROPOSES BY TWENTY
-0.3010 PUMPED BACK OUT
-0.3010 REALLY A LEADING
-0.3010 RECENTLY WHERE YOU
-0.3010 REMOVING THE SALTS
-0.3010 REVERSE OSMOSIS IS
-0.3010 SALT SOLUTION OR
-0.3010 SALTS FROM WATER
-0.3010 SALTS WE CAN
-0.3010 SEA AND WE
-0.3010 SEA AREA THAT
-0.3010 SEA. AND THIS
-0.3010 SEAWATER REVERSE OSMOSIS
-0.6021 SEAWATER THROUGH A
-0.6021 SEAWATER THROUGH REVERSE
-0.3010 SEDIMENTING MINERALS OUT
-0.3010 SEE BACTERIA ACCUMULATING
-0.3010 SEE HERE IS
-0.3010 SEEING HERE IS
-0.3010 SHOW YOU SOME
-0.3010 SINGAPORE A PLACE
-0.3010 SINGAPORE AT THE
-0.3010 SINGAPORE PROPOSES BY
-0.3010 SIXTY TO PRODUCE
-0.3010 SO I WORK
-0.3010 SO I'D LIKE
-0.3010 SO SEAWATER REVERSE
-0.3010 SO THEY CREATE
-0.6021 SO WHAT WE
-0.6021 SO WHAT YOU
-0.3010 SOLUTION OR BRINE
-0.3010 SOME STOP MOTION
-0.3010 STOP MOTION FOOTAGE
-0.3010 SURFACE OF THE
-0.3010 TAKE OUT SALTS
-0.3010 TAKE THE WATER
-0.3010 TAKES ENERGY PRODUCING
-0.3010 TECHNIQUE FOR COUNTRIES
-0.3010 TECHNOLOGY AND SINGAPORE
-0.3010 TECHNOLOGY WE TAKE
-0.3010 TERMS OF MAGNESIUM
-0.3010 TEST TUBE A
-0.3010 THANK YOU </s>
-0.3010 THAT DOES NOT
-0.3010 THAT DOESN'T MEAN
-0.6021 THAT I JUST
-0.6021 THAT I MADE
-0.3010 THAT IS IN
-0.3010 THAT IT'S PUMPED
-0.3010 THAT ONE HASN'T
-0.3010 THAT'S PRODUCED IS
-0.3010 THAT'S REALLY A
-0.3010 THE AMOUNT OF
-0.6021 THE BACTERIA </s>
-0.6021 THE BACTERIA METABOLIZING
-0.3010 THE BEGINNING OF
-0.3010 THE BRINE THAT'S
-0.3010 THE DESALINATION PROCESS
-0.3010 THE EARTH IMAGINE
-0.6021 THE GLOBE </s>
-0.6021 THE GLOBE AND
-0.3010 THE LOCAL ECOLOGY
-0.6021 THE MOMENT AND
-0.6021 THE MOMENT IS
-0.3010 THE MOST PERVASIVE
-0.3010 THE PERIOD OF
-0.3010 THE PROCESS IS
-0.3010 THE SALTS FROM
-0.6021 THE SEA AND
-0.6021 THE SEA AREA
-0.3010 THE SEA. AND
-0.3010 THE SEAWATER THROUGH
-0.3010 THE SURFACE OF
-0.3010 THE WATER FROM
-0.3010 THE WORLD TODAY
-0.3010 THEIR ENVIRONMENT OVER
-0.3010 THEIR LOCAL ENVIRONMENT
-0.3010 THESE METALS ACCUMULATE
-0.3010 THEY CREATE AN
-0.3010 THEY DO SO
-0.3010 THIS ATTRACTS METALS
-0.3010 THIS BY ACCUMULATING
-0.3010 THIS IN TERMS
-0.7782 THIS IS A
-0.7782 THIS IS DETRIMENTAL
-0.7782 THIS IS WHERE
-0.3010 THIS PRESSURE FORCES
-0.3010 THIS TAKES ENERGY
-0.3010 THIS WILL PRODUCE
-0.3010 THROUGH A MEMBRANE
-0.3010 THROUGH REVERSE OSMOSIS
-0.3010 TO A 4.5
-0.3010 TO CLEAN DRINKING
-0.3010 TO IMAGE A
-0.3010 TO PRODUCE NINE
-0.3010 TO SHOW YOU
-0.3010 TO THE LOCAL
-0.3010 TODAY FOR PEOPLE
-0.3010 TUBE A MINING
-0.3010 TWENTY SIXTY TO
-0.3010 US DO THIS
-0.3010 USE IT FOR
-0.3010 VERY EXPENSIVE AND
-0.3010 WATER AND THE
-0.3010 WATER AROUND THE
-0.6021 WATER BUT THIS
-0.6021 WATER BUT WE
-0.3010 WATER FROM THE
-0.3010 WATER PARTICULARLY SEAWATER
-0.3010 WATER THAT I
-0.3010 WAY THAT ONE
-0.3010 WE APPLY PRESSURE
-0.6021 WE ARE ALSO
-0.6021 WE ARE DOING
-0.3010 WE CAN USE
-0.6021 WE TAKE OUT
-0.6021 WE TAKE THE
-0.3010 WE'RE ACCUMULATING METALS
-0.3010 WHAT WE ARE
-0.6021 WHAT YOU ARE
-0.6021 WHAT YOU CAN
-0.3010 WHERE MY COLLABORATION
-0.3010 WHERE WE TAKE
-0.3010 WHERE YOU WILL
-0.3010 WHO DO NOT
-0.3010 WILL PRODUCE AN
-0.3010 WILL SEE BACTERIA
-0.3010 WITH A CONCENTRATED
-0.6021 WITH BACTERIA AND
-0.6021 WITH BACTERIA COMES
-0.3010 WITH NATURE </s>
-0.3010 WORK IN SINGAPORE
-0.3010 WORLD TODAY FOR
-0.3010 YOU ARE SEEING
-0.3010 YOU CAN SEE
-0.3010 YOU SOME STOP
-0.3010 YOU TO IMAGE
-0.3010 YOU WILL SEE

\end\
