Language model created by QuickLM on Sat Sep 30 13:22:54 EDT 2017
Copyright (c) 1996-2010 Carnegie Mellon University and Alexander I. Rudnicky

The model is in standard ARPA format, designed by Doug Paul while he was at MITRE.

The code that was used to produce this language model is available in Open Source.
Please visit http://www.speech.cs.cmu.edu/tools/ for more information

The (fixed) discount mass is 0.5. The backoffs are computed using the ratio method.
This model based on a corpus of 13 sentences and 365 words

\data\
ngram 1=365
ngram 2=756
ngram 3=829

\1-grams:
-3.2475 19TH -0.3003
-2.1335 </s> -0.3010
-2.1335 <s> -0.2878
-1.8161 A -0.2881
-2.9465 ABLE -0.2953
-3.2475 ABOUT -0.3000
-3.2475 AGAINST -0.3003
-3.2475 AGO -0.3005
-2.5485 ALL -0.2863
-3.2475 ALONE, -0.2998
-3.2475 ALSO -0.2991
-2.9465 AN -0.3000
-1.7561 AND -0.2652
-2.7704 ANTIBODIES -0.2906
-2.9465 ANTIBODY -0.3003
-3.2475 ANXIETY -0.2971
-3.2475 ANY -0.2908
-2.9465 ANYTHING -0.2948
-3.2475 APPLIED -0.2986
-3.2475 APPLYING -0.3008
-2.2932 ARE -0.2961
-2.9465 AS -0.2830
-2.5485 AT -0.2876
-2.9465 BACK -0.2941
-2.6454 BE -0.2993
-3.2475 BEAUTIFUL -0.2998
-2.5485 BECAUSE -0.2966
-2.7704 BEEN -0.3003
-3.2475 BIOLUMINESCENT -0.3008
-3.2475 BODY. -0.2933
-3.2475 BOTH -0.3008
-3.2475 BOTTOM -0.3008
-2.3444 BRAIN -0.2931
-3.2475 BRAIN'S -0.3003
-2.9465 BRAIN, -0.2976
-3.2475 BRAINBOW -0.2933
-2.5485 BUT -0.2943
-2.9465 BY -0.2893
-2.9465 CAJAL -0.3005
-2.7704 CALLED -0.2791
-2.6454 CAN -0.2976
-2.6454 CELL -0.2837
-2.9465 CELL, -0.2873
-3.2475 CELLS -0.2996
-2.7704 CENTURY -0.3003
-3.2475 CHANGED -0.2981
-3.2475 CHEMICAL -0.3005
-3.2475 CIRCUITS -0.3005
-3.2475 CLEARS -0.2898
-2.9465 COAT -0.3000
-3.2475 COLORS -0.2978
-3.2475 COLORS. -0.2978
-3.2475 COME -0.3008
-3.2475 COMES -0.2998
-3.2475 COMING -0.3005
-3.2475 COMPARE -0.2986
-3.2475 COMPLICATED -0.3008
-3.2475 COMPONENTS -0.2908
-2.9465 COMPUTER -0.2993
-3.2475 COMPUTER, -0.2986
-3.2475 COMPUTER. -0.3008
-3.2475 CONNECTED -0.2953
-3.2475 CONNECTIONS -0.3000
-3.2475 CONSIDERED -0.2898
-3.2475 CONTEXT -0.2908
-2.9465 COULD -0.3000
-2.7704 COURSE -0.2958
-3.2475 CRACK -0.2978
-3.2475 CRACKED -0.3003
-3.2475 CRITICAL -0.2953
-3.2475 CUT -0.2943
-3.2475 DARKENING -0.3008
-3.2475 DATA -0.3000
-3.2475 DELIVER -0.2978
-3.2475 DEPRESSION -0.2933
-3.2475 DESIGNING -0.2996
-3.2475 DETECT -0.2898
-2.9465 DEVELOPED -0.2933
-3.2475 DIAGRAM -0.2908
-3.2475 DID -0.3008
-2.9465 DIFFERENT -0.3005
-2.9465 DISEASES -0.2918
-3.2475 DO -0.2986
-3.2475 DOES -0.3008
-2.9465 DOING -0.2983
-3.2475 DON'T -0.3008
-3.2475 DRAWING -0.2908
-3.2475 DRUGS -0.2986
-3.2475 ENGINEER -0.2908
-3.2475 ENGINEERED -0.3003
-3.2475 ENOUGH -0.3008
-3.2475 ENTIRE -0.3000
-3.2475 EVEN -0.2943
-3.2475 EVERYTHING -0.3003
-3.2475 EVOLVED -0.3005
-2.7704 EXAMPLE -0.2791
-3.2475 EXPLANATORY -0.3008
-3.2475 EYES -0.2998
-3.2475 FACT -0.2981
-2.9465 FAMILIAR -0.2903
-3.2475 FATHER -0.2908
-3.2475 FEEBLE -0.3008
-3.2475 FIRST -0.3008
-3.2475 FLOWING -0.2998
-2.5485 FLUORESCENT -0.2993
-3.2475 FOLLOWING -0.3008
-2.4024 FOR -0.2961
-3.2475 FOREST -0.3008
-3.2475 FORM -0.3008
-3.2475 FORMLESS -0.3000
-2.5485 FROM -0.2827
-3.2475 FUNCTIONS -0.2986
-2.9465 GAVE -0.3005
-3.2475 GENE -0.2993
-3.2475 GENETICALLY -0.3008
-2.6454 GET -0.2827
-3.2475 GLIMPSE -0.2908
-3.2475 GLIMPSES -0.2998
-2.7704 GLOW -0.2988
-3.2475 GLOWING -0.3005
-3.2475 GO -0.2996
-2.9465 GOLGI -0.3003
-3.2475 GOTTEN -0.3008
-3.2475 GRAY -0.3008
-3.2475 GREAT -0.3008
-3.2475 GREATEST -0.3008
-2.4024 GREEN -0.2976
-2.7704 HAD -0.2928
-2.4024 HAVE -0.2986
-2.9465 HEARD -0.2908
-3.2475 HENCHMEN -0.2908
-3.2475 HERE -0.2988
-3.2475 HEY -0.2996
-2.9465 HOW -0.2936
-3.2475 HUMAN -0.3008
-2.9465 I -0.2986
-2.9465 IDENTIFY -0.3000
-2.5485 IF -0.2958
-3.2475 IMAGES -0.3005
-3.2475 IMAGINE -0.2971
-2.9465 IMMUNE -0.3000
-2.1683 IN -0.2804
-3.2475 INDIVIDUAL -0.3008
-3.2475 INDIVIDUALLY -0.2978
-2.4693 INSIDE -0.2807
-2.9465 INSTEAD -0.2908
-3.2475 INTERVENING -0.3005
-2.9465 INVADING -0.2893
-2.9465 INVOLVES -0.2991
-2.2061 IS -0.2687
-2.1335 IT -0.2883
-2.9465 IT'S -0.2931
-3.2475 ITS -0.3008
-3.2475 JELLYFISH -0.2953
-3.2475 JELLYFISH, -0.2983
-2.9465 JUST -0.2993
-3.2475 KEYBOARD -0.2943
-3.2475 KIND -0.2908
-3.2475 LABELED -0.3005
-3.2475 LARGE -0.3008
-3.2475 LATE -0.3008
-3.2475 LATER -0.3008
-3.2475 LATER, -0.3008
-3.2475 LAUNCHED -0.3003
-3.2475 LEAVE -0.2971
-3.2475 LIGHT -0.3003
-2.4693 LIKE -0.2876
-3.2475 LITTLE -0.3003
-2.9465 LOOK -0.2978
-3.2475 LOOKING -0.2998
-3.2475 LOOKS -0.2996
-3.2475 LOT -0.2908
-3.2475 LUCK -0.2971
-3.2475 MACHINERY -0.2983
-3.2475 MAKE -0.3008
-2.9465 MANY -0.3003
-3.2475 MICROSCOPE -0.3000
-3.2475 MILLIONS -0.2908
-3.2475 MINDS -0.2953
-2.7704 MODERN -0.3003
-3.2475 MOLECULAR -0.3008
-2.9465 MOLECULES -0.2981
-3.2475 MOLECULES, -0.3000
-2.7704 MORE -0.2996
-2.9465 MOST -0.3005
-2.7704 MOUSE -0.2916
-3.2475 MUCH -0.3008
-3.2475 NATURAL -0.3008
-2.9465 NATURE -0.2976
-3.2475 NEED -0.2953
-2.9465 NERVE -0.3003
-3.2475 NEUROANATOMIST -0.3008
-3.2475 NEURON. -0.2933
-2.9465 NEURONS -0.2986
-2.9465 NEURONS, -0.2993
-2.9465 NEUROSCIENCE -0.2998
-3.2475 NEUROSCIENTISTS -0.3008
-3.2475 NEW -0.3008
-3.2475 NO -0.3008
-2.9465 NOBODY -0.2993
-3.2475 NOSE -0.2986
-3.2475 NOT -0.3008
-2.9465 NOTHING -0.2991
-3.2475 NOTION -0.2908
-2.7704 NOW -0.2888
-3.2475 ODDLY -0.3008
-1.6347 OF -0.2655
-3.2475 OLD -0.3008
-2.6454 ONE -0.2896
-2.9465 ONES -0.3005
-2.9465 ONLY -0.3003
-3.2475 ONTO -0.2898
-2.7704 OPEN -0.2941
-3.2475 OPERATE -0.3008
-3.2475 OPTIC -0.3005
-2.9465 OR -0.2978
-2.6454 ORDER -0.2953
-3.2475 OTHERS -0.2986
-2.9465 OUR -0.3005
-2.5485 OUT -0.2858
-3.2475 OVER -0.2898
-3.2475 OVERALL -0.3008
-3.2475 OWN -0.3008
-3.2475 PALETTE -0.2933
-2.9465 PARTICULAR -0.2976
-3.2475 PERCENT -0.2908
-2.9465 POPULAR -0.3005
-3.2475 POWER -0.2986
-2.9465 POWERFUL -0.2993
-3.2475 PRODUCTS -0.2998
-2.6454 PROTEIN -0.2830
-2.9465 PROTEIN, -0.2961
-3.2475 PROTEIN. -0.3003
-3.2475 PUT -0.2978
-3.2475 QUESTION -0.2978
-3.2475 QUICKLY -0.3005
-3.2475 RAMON -0.3008
-2.6454 RATHER -0.2998
-3.2475 READY-MADE -0.3008
-3.2475 REALIZED -0.2986
-2.7704 REALLY -0.2996
-3.2475 REASON, -0.3005
-3.2475 RECENT -0.3008
-2.7704 RECOGNIZE -0.3003
-3.2475 REFINED -0.3008
-3.2475 REPRESENTATIONS -0.2908
-3.2475 RESEARCH -0.3008
-2.9465 RESEARCHERS -0.2988
-3.2475 REVEALS -0.2898
-3.2475 RIGHT -0.2998
-3.2475 SANTIAGO -0.3008
-3.2475 SAY -0.3008
-3.2475 SCENE -0.2933
-3.2475 SCIENTISTS -0.3008
-3.2475 SCRATCH -0.2998
-3.2475 SCREEN -0.2971
-2.7704 SEE -0.2971
-3.2475 SEEM -0.2953
-3.2475 SERONTONIN -0.3008
-2.7704 SEROTONIN -0.2898
-2.9465 SEVERAL -0.3005
-3.2475 SHAPE -0.2978
-3.2475 SHOWING -0.2971
-3.2475 SHOWS -0.3008
-3.2475 SKULL -0.2933
-2.9465 SLICE -0.2908
-2.5485 SO -0.2988
-3.2475 SOLUTIONS -0.3008
-3.2475 SOME -0.3005
-2.9465 SOMEHOW -0.2973
-3.2475 SOMETIMES -0.3008
-3.2475 SORT -0.2908
-3.2475 SPANISH -0.3008
-2.7704 SPECIFIC -0.3003
-3.2475 SSRIS -0.3000
-2.9465 STAIN -0.2926
-3.2475 STAIN, -0.3000
-2.9465 STAINING -0.2996
-3.2475 STAININGS -0.2996
-2.9465 STAINS -0.2991
-3.2475 STEADILY -0.2993
-3.2475 STRUCTURE -0.2978
-3.2475 SUBSTANTIALLY -0.3003
-3.2475 SUBSTRUCTURES -0.2908
-3.2475 SUDDENLY -0.3008
-2.7704 SYSTEM -0.2881
-3.2475 SYSTEM. -0.2998
-3.2475 TAKE -0.2943
-3.2475 TELL -0.2971
-2.6454 THAN -0.2822
-3.2475 THANK -0.2971
-2.2475 THAT -0.2941
-2.7704 THAT'S -0.2993
-1.5943 THE -0.2837
-2.7704 THEM -0.2968
-3.2475 THEM. -0.2933
-2.5485 THERE -0.2881
-2.6454 THERE'S -0.2998
-2.4693 THESE -0.2971
-2.4693 THEY -0.2946
-3.2475 THEY'RE -0.2998
-3.2475 THIN -0.3005
-2.9465 THINGS -0.2988
-3.2475 THINKING -0.2908
-2.2475 THIS -0.2865
-3.2475 THIS, -0.2933
-3.2475 THIS. -0.2998
-3.2475 THOUGHT -0.2993
-2.9465 THOUSAND -0.3003
-2.9465 TISSUE -0.2971
-1.8858 TO -0.2742
-2.9465 TODAY -0.3000
-3.2475 TODAY, -0.2943
-3.2475 TOOL -0.3008
-2.9465 TOOLS -0.2983
-3.2475 TOTALLY -0.3008
-3.2475 TRANSISTOR. -0.2933
-3.2475 TRANSPORTERS -0.2981
-3.2475 TREAT -0.2996
-3.2475 TREES -0.2996
-3.2475 TURNS -0.2998
-3.2475 TWO -0.3008
-3.2475 UNDER -0.3008
-2.6454 UNDERSTAND -0.2978
-3.2475 UNTIL -0.2943
-2.7704 UP -0.2993
-2.9465 US -0.2893
-3.2475 USE -0.2981
-2.7704 USED -0.2928
-3.2475 USEFUL -0.2953
-3.2475 USEFUL. -0.2998
-3.2475 USING -0.3003
-3.2475 VARIANTS -0.3003
-2.3444 VERY -0.2986
-2.9465 VIRUS -0.2986
-3.2475 VISIBLE -0.2998
-2.9465 VISUAL -0.3003
-3.2475 VISUALIZE -0.3005
-2.9465 WANT -0.2953
-3.2475 WANTED -0.2953
-2.6454 WAS -0.2936
-3.2475 WAY -0.3005
-2.9465 WAYS -0.2908
-2.7704 WE -0.2993
-2.7704 WERE -0.2988
-2.9465 WHAT -0.2976
-3.2475 WHAT'S -0.2998
-3.2475 WHATEVER -0.3008
-3.2475 WHEN -0.3005
-3.2475 WHERE -0.2898
-2.6454 WHICH -0.2981
-3.2475 WHO -0.2983
-3.2475 WIDELY -0.3008
-2.9465 WILL -0.2996
-2.7704 WIRING -0.2850
-2.6454 WITH -0.2888
-3.2475 WON'T -0.3008
-2.7704 WORKS -0.2871
-2.7704 WOULD -0.2968
-3.2475 Y -0.3005
-3.2475 YEAR -0.3008
-2.9465 YEARS -0.2928
-3.2475 YIELDS -0.3008
-2.0434 YOU -0.2871
-3.2475 YOU'RE -0.3008

\2-grams:
-0.3010 19TH CENTURY -0.2218
-0.5699 <s> AND -0.2076
-1.4150 <s> I -0.1761
-1.4150 <s> IMAGINE 0.0000
-1.4150 <s> NOW -0.2218
-1.4150 <s> SO -0.2553
-1.4150 <s> SPANISH 0.0000
-1.4150 <s> THIS -0.2304
-1.7324 A BIOLUMINESCENT 0.0000
-1.7324 A BRAIN -0.2730
-1.7324 A CELL -0.2430
-1.7324 A CELL, -0.1761
-1.4314 A CENTURY -0.1249
-1.7324 A COMPUTER -0.1761
-1.7324 A COMPUTER, 0.0000
-1.7324 A COMPUTER. 0.0000
-1.7324 A DIAGRAM 0.0000
-1.7324 A GENETICALLY 0.0000
-1.7324 A GLIMPSE 0.0000
-1.7324 A JELLYFISH 0.0000
-1.7324 A KEYBOARD 0.0000
-1.7324 A LITTLE 0.0000
-1.7324 A LOT 0.0000
-1.7324 A MOUSE -0.2218
-1.7324 A SCREEN 0.0000
-1.7324 A SLICE 0.0000
-1.7324 A STAIN -0.1761
-1.7324 A THIN 0.0000
-1.7324 A THOUSAND -0.1761
-1.7324 A TISSUE -0.1761
-1.2553 A VERY -0.1761
-1.7324 A VIRUS -0.1761
-0.3010 ABLE TO -0.2817
-0.3010 ABOUT ONE -0.2430
-0.3010 AGAINST SEROTONIN -0.2218
-0.3010 AGO NOBODY -0.1761
-1.0000 ALL CHANGED 0.0000
-0.6990 ALL OF -0.2001
-1.0000 ALL THANK 0.0000
-1.0000 ALL YOU -0.2872
-0.3010 ALONE, BUT -0.2553
-0.3010 ALSO VERY -0.2430
-0.6021 AN ANTIBODY -0.1761
-0.6021 AN INVADING -0.1761
-1.7924 AND A -0.2929
-1.7924 AND ALL -0.2553
-1.7924 AND ANTIBODIES -0.2218
-1.7924 AND ANTIBODY -0.1761
-1.7924 AND ANXIETY 0.0000
-1.7924 AND DELIVER 0.0000
-1.7924 AND IDENTIFY -0.1761
-1.4914 AND IF -0.2041
-1.7924 AND IN -0.2218
-1.7924 AND INSTEAD 0.0000
-1.7924 AND IT -0.2840
-1.7924 AND IT'S -0.1761
-1.7924 AND ONLY -0.1761
-1.7924 AND REALLY -0.2218
-1.7924 AND REFINED 0.0000
-1.7924 AND RESEARCHERS -0.1761
-1.7924 AND SAY 0.0000
-1.7924 AND SO -0.2553
-1.7924 AND SOME 0.0000
-1.4914 AND THAT'S -0.1249
-1.4914 AND THERE'S -0.1761
-1.7924 AND THEY -0.2632
-1.7924 AND THIS -0.2788
-1.7924 AND UP -0.2218
-1.7924 AND VERY -0.2730
-1.3153 AND YOU -0.2430
-0.7782 ANTIBODIES AND -0.2795
-0.7782 ANTIBODIES ARE -0.2762
-0.7782 ANTIBODIES AS -0.1761
-0.6021 ANTIBODY STAINING -0.1761
-0.6021 ANTIBODY STAININGS 0.0000
-0.3010 ANXIETY YOU -0.2730
-0.3010 ANY OF -0.2068
-0.6021 ANYTHING </s> -0.3010
-0.6021 ANYTHING IN -0.2825
-0.3010 APPLIED THIS -0.2788
-0.3010 APPLYING FEEBLE 0.0000
-1.2553 ARE ALSO 0.0000
-1.2553 ARE BOTH 0.0000
-1.2553 ARE DRUGS 0.0000
-1.2553 ARE FAMILIAR -0.1761
-1.2553 ARE FUNCTIONS 0.0000
-1.2553 ARE GLOWING 0.0000
-1.2553 ARE TOOLS -0.1761
-1.2553 ARE USED -0.1249
-1.2553 ARE VERY -0.2730
-0.6021 AS A -0.2929
-0.6021 AS THE -0.2962
-1.0000 AT BRAIN -0.2730
-1.0000 AT ITS 0.0000
-0.5229 AT THE -0.2863
-0.6021 BACK THERE -0.2553
-0.6021 BACK TO -0.2817
-0.9031 BE ABLE 0.0000
-0.9031 BE CONNECTED 0.0000
-0.9031 BE KIND 0.0000
-0.9031 BE USED -0.1249
-0.3010 BEAUTIFUL BUT -0.2553
-1.0000 BECAUSE ALL -0.2041
-0.6990 BECAUSE IF -0.2041
-1.0000 BECAUSE THEY -0.2632
-1.0000 BECAUSE TODAY -0.1761
-0.7782 BEEN LABELED 0.0000
-0.7782 BEEN SHOWING 0.0000
-0.7782 BEEN VISIBLE 0.0000
-0.3010 BIOLUMINESCENT JELLYFISH, 0.0000
-0.3010 BODY. AND -0.2940
-0.3010 BOTH TOTALLY 0.0000
-0.3010 BOTTOM OPTIC 0.0000
-1.2041 BRAIN </s> -0.3010
-1.2041 BRAIN AS -0.1761
-1.2041 BRAIN IT'S -0.1761
-1.2041 BRAIN NOBODY -0.1761
-1.2041 BRAIN OUT -0.2041
-1.2041 BRAIN RECOGNIZE 0.0000
-1.2041 BRAIN TISSUE -0.1761
-1.2041 BRAIN WIRING -0.2218
-0.3010 BRAIN'S WIRING -0.2218
-0.6021 BRAIN, RATHER -0.0969
-0.6021 BRAIN, THIS -0.2304
-0.3010 BRAINBOW AND -0.2940
-1.0000 BUT IT -0.2840
-0.6990 BUT ONE -0.1761
-1.0000 BUT RATHER -0.2430
-1.0000 BUT THEY -0.2632
-0.6021 BY NATURE -0.1761
-0.6021 BY THE -0.2962
-0.6021 CAJAL REALIZED 0.0000
-0.6021 CAJAL WHO 0.0000
-0.7782 CALLED BRAINBOW 0.0000
-0.7782 CALLED OF -0.2848
-0.7782 CALLED THE -0.2962
-0.9031 CAN BE -0.2430
-0.9031 CAN GET -0.2430
-0.9031 CAN RECOGNIZE 0.0000
-0.9031 CAN SEE -0.2218
-0.9031 CELL </s> -0.3010
-0.9031 CELL AND -0.2940
-0.9031 CELL TO -0.2817
-0.9031 CELL WILL -0.1761
-0.6021 CELL, THAT -0.2788
-0.6021 CELL, THE -0.2962
-0.3010 CELLS INSIDE -0.1761
-0.7782 CENTURY AGO 0.0000
-0.7782 CENTURY LATER, 0.0000
-0.7782 CENTURY SUDDENLY 0.0000
-0.3010 CHANGED IN -0.2632
-0.3010 CHEMICAL STAINS -0.1761
-0.3010 CIRCUITS JUST -0.1761
-0.3010 CLEARS THE -0.2962
-0.3010 COAT PROTEIN -0.1761
-0.3010 COLORS </s> -0.3010
-0.3010 COLORS. </s> -0.3010
-0.3010 COME ONTO 0.0000
-0.3010 COMES FROM -0.2041
-0.3010 COMING BACK -0.1761
-0.3010 COMPARE THIS -0.2788
-0.3010 COMPLICATED OVER 0.0000
-0.3010 COMPONENTS OF -0.2957
-0.6021 COMPUTER WAS -0.2430
-0.6021 COMPUTER WORKS -0.2218
-0.3010 COMPUTER, THIS -0.2304
-0.3010 COMPUTER. TODAY, 0.0000
-0.3010 CONNECTED TO -0.2915
-0.3010 CONNECTIONS WITH -0.2430
-0.3010 CONSIDERED THE -0.2962
-0.3010 CONTEXT OF -0.2957
-0.6021 COULD SEE -0.2218
-0.6021 COULD USE 0.0000
-0.7782 COURSE BECAUSE -0.2553
-0.7782 COURSE IN -0.2632
-0.7782 COURSE WITH -0.2430
-0.3010 CRACK IT -0.2840
-0.3010 CRACKED OPEN -0.2218
-0.3010 CRITICAL TO -0.2615
-0.3010 CUT A -0.2929
-0.3010 DARKENING THEM. 0.0000
-0.3010 DATA WHICH -0.2430
-0.3010 DELIVER IT -0.2840
-0.3010 DEPRESSION AND -0.2940
-0.3010 DESIGNING THESE -0.2632
-0.3010 DETECT THE -0.2913
-0.3010 DEVELOPED AND -0.2868
-0.3010 DIAGRAM OF -0.2068
-0.3010 DID SCIENTISTS 0.0000
-0.6021 DIFFERENT COLORS 0.0000
-0.6021 DIFFERENT COLORS. 0.0000
-0.6021 DISEASES AND -0.2940
-0.6021 DISEASES LIKE -0.2632
-0.3010 DO THAT -0.2788
-0.3010 DOES NOT 0.0000
-0.6021 DOING THIS -0.2788
-0.6021 DOING THIS. 0.0000
-0.3010 DON'T OPERATE 0.0000
-0.3010 DRAWING OF -0.2068
-0.3010 DRUGS THAT -0.2788
-0.3010 ENGINEER OF -0.2957
-0.3010 ENGINEERED MOUSE -0.2218
-0.3010 ENOUGH COMES 0.0000
-0.3010 ENTIRE CELL -0.2430
-0.3010 EVEN A -0.2762
-0.3010 EVERYTHING HAD -0.2218
-0.3010 EVOLVED BY -0.1761
-0.7782 EXAMPLE AND -0.2940
-0.7782 EXAMPLE IS -0.2808
-0.7782 EXAMPLE THE -0.2913
-0.3010 EXPLANATORY POWER 0.0000
-0.3010 EYES AT -0.1461
-0.3010 FACT IN -0.2218
-0.6021 FAMILIAR OF -0.2848
-0.6021 FAMILIAR TODAY -0.1761
-0.3010 FATHER OF -0.2957
-0.3010 FEEBLE HUMAN 0.0000
-0.3010 FIRST GLIMPSES 0.0000
-0.3010 FLOWING OUT -0.2553
-0.6990 FLUORESCENT PROTEIN -0.1761
-0.6990 FLUORESCENT PROTEIN, 0.0000
-1.0000 FLUORESCENT PROTEIN. 0.0000
-0.3010 FOLLOWING THOUGHT 0.0000
-1.1461 FOR BRAIN -0.2730
-0.6690 FOR EXAMPLE 0.0000
-1.1461 FOR GREEN -0.1091
-1.1461 FOR MILLIONS 0.0000
-1.1461 FOR WHATEVER 0.0000
-0.3010 FOREST REVEALS 0.0000
-0.3010 FORM CIRCUITS 0.0000
-0.3010 FORMLESS THERE'S -0.2430
-0.6990 FROM A -0.2846
-1.0000 FROM SCRATCH 0.0000
-0.6990 FROM THE -0.2913
-0.3010 FUNCTIONS THAT -0.2788
-0.3010 GAVE US 0.0000
-0.3010 GENE FOR -0.2688
-0.3010 GENETICALLY ENGINEERED 0.0000
-0.6021 GET A -0.2846
-0.9031 GET GO 0.0000
-0.9031 GET THE -0.2962
-0.3010 GLIMPSE OF -0.2068
-0.3010 GLIMPSES AT -0.2553
-0.4771 GLOW GREEN -0.2341
-0.7782 GLOW MANY -0.1761
-0.3010 GLOWING DIFFERENT -0.1761
-0.3010 GO THEY -0.2632
-0.6021 GOLGI STAIN -0.1761
-0.6021 GOLGI STAIN, 0.0000
-0.3010 GOTTEN SUBSTANTIALLY 0.0000
-0.3010 GRAY FORMLESS 0.0000
-0.3010 GREAT EXPLANATORY 0.0000
-0.3010 GREATEST ENGINEER 0.0000
-0.4472 GREEN FLUORESCENT 0.0000
-1.1461 GREEN FOR -0.2688
-1.1461 GREEN OR -0.1761
-0.7782 HAD A -0.2929
-0.7782 HAD BEEN -0.2218
-0.7782 HAD HAD -0.2218
-0.8451 HAVE BEEN -0.1249
-1.1461 HAVE GOTTEN 0.0000
-1.1461 HAVE GREAT 0.0000
-0.8451 HAVE HEARD 0.0000
-1.1461 HAVE USED -0.2218
-0.3010 HEARD OF -0.2903
-0.3010 HENCHMEN OF -0.2068
-0.3010 HERE ARE -0.2762
-0.3010 HEY THESE -0.2218
-0.6021 HOW A -0.2929
-0.6021 HOW SEROTONIN -0.2218
-0.3010 HUMAN MINDS 0.0000
-0.6021 I HAVE -0.2341
-0.6021 I WOULD -0.2218
-0.6021 IDENTIFY INDIVIDUAL 0.0000
-0.6021 IDENTIFY THEM -0.2218
-1.0000 IF EVERYTHING 0.0000
-1.0000 IF WE -0.2218
-0.6990 IF YOU -0.2730
-1.0000 IF YOU'RE 0.0000
-0.3010 IMAGES I -0.1761
-0.3010 IMAGINE YOU -0.2872
-0.6021 IMMUNE SYSTEM -0.2218
-0.6021 IMMUNE SYSTEM. 0.0000
-0.9031 IN A -0.2588
-1.3802 IN NATURE -0.1761
-0.7782 IN ORDER 0.0000
-1.3802 IN OUR -0.1761
-1.3802 IN PARTICULAR -0.1761
-1.0792 IN THE -0.2913
-0.3010 INDIVIDUAL MOLECULAR 0.0000
-0.3010 INDIVIDUALLY </s> -0.3010
-1.0792 INSIDE AND -0.2940
-1.0792 INSIDE IF -0.2553
-0.6021 INSIDE OF -0.1934
-1.0792 INSIDE RATHER -0.0969
-0.3010 INSTEAD OF -0.2903
-0.3010 INTERVENING THOUSAND -0.1761
-0.6021 INVADING THE -0.2962
-0.6021 INVADING VIRUS -0.1761
-0.6021 INVOLVES GREEN -0.1091
-0.6021 INVOLVES USING 0.0000
-1.0414 IS A -0.2676
-1.3424 IS AN -0.1761
-1.3424 IS AND -0.2940
-1.3424 IS CRITICAL 0.0000
-1.3424 IS FROM -0.2041
-1.3424 IS GRAY 0.0000
-1.3424 IS INSIDE -0.1761
-1.3424 IS THE -0.2962
-1.3424 IS VERY -0.2730
-1.3424 IS WIDELY 0.0000
-1.4150 IT CLEARS 0.0000
-1.1139 IT IS -0.2596
-1.4150 IT OPEN -0.2218
-1.4150 IT PUT 0.0000
-1.4150 IT SHOWS 0.0000
-1.4150 IT SOMEHOW -0.1761
-1.4150 IT TO -0.2915
-1.4150 IT TURNS 0.0000
-1.4150 IT UNDER 0.0000
-1.4150 IT UP -0.2218
-1.4150 IT WON'T 0.0000
-1.4150 IT WORKS -0.2218
-0.6021 IT'S A -0.2929
-0.6021 IT'S SO -0.2553
-0.3010 ITS OVERALL 0.0000
-0.3010 JELLYFISH TO -0.2817
-0.3010 JELLYFISH, IS -0.2808
-0.6021 JUST LIKE -0.2632
-0.6021 JUST LOOKING 0.0000
-0.3010 KEYBOARD A -0.2929
-0.3010 KIND OF -0.2957
-0.3010 LABELED NOTHING -0.1761
-0.3010 LARGE NOSE 0.0000
-0.3010 LATE 19TH 0.0000
-0.3010 LATER DID 0.0000
-0.3010 LATER, WHEN 0.0000
-0.3010 LAUNCHED MODERN -0.1249
-0.3010 LEAVE YOU -0.2872
-0.3010 LIGHT THEM -0.2218
-1.0792 LIKE DEPRESSION 0.0000
-1.0792 LIKE FOR -0.1963
-1.0792 LIKE IN -0.2430
-1.0792 LIKE THIS -0.2788
-1.0792 LIKE THIS, 0.0000
-1.0792 LIKE TO -0.2915
-0.3010 LITTLE MORE -0.2218
-0.6021 LOOK AT -0.1461
-0.6021 LOOK VERY -0.2730
-0.3010 LOOKING AT -0.2553
-0.3010 LOOKS LIKE -0.2632
-0.3010 LOT OF -0.2068
-0.3010 LUCK YOU -0.2872
-0.3010 MACHINERY IS -0.2808
-0.3010 MAKE CONNECTIONS 0.0000
-0.6021 MANY DIFFERENT -0.1761
-0.6021 MANY VARIANTS 0.0000
-0.3010 MICROSCOPE THERE'S -0.2430
-0.3010 MILLIONS OF -0.2957
-0.3010 MINDS TO -0.2915
-0.4771 MODERN NEUROSCIENCE 0.0000
-0.7782 MODERN NOTION 0.0000
-0.3010 MOLECULAR COMPONENTS 0.0000
-0.6021 MOLECULES INSIDE -0.1761
-0.6021 MOLECULES LIKE -0.2632
-0.3010 MOLECULES, RATHER -0.0969
-0.7782 MORE COMPLICATED 0.0000
-0.7782 MORE RECENT 0.0000
-0.7782 MORE THAN -0.2430
-0.3010 MOST POPULAR 0.0000
-0.7782 MOUSE A -0.2929
-0.7782 MOUSE BRAIN -0.2730
-0.7782 MOUSE CALLED -0.2218
-0.3010 MUCH LATER 0.0000
-0.3010 NATURAL PRODUCTS 0.0000
-0.6021 NATURE DEVELOPED 0.0000
-0.6021 NATURE IN -0.2218
-0.3010 NEED TO -0.2915
-0.6021 NERVE CELL, -0.1761
-0.6021 NERVE FLOWING 0.0000
-0.3010 NEUROANATOMIST SANTIAGO 0.0000
-0.3010 NEURON. AND -0.2868
-0.6021 NEURONS ARE -0.2762
-0.6021 NEURONS DON'T 0.0000
-0.6021 NEURONS, MOLECULES, 0.0000
-0.6021 NEURONS, THEY -0.2632
-0.6021 NEUROSCIENCE APPLIED 0.0000
-0.6021 NEUROSCIENCE WAS -0.1761
-0.3010 NEUROSCIENTISTS NEED 0.0000
-0.3010 NEW CHEMICAL 0.0000
-0.3010 NO STRUCTURE 0.0000
-0.6021 NOBODY HAD -0.2218
-0.6021 NOBODY WAS -0.2430
-0.3010 NOSE THAT -0.2788
-0.3010 NOT SEEM 0.0000
-0.6021 NOTHING THERE -0.2553
-0.6021 NOTHING WOULD -0.2218
-0.3010 NOTION OF -0.2068
-0.7782 NOW GREEN -0.1091
-0.7782 NOW OF -0.2957
-0.7782 NOW SOMETIMES 0.0000
-0.3010 ODDLY ENOUGH 0.0000
-1.6128 OF A -0.2846
-1.9138 OF ALL -0.2553
-1.9138 OF AN -0.1761
-1.9138 OF APPLYING 0.0000
-1.4367 OF COURSE 0.0000
-1.9138 OF DISEASES -0.1761
-1.6128 OF DOING 0.0000
-1.9138 OF GREEN -0.1091
-1.9138 OF IT -0.2840
-1.9138 OF LUCK 0.0000
-1.9138 OF MODERN -0.1249
-1.9138 OF MOUSE -0.2218
-1.9138 OF NEURONS, -0.1761
-1.9138 OF OUT -0.2041
-1.9138 OF QUESTION 0.0000
-1.9138 OF SEROTONIN -0.2218
-1.9138 OF SSRIS 0.0000
-1.9138 OF STAINING -0.1761
-0.7097 OF THE -0.1980
-1.9138 OF THEM -0.2218
-1.9138 OF THESE -0.2632
-1.9138 OF YEARS -0.1761
-0.3010 OLD DRAWING 0.0000
-0.9031 ONE CAN -0.2430
-0.6021 ONE OF -0.2068
-0.9031 ONE PERCENT 0.0000
-0.3010 ONES INVOLVES 0.0000
-0.6021 ONLY MUCH 0.0000
-0.6021 ONLY STAINS -0.1761
-0.3010 ONTO THE -0.2962
-0.7782 OPEN </s> -0.3010
-0.7782 OPEN IT -0.2840
-0.7782 OPEN LOOK -0.1761
-0.3010 OPERATE ALONE, 0.0000
-0.3010 OPTIC NERVE -0.1761
-0.6021 OR ANY 0.0000
-0.6021 OR IN -0.2218
-0.3010 ORDER TO -0.2293
-0.3010 OTHERS THAT -0.2788
-0.6021 OUR FIRST 0.0000
-0.6021 OUR OWN 0.0000
-1.0000 OUT FROM -0.2041
-0.6990 OUT OF -0.2001
-1.0000 OUT THAT -0.2788
-1.0000 OUT THERE -0.2553
-0.3010 OVER THE -0.2962
-0.3010 OVERALL SHAPE 0.0000
-0.3010 OWN RESEARCH 0.0000
-0.3010 PALETTE AND -0.2940
-0.6021 PARTICULAR </s> -0.3010
-0.6021 PARTICULAR WAY 0.0000
-0.3010 PERCENT OF -0.2957
-0.3010 POPULAR ONES 0.0000
-0.3010 POWER THIS -0.2788
-0.6021 POWERFUL MICROSCOPE 0.0000
-0.6021 POWERFUL THEY -0.2632
-0.3010 PRODUCTS AT -0.1461
-0.6021 PROTEIN AND -0.2868
-0.6021 PROTEIN OF -0.2848
-0.6021 PROTEIN, WHICH -0.2430
-0.6021 PROTEIN, YOU -0.2872
-0.3010 PROTEIN. NOW -0.2218
-0.3010 PUT IT -0.2840
-0.3010 QUESTION </s> -0.3010
-0.3010 QUICKLY CAJAL -0.1761
-0.3010 RAMON Y 0.0000
-0.9031 RATHER MAKE 0.0000
-0.4260 RATHER THAN -0.0969
-0.3010 READY-MADE SOLUTIONS 0.0000
-0.3010 REALIZED THAT -0.2788
-0.7782 REALLY GAVE 0.0000
-0.7782 REALLY LAUNCHED 0.0000
-0.7782 REALLY WOULD -0.2218
-0.3010 REASON, OR -0.1761
-0.3010 RECENT REPRESENTATIONS 0.0000
-0.3010 RECOGNIZE SPECIFIC 0.0000
-0.3010 REFINED STEADILY 0.0000
-0.3010 REPRESENTATIONS OF -0.2068
-0.3010 RESEARCH TOOL 0.0000
-0.6021 RESEARCHERS HAVE -0.2688
-0.6021 RESEARCHERS WANT 0.0000
-0.3010 REVEALS THE -0.2962
-0.3010 RIGHT OUT -0.2553
-0.3010 SANTIAGO RAMON 0.0000
-0.3010 SAY HEY 0.0000
-0.3010 SCENE AND -0.2940
-0.3010 SCIENTISTS COME 0.0000
-0.3010 SCRATCH THERE -0.2553
-0.3010 SCREEN YOU -0.2872
-0.7782 SEE THAT -0.2788
-0.7782 SEE WAS -0.1761
-0.7782 SEE WHAT -0.1761
-0.3010 SEEM TO -0.2817
-0.3010 SERONTONIN MACHINERY 0.0000
-0.7782 SEROTONIN OF -0.2848
-0.7782 SEROTONIN TRANSPORTERS 0.0000
-0.7782 SEROTONIN WORKS -0.2218
-0.3010 SEVERAL WAYS 0.0000
-0.3010 SHAPE </s> -0.3010
-0.3010 SHOWING YOU -0.2872
-0.3010 SHOWS WHAT'S 0.0000
-0.3010 SKULL AND -0.2795
-0.3010 SLICE OF -0.2903
-1.0000 SO CALLED -0.2218
-1.0000 SO COMING 0.0000
-1.0000 SO SOMEHOW -0.1761
-1.0000 SO USEFUL 0.0000
-1.0000 SO WHAT -0.1761
-0.3010 SOLUTIONS RIGHT 0.0000
-0.3010 SOME THINGS -0.1761
-0.6021 SOMEHOW IT -0.2840
-0.6021 SOMEHOW ONLY -0.1761
-0.3010 SOMETIMES NEUROSCIENTISTS 0.0000
-0.3010 SORT OF -0.2957
-0.3010 SPANISH NEUROANATOMIST 0.0000
-0.4771 SPECIFIC MOLECULES 0.0000
-0.7782 SPECIFIC SUBSTRUCTURES 0.0000
-0.3010 SSRIS WHICH -0.2430
-0.6021 STAIN AND -0.2940
-0.6021 STAIN CALLED -0.2218
-0.3010 STAIN, WHICH -0.2430
-0.6021 STAINING AGAINST 0.0000
-0.6021 STAINING ALL -0.2041
-0.3010 STAININGS LIKE -0.2632
-0.6021 STAINS ABOUT 0.0000
-0.6021 STAINS FOR -0.2688
-0.3010 STEADILY FOR -0.2688
-0.3010 STRUCTURE IT -0.2840
-0.3010 SUBSTANTIALLY MORE -0.2218
-0.3010 SUBSTRUCTURES OF -0.2068
-0.3010 SUDDENLY NEW 0.0000
-0.7782 SYSTEM AND -0.2940
-0.7782 SYSTEM BECAUSE -0.2553
-0.7782 SYSTEM YOU -0.2872
-0.3010 SYSTEM. BUT -0.2553
-0.3010 TAKE A -0.2929
-0.3010 TELL YOU -0.2872
-0.9031 THAN A -0.2846
-0.9031 THAN DARKENING 0.0000
-0.9031 THAN JUST -0.1761
-0.9031 THAN THE -0.2962
-0.3010 THANK YOU -0.2872
-1.3010 THAT ARE -0.2762
-1.3010 THAT CELL -0.2430
-1.3010 THAT DOES 0.0000
-1.3010 THAT FORM 0.0000
-1.3010 THAT NEURONS -0.1761
-1.3010 THAT SORT 0.0000
-1.3010 THAT THEY'RE 0.0000
-1.3010 THAT THINGS -0.1761
-1.3010 THAT WE -0.2218
-1.3010 THAT WITH -0.1761
-0.4771 THAT'S BECAUSE -0.1461
-0.7782 THAT'S INVADING -0.1761
-1.9542 THE BACK -0.1761
-1.9542 THE BODY. 0.0000
-1.9542 THE BOTTOM 0.0000
-1.3522 THE BRAIN -0.1761
-1.9542 THE BRAIN'S 0.0000
-1.6532 THE BRAIN, 0.0000
-1.9542 THE CELL -0.2430
-1.9542 THE CELLS 0.0000
-1.6532 THE COAT 0.0000
-1.9542 THE COMPUTER -0.1761
-1.9542 THE CONTEXT 0.0000
-1.9542 THE ENTIRE 0.0000
-1.9542 THE FATHER 0.0000
-1.9542 THE FOLLOWING 0.0000
-1.9542 THE FOREST 0.0000
-1.9542 THE GENE 0.0000
-1.9542 THE GET -0.2430
-1.9542 THE GOLGI -0.1761
-1.9542 THE GREATEST 0.0000
-1.9542 THE HENCHMEN 0.0000
-1.9542 THE IMAGES 0.0000
-1.6532 THE IMMUNE 0.0000
-1.9542 THE INSIDE -0.2632
-1.9542 THE INTERVENING 0.0000
-1.9542 THE LATE 0.0000
-1.9542 THE MANY -0.1761
-1.9542 THE MODERN -0.2218
-1.6532 THE MOST 0.0000
-1.9542 THE NERVE -0.1761
-1.9542 THE NEURON. 0.0000
-1.9542 THE SCENE 0.0000
-1.9542 THE SERONTONIN 0.0000
-1.9542 THE SKULL 0.0000
-1.9542 THE TRANSISTOR. 0.0000
-1.9542 THE TREES 0.0000
-1.6532 THE VISUAL 0.0000
-1.9542 THE WIRING -0.2218
-0.7782 THEM INDIVIDUALLY 0.0000
-0.7782 THEM IT -0.2840
-0.7782 THEM UP -0.2218
-0.3010 THEM. AND -0.2868
-1.0000 THERE </s> -0.3010
-1.0000 THERE IN -0.2825
-1.0000 THERE IS -0.2596
-1.0000 THERE IT -0.2663
-1.0000 THERE WERE -0.2218
-0.9031 THERE'S NO 0.0000
-0.9031 THERE'S NOTHING -0.1761
-0.6021 THERE'S SEVERAL 0.0000
-0.7782 THESE ARE -0.2499
-1.0792 THESE DISEASES -0.1761
-1.0792 THESE NEURONS -0.1761
-1.0792 THESE READY-MADE 0.0000
-1.0792 THESE TOOLS -0.1761
-1.0792 THEY ARE -0.2762
-1.0792 THEY CAN -0.2430
-1.0792 THEY GAVE 0.0000
-1.0792 THEY HAVE -0.2688
-1.0792 THEY LIGHT 0.0000
-1.0792 THEY WERE -0.2218
-0.3010 THEY'RE SO -0.2553
-0.3010 THIN SLICE 0.0000
-0.6021 THINGS HAVE -0.2688
-0.6021 THINGS LOOK -0.1761
-0.3010 THINKING OF -0.2068
-1.3010 THIS ALL -0.2553
-1.3010 THIS BUT -0.2041
-1.3010 THIS FACT 0.0000
-1.3010 THIS FOR -0.1963
-1.3010 THIS GOLGI -0.1761
-0.8239 THIS IS -0.2139
-1.3010 THIS ONE -0.2430
-1.3010 THIS TO -0.2915
-0.3010 THIS, AND -0.2940
-0.3010 THIS. BUT -0.2041
-0.3010 THOUGHT GREEN -0.1091
-0.6021 THOUSAND YEAR 0.0000
-0.6021 THOUSAND YEARS -0.1761
-0.6021 TISSUE IT -0.2840
-0.6021 TISSUE WERE -0.2218
-1.6628 TO A -0.2929
-1.6628 TO ANYTHING -0.1761
-1.3617 TO BE -0.1761
-1.6628 TO DESIGNING 0.0000
-1.6628 TO DETECT 0.0000
-1.6628 TO DO 0.0000
-1.6628 TO GET -0.1761
-1.3617 TO GLOW 0.0000
-1.6628 TO IDENTIFY -0.1761
-1.6628 TO LEAVE 0.0000
-1.6628 TO MORE -0.2218
-1.6628 TO OPEN -0.2218
-1.6628 TO RECOGNIZE 0.0000
-1.3617 TO THE -0.2813
-1.6628 TO TREAT 0.0000
-1.0607 TO UNDERSTAND 0.0000
-1.6628 TO VISUALIZE 0.0000
-0.6021 TODAY TWO 0.0000
-0.6021 TODAY WE -0.2218
-0.3010 TODAY, A -0.2846
-0.3010 TOOL PALETTE 0.0000
-0.6021 TOOLS FROM -0.2553
-0.6021 TOOLS THESE -0.2218
-0.3010 TOTALLY NATURAL 0.0000
-0.3010 TRANSISTOR. AND -0.2940
-0.3010 TRANSPORTERS IN -0.2430
-0.3010 TREAT THESE -0.2632
-0.3010 TREES INSIDE -0.2632
-0.3010 TURNS OUT -0.2553
-0.3010 TWO EYES 0.0000
-0.3010 UNDER EVEN 0.0000
-0.6021 UNDERSTAND HOW 0.0000
-0.9031 UNDERSTAND THAT -0.2788
-0.9031 UNDERSTAND WHERE 0.0000
-0.3010 UNTIL A -0.2929
-0.7782 UP CRACK 0.0000
-0.7782 UP FROM -0.2041
-0.7782 UP UNTIL 0.0000
-0.6021 US OUR -0.1761
-0.6021 US THE -0.2962
-0.3010 USE IN -0.2825
-0.7782 USED THIS -0.2788
-0.4771 USED TO -0.2511
-0.3010 USEFUL TO -0.2817
-0.3010 USEFUL. BECAUSE -0.2041
-0.3010 USING ANTIBODIES -0.2218
-0.3010 VARIANTS NOW -0.2218
-1.2041 VERY BEAUTIFUL 0.0000
-1.2041 VERY FAMILIAR -0.1761
-1.2041 VERY LARGE 0.0000
-1.2041 VERY PARTICULAR -0.1761
-0.9031 VERY POWERFUL 0.0000
-1.2041 VERY QUICKLY 0.0000
-1.2041 VERY USEFUL. 0.0000
-0.6021 VIRUS FOR -0.1963
-0.6021 VIRUS THAT'S -0.2218
-0.3010 VISIBLE SO -0.2553
-0.3010 VISUAL SYSTEM -0.1249
-0.3010 VISUALIZE NEURONS, -0.1761
-0.3010 WANT TO -0.2717
-0.3010 WANTED TO -0.2615
-0.6021 WAS A -0.2846
-0.9031 WAS ABLE 0.0000
-0.9031 WAS CRACKED 0.0000
-0.3010 WAY INSTEAD 0.0000
-0.3010 WAYS OF -0.2903
-0.7782 WE CAN -0.2430
-0.7782 WE COMPARE 0.0000
-0.7782 WE COULD -0.1761
-0.7782 WERE DEVELOPED 0.0000
-0.7782 WERE EVOLVED 0.0000
-0.7782 WERE THESE -0.2632
-0.6021 WHAT IS -0.2808
-0.6021 WHAT REALLY -0.2218
-0.3010 WHAT'S THERE -0.2553
-0.3010 WHATEVER REASON, 0.0000
-0.3010 WHEN RESEARCHERS -0.1761
-0.3010 WHERE THE -0.2962
-0.9031 WHICH ARE -0.2762
-0.9031 WHICH LOOKS 0.0000
-0.9031 WHICH ODDLY 0.0000
-0.9031 WHICH YIELDS 0.0000
-0.3010 WHO IS -0.2808
-0.3010 WIDELY CONSIDERED 0.0000
-0.6021 WILL GLOW -0.1249
-0.6021 WILL SEE -0.2218
-0.7782 WIRING </s> -0.3010
-0.7782 WIRING INSIDE -0.2632
-0.7782 WIRING THE -0.2962
-0.9031 WITH ANTIBODIES -0.2218
-0.9031 WITH OTHERS 0.0000
-0.6021 WITH THE -0.2762
-0.3010 WON'T TELL 0.0000
-0.7782 WORKS AND -0.2940
-0.7782 WORKS IN -0.2430
-0.7782 WORKS IT -0.2663
-0.7782 WOULD BE -0.2430
-0.7782 WOULD HAVE -0.2341
-0.7782 WOULD LIKE -0.2632
-0.3010 Y CAJAL -0.1761
-0.3010 YEAR OLD 0.0000
-0.6021 YEARS AND -0.2868
-0.6021 YEARS BY -0.1761
-0.3010 YIELDS DATA 0.0000
-1.5051 YOU </s> -0.3010
-1.5051 YOU ANYTHING -0.1761
-1.5051 YOU ARE -0.2762
-1.5051 YOU CAN -0.2430
-1.5051 YOU COULD -0.1761
-1.5051 YOU CUT 0.0000
-1.5051 YOU GET -0.1761
-1.2041 YOU HAVE -0.2341
-1.5051 YOU HERE 0.0000
-1.5051 YOU REALLY -0.2218
-1.5051 YOU TAKE 0.0000
-1.5051 YOU WANT 0.0000
-1.5051 YOU WANTED 0.0000
-1.5051 YOU WILL -0.1761
-1.5051 YOU WITH -0.1761
-0.3010 YOU'RE THINKING 0.0000

\3-grams:
-0.3010 19TH CENTURY SUDDENLY
-1.1461 <s> AND A
-1.1461 <s> AND IF
-1.1461 <s> AND SO
-1.1461 <s> AND THAT'S
-1.1461 <s> AND THERE'S
-1.1461 <s> AND THIS
-1.1461 <s> AND YOU
-0.3010 <s> I WOULD
-0.3010 <s> IMAGINE YOU
-0.3010 <s> NOW SOMETIMES
-0.3010 <s> SO WHAT
-0.3010 <s> SPANISH NEUROANATOMIST
-0.3010 <s> THIS IS
-0.3010 A BIOLUMINESCENT JELLYFISH,
-0.3010 A BRAIN OUT
-0.3010 A CELL TO
-0.3010 A CELL, THAT
-0.6021 A CENTURY AGO
-0.6021 A CENTURY LATER,
-0.3010 A COMPUTER WORKS
-0.3010 A COMPUTER, THIS
-0.3010 A COMPUTER. TODAY,
-0.3010 A DIAGRAM OF
-0.3010 A GENETICALLY ENGINEERED
-0.3010 A GLIMPSE OF
-0.3010 A JELLYFISH TO
-0.3010 A KEYBOARD A
-0.3010 A LITTLE MORE
-0.3010 A LOT OF
-0.3010 A MOUSE A
-0.3010 A SCREEN YOU
-0.3010 A SLICE OF
-0.3010 A STAIN CALLED
-0.3010 A THIN SLICE
-0.3010 A THOUSAND YEAR
-0.3010 A TISSUE IT
-0.7782 A VERY LARGE
-0.7782 A VERY PARTICULAR
-0.7782 A VERY POWERFUL
-0.3010 A VIRUS THAT'S
-0.6021 ABLE TO DO
-0.6021 ABLE TO OPEN
-0.3010 ABOUT ONE PERCENT
-0.3010 AGAINST SEROTONIN TRANSPORTERS
-0.3010 AGO NOBODY WAS
-0.3010 ALL CHANGED IN
-0.6021 ALL OF THE
-0.6021 ALL OF THESE
-0.3010 ALL THANK YOU
-0.3010 ALL YOU COULD
-0.3010 ALONE, BUT RATHER
-0.3010 ALSO VERY POWERFUL
-0.3010 AN ANTIBODY STAINING
-0.3010 AN INVADING VIRUS
-0.3010 AND A LOT
-0.3010 AND ALL YOU
-0.3010 AND ANTIBODIES ARE
-0.3010 AND ANTIBODY STAININGS
-0.3010 AND ANXIETY YOU
-0.3010 AND DELIVER IT
-0.3010 AND IDENTIFY THEM
-0.6021 AND IF WE
-0.6021 AND IF YOU'RE
-0.3010 AND IN ORDER
-0.3010 AND INSTEAD OF
-0.3010 AND IT WORKS
-0.3010 AND IT'S SO
-0.3010 AND ONLY MUCH
-0.3010 AND REALLY GAVE
-0.3010 AND REFINED STEADILY
-0.3010 AND RESEARCHERS HAVE
-0.3010 AND SAY HEY
-0.3010 AND SO COMING
-0.3010 AND SOME THINGS
-0.3010 AND THAT'S BECAUSE
-0.3010 AND THERE'S SEVERAL
-0.3010 AND THEY GAVE
-0.3010 AND THIS ALL
-0.3010 AND UP UNTIL
-0.3010 AND VERY QUICKLY
-0.7782 AND YOU ARE
-0.7782 AND YOU CUT
-0.7782 AND YOU HAVE
-0.3010 ANTIBODIES AND YOU
-0.3010 ANTIBODIES ARE BOTH
-0.3010 ANTIBODIES AS THE
-0.3010 ANTIBODY STAINING AGAINST
-0.3010 ANTIBODY STAININGS LIKE
-0.3010 ANXIETY YOU HAVE
-0.3010 ANY OF THE
-0.3010 ANYTHING IN PARTICULAR
-0.3010 APPLIED THIS GOLGI
-0.3010 APPLYING FEEBLE HUMAN
-0.3010 ARE ALSO VERY
-0.3010 ARE BOTH TOTALLY
-0.3010 ARE DRUGS THAT
-0.3010 ARE FAMILIAR OF
-0.3010 ARE FUNCTIONS THAT
-0.3010 ARE GLOWING DIFFERENT
-0.3010 ARE TOOLS THESE
-0.3010 ARE USED TO
-0.3010 ARE VERY BEAUTIFUL
-0.3010 AS A COMPUTER,
-0.3010 AS THE HENCHMEN
-0.3010 AT BRAIN WIRING
-0.3010 AT ITS OVERALL
-0.7782 AT THE BOTTOM
-0.7782 AT THE GET
-0.7782 AT THE WIRING
-0.3010 BACK THERE IS
-0.3010 BACK TO THE
-0.3010 BE ABLE TO
-0.3010 BE CONNECTED TO
-0.3010 BE KIND OF
-0.3010 BE USED TO
-0.3010 BEAUTIFUL BUT THEY
-0.3010 BECAUSE ALL OF
-0.3010 BECAUSE IF YOU
-0.3010 BECAUSE THEY CAN
-0.3010 BECAUSE TODAY WE
-0.3010 BEEN LABELED NOTHING
-0.3010 BEEN SHOWING YOU
-0.3010 BEEN VISIBLE SO
-0.3010 BIOLUMINESCENT JELLYFISH, IS
-0.3010 BODY. AND RESEARCHERS
-0.3010 BOTH TOTALLY NATURAL
-0.3010 BOTTOM OPTIC NERVE
-0.3010 BRAIN AS A
-0.3010 BRAIN IT'S A
-0.3010 BRAIN NOBODY HAD
-0.3010 BRAIN OUT OF
-0.3010 BRAIN RECOGNIZE SPECIFIC
-0.3010 BRAIN TISSUE WERE
-0.3010 BRAIN WIRING THE
-0.3010 BRAIN'S WIRING </s>
-0.3010 BRAIN, RATHER THAN
-0.3010 BRAIN, THIS IS
-0.3010 BRAINBOW AND IT'S
-0.3010 BUT IT TURNS
-0.3010 BUT ONE OF
-0.3010 BUT RATHER MAKE
-0.3010 BUT THEY ARE
-0.3010 BY NATURE IN
-0.3010 BY THE GREATEST
-0.3010 CAJAL REALIZED THAT
-0.3010 CAJAL WHO IS
-0.3010 CALLED BRAINBOW AND
-0.3010 CALLED OF COURSE
-0.3010 CALLED THE GOLGI
-0.3010 CAN BE USED
-0.3010 CAN GET THE
-0.3010 CAN RECOGNIZE SPECIFIC
-0.3010 CAN SEE WHAT
-0.3010 CELL AND IDENTIFY
-0.3010 CELL TO GLOW
-0.3010 CELL WILL GLOW
-0.3010 CELL, THAT CELL
-0.3010 CELL, THE NEURON.
-0.3010 CELLS INSIDE OF
-0.3010 CENTURY AGO NOBODY
-0.3010 CENTURY LATER, WHEN
-0.3010 CENTURY SUDDENLY NEW
-0.3010 CHANGED IN THE
-0.3010 CHEMICAL STAINS FOR
-0.3010 CIRCUITS JUST LIKE
-0.3010 CLEARS THE FOREST
-0.3010 COAT PROTEIN OF
-0.3010 COME ONTO THE
-0.3010 COMES FROM A
-0.3010 COMING BACK TO
-0.3010 COMPARE THIS TO
-0.3010 COMPLICATED OVER THE
-0.3010 COMPONENTS OF NEURONS,
-0.3010 COMPUTER WAS CRACKED
-0.3010 COMPUTER WORKS AND
-0.3010 COMPUTER, THIS IS
-0.3010 COMPUTER. TODAY, A
-0.3010 CONNECTED TO ANYTHING
-0.3010 CONNECTIONS WITH OTHERS
-0.3010 CONSIDERED THE FATHER
-0.3010 CONTEXT OF DISEASES
-0.3010 COULD SEE WAS
-0.3010 COULD USE IN
-0.3010 COURSE BECAUSE ALL
-0.3010 COURSE IN THE
-0.3010 COURSE WITH ANTIBODIES
-0.3010 CRACK IT OPEN
-0.3010 CRACKED OPEN </s>
-0.3010 CRITICAL TO UNDERSTAND
-0.3010 CUT A THIN
-0.3010 DARKENING THEM. AND
-0.3010 DATA WHICH LOOKS
-0.3010 DELIVER IT TO
-0.3010 DEPRESSION AND ANXIETY
-0.3010 DESIGNING THESE TOOLS
-0.3010 DETECT THE COAT
-0.6021 DEVELOPED AND REFINED
-0.6021 DEVELOPED AND THEY
-0.3010 DIAGRAM OF THE
-0.3010 DID SCIENTISTS COME
-0.3010 DIFFERENT COLORS </s>
-0.3010 DIFFERENT COLORS. </s>
-0.3010 DISEASES AND IN
-0.3010 DISEASES LIKE DEPRESSION
-0.3010 DO THAT WITH
-0.3010 DOES NOT SEEM
-0.3010 DOING THIS BUT
-0.3010 DOING THIS. BUT
-0.3010 DON'T OPERATE ALONE,
-0.3010 DRAWING OF THE
-0.3010 DRUGS THAT ARE
-0.3010 ENGINEER OF ALL
-0.3010 ENGINEERED MOUSE CALLED
-0.3010 ENOUGH COMES FROM
-0.3010 ENTIRE CELL </s>
-0.3010 EVEN A VERY
-0.3010 EVERYTHING HAD BEEN
-0.3010 EVOLVED BY NATURE
-0.3010 EXAMPLE AND ONLY
-0.3010 EXAMPLE IS AN
-0.3010 EXAMPLE THE COAT
-0.3010 EXPLANATORY POWER THIS
-0.3010 EYES AT THE
-0.3010 FACT IN ORDER
-0.3010 FAMILIAR OF COURSE
-0.3010 FAMILIAR TODAY TWO
-0.3010 FATHER OF MODERN
-0.3010 FEEBLE HUMAN MINDS
-0.3010 FIRST GLIMPSES AT
-0.3010 FLOWING OUT FROM
-0.3010 FLUORESCENT PROTEIN AND
-0.6021 FLUORESCENT PROTEIN, WHICH
-0.6021 FLUORESCENT PROTEIN, YOU
-0.3010 FLUORESCENT PROTEIN. NOW
-0.3010 FOLLOWING THOUGHT GREEN
-0.3010 FOR BRAIN TISSUE
-0.7782 FOR EXAMPLE AND
-0.7782 FOR EXAMPLE IS
-0.7782 FOR EXAMPLE THE
-0.3010 FOR GREEN FLUORESCENT
-0.3010 FOR MILLIONS OF
-0.3010 FOR WHATEVER REASON,
-0.3010 FOREST REVEALS THE
-0.3010 FORM CIRCUITS JUST
-0.3010 FORMLESS THERE'S NO
-0.6021 FROM A BIOLUMINESCENT
-0.6021 FROM A GENETICALLY
-0.3010 FROM SCRATCH THERE
-0.6021 FROM THE BACK
-0.6021 FROM THE INSIDE
-0.3010 FUNCTIONS THAT WE
-0.6021 GAVE US OUR
-0.6021 GAVE US THE
-0.3010 GENE FOR GREEN
-0.3010 GENETICALLY ENGINEERED MOUSE
-0.6021 GET A CELL
-0.6021 GET A JELLYFISH
-0.3010 GET GO THEY
-0.3010 GET THE GENE
-0.3010 GLIMPSE OF THE
-0.3010 GLIMPSES AT BRAIN
-0.6021 GLOW GREEN FOR
-0.6021 GLOW GREEN OR
-0.3010 GLOW MANY DIFFERENT
-0.3010 GLOWING DIFFERENT COLORS
-0.3010 GO THEY WERE
-0.3010 GOLGI STAIN AND
-0.3010 GOLGI STAIN, WHICH
-0.3010 GOTTEN SUBSTANTIALLY MORE
-0.3010 GRAY FORMLESS THERE'S
-0.3010 GREAT EXPLANATORY POWER
-0.3010 GREATEST ENGINEER OF
-0.6990 GREEN FLUORESCENT PROTEIN
-0.6990 GREEN FLUORESCENT PROTEIN,
-1.0000 GREEN FLUORESCENT PROTEIN.
-0.3010 GREEN FOR WHATEVER
-0.3010 GREEN OR ANY
-0.3010 HAD A GLIMPSE
-0.3010 HAD BEEN LABELED
-0.3010 HAD HAD A
-0.6021 HAVE BEEN SHOWING
-0.6021 HAVE BEEN VISIBLE
-0.3010 HAVE GOTTEN SUBSTANTIALLY
-0.3010 HAVE GREAT EXPLANATORY
-0.3010 HAVE HEARD OF
-0.3010 HAVE USED THIS
-0.6021 HEARD OF SEROTONIN
-0.6021 HEARD OF SSRIS
-0.3010 HENCHMEN OF THE
-0.3010 HERE ARE VERY
-0.3010 HEY THESE ARE
-0.3010 HOW A COMPUTER
-0.3010 HOW SEROTONIN WORKS
-0.3010 HUMAN MINDS TO
-0.3010 I HAVE BEEN
-0.3010 I WOULD LIKE
-0.3010 IDENTIFY INDIVIDUAL MOLECULAR
-0.3010 IDENTIFY THEM INDIVIDUALLY
-0.3010 IF EVERYTHING HAD
-0.3010 IF WE COMPARE
-0.6021 IF YOU CAN
-0.6021 IF YOU TAKE
-0.3010 IF YOU'RE THINKING
-0.3010 IMAGES I HAVE
-0.3010 IMAGINE YOU WANTED
-0.3010 IMMUNE SYSTEM BECAUSE
-0.3010 IMMUNE SYSTEM. BUT
-0.7782 IN A COMPUTER.
-0.7782 IN A SLICE
-0.7782 IN A VERY
-0.3010 IN NATURE DEVELOPED
-0.3010 IN ORDER TO
-0.3010 IN OUR OWN
-0.3010 IN PARTICULAR </s>
-0.6021 IN THE CONTEXT
-0.6021 IN THE LATE
-0.3010 INDIVIDUAL MOLECULAR COMPONENTS
-0.3010 INSIDE AND UP
-0.3010 INSIDE IF EVERYTHING
-0.7782 INSIDE OF A
-0.4771 INSIDE OF THE
-0.3010 INSIDE RATHER THAN
-0.6021 INSTEAD OF APPLYING
-0.6021 INSTEAD OF STAINING
-0.3010 INTERVENING THOUSAND YEARS
-0.3010 INVADING THE BODY.
-0.3010 INVADING VIRUS FOR
-0.3010 INVOLVES GREEN FLUORESCENT
-0.3010 INVOLVES USING ANTIBODIES
-0.6021 IS A THOUSAND
-0.6021 IS A VERY
-0.3010 IS AN ANTIBODY
-0.3010 IS AND ANTIBODY
-0.3010 IS CRITICAL TO
-0.3010 IS FROM A
-0.3010 IS GRAY FORMLESS
-0.3010 IS INSIDE OF
-0.3010 IS THE TRANSISTOR.
-0.3010 IS VERY USEFUL.
-0.3010 IS WIDELY CONSIDERED
-0.3010 IT CLEARS THE
-0.6021 IT IS CRITICAL
-0.6021 IT IS GRAY
-0.3010 IT OPEN LOOK
-0.3010 IT PUT IT
-0.3010 IT SHOWS WHAT'S
-0.3010 IT SOMEHOW ONLY
-0.3010 IT TO A
-0.3010 IT TURNS OUT
-0.3010 IT UNDER EVEN
-0.3010 IT UP CRACK
-0.3010 IT WON'T TELL
-0.3010 IT WORKS IN
-0.3010 IT'S A DIAGRAM
-0.3010 IT'S SO CALLED
-0.3010 ITS OVERALL SHAPE
-0.3010 JELLYFISH TO GLOW
-0.3010 JELLYFISH, IS VERY
-0.3010 JUST LIKE IN
-0.3010 JUST LOOKING AT
-0.3010 KEYBOARD A MOUSE
-0.3010 KIND OF OUT
-0.3010 LABELED NOTHING WOULD
-0.3010 LARGE NOSE THAT
-0.3010 LATE 19TH CENTURY
-0.3010 LATER DID SCIENTISTS
-0.3010 LATER, WHEN RESEARCHERS
-0.3010 LAUNCHED MODERN NEUROSCIENCE
-0.3010 LEAVE YOU WITH
-0.3010 LIGHT THEM UP
-0.3010 LIKE DEPRESSION AND
-0.3010 LIKE FOR EXAMPLE
-0.3010 LIKE IN A
-0.3010 LIKE THIS ONE
-0.3010 LIKE THIS, AND
-0.3010 LIKE TO LEAVE
-0.3010 LITTLE MORE THAN
-0.3010 LOOK AT THE
-0.3010 LOOK VERY FAMILIAR
-0.3010 LOOKING AT ITS
-0.3010 LOOKS LIKE THIS,
-0.3010 LOT OF THE
-0.3010 LUCK YOU WANT
-0.3010 MACHINERY IS AND
-0.3010 MAKE CONNECTIONS WITH
-0.3010 MANY DIFFERENT COLORS.
-0.3010 MANY VARIANTS NOW
-0.3010 MICROSCOPE THERE'S NOTHING
-0.3010 MILLIONS OF YEARS
-0.3010 MINDS TO DESIGNING
-0.6021 MODERN NEUROSCIENCE APPLIED
-0.6021 MODERN NEUROSCIENCE WAS
-0.3010 MODERN NOTION OF
-0.3010 MOLECULAR COMPONENTS OF
-0.3010 MOLECULES INSIDE OF
-0.3010 MOLECULES LIKE FOR
-0.3010 MOLECULES, RATHER THAN
-0.3010 MORE COMPLICATED OVER
-0.3010 MORE RECENT REPRESENTATIONS
-0.3010 MORE THAN A
-0.3010 MOST POPULAR ONES
-0.3010 MOUSE A SCREEN
-0.3010 MOUSE BRAIN </s>
-0.3010 MOUSE CALLED BRAINBOW
-0.3010 MUCH LATER DID
-0.3010 NATURAL PRODUCTS AT
-0.3010 NATURE DEVELOPED AND
-0.3010 NATURE IN ORDER
-0.3010 NEED TO IDENTIFY
-0.3010 NERVE CELL, THE
-0.3010 NERVE FLOWING OUT
-0.3010 NEUROANATOMIST SANTIAGO RAMON
-0.3010 NEURON. AND IF
-0.3010 NEURONS ARE GLOWING
-0.3010 NEURONS DON'T OPERATE
-0.3010 NEURONS, MOLECULES, RATHER
-0.3010 NEURONS, THEY LIGHT
-0.3010 NEUROSCIENCE APPLIED THIS
-0.3010 NEUROSCIENCE WAS A
-0.3010 NEUROSCIENTISTS NEED TO
-0.3010 NEW CHEMICAL STAINS
-0.3010 NO STRUCTURE IT
-0.3010 NOBODY HAD HAD
-0.3010 NOBODY WAS ABLE
-0.3010 NOSE THAT DOES
-0.3010 NOT SEEM TO
-0.3010 NOTHING THERE IT
-0.3010 NOTHING WOULD HAVE
-0.3010 NOTION OF THE
-0.3010 NOW GREEN FLUORESCENT
-0.3010 NOW OF GREEN
-0.3010 NOW SOMETIMES NEUROSCIENTISTS
-0.3010 ODDLY ENOUGH COMES
-0.6021 OF A TISSUE
-0.6021 OF A VIRUS
-0.3010 OF ALL THANK
-0.3010 OF AN INVADING
-0.3010 OF APPLYING FEEBLE
-0.7782 OF COURSE BECAUSE
-0.7782 OF COURSE IN
-0.7782 OF COURSE WITH
-0.3010 OF DISEASES LIKE
-0.6021 OF DOING THIS
-0.6021 OF DOING THIS.
-0.3010 OF GREEN FLUORESCENT
-0.3010 OF IT PUT
-0.3010 OF LUCK YOU
-0.3010 OF MODERN NEUROSCIENCE
-0.3010 OF MOUSE BRAIN
-0.3010 OF NEURONS, MOLECULES,
-0.3010 OF OUT OF
-0.3010 OF QUESTION </s>
-0.3010 OF SEROTONIN OF
-0.3010 OF SSRIS WHICH
-0.3010 OF STAINING ALL
-1.0280 OF THE BRAIN
-1.5051 OF THE BRAIN'S
-1.5051 OF THE BRAIN,
-1.5051 OF THE CELL
-1.5051 OF THE CELLS
-1.5051 OF THE IMAGES
-1.5051 OF THE IMMUNE
-1.5051 OF THE MANY
-1.2041 OF THE MOST
-1.5051 OF THE NERVE
-1.5051 OF THE SKULL
-1.2041 OF THE VISUAL
-0.3010 OF THEM IT
-0.3010 OF THESE NEURONS
-0.3010 OF YEARS BY
-0.3010 OLD DRAWING OF
-0.3010 ONE CAN BE
-0.3010 ONE OF THE
-0.3010 ONE PERCENT OF
-0.6021 ONES INVOLVES GREEN
-0.6021 ONES INVOLVES USING
-0.3010 ONLY MUCH LATER
-0.3010 ONLY STAINS ABOUT
-0.3010 ONTO THE SCENE
-0.3010 OPEN IT UP
-0.3010 OPEN LOOK AT
-0.3010 OPERATE ALONE, BUT
-0.3010 OPTIC NERVE FLOWING
-0.3010 OR ANY OF
-0.3010 OR IN ORDER
-0.9031 ORDER TO DETECT
-0.9031 ORDER TO GET
-0.9031 ORDER TO RECOGNIZE
-0.9031 ORDER TO UNDERSTAND
-0.3010 OTHERS THAT FORM
-0.3010 OUR FIRST GLIMPSES
-0.3010 OUR OWN RESEARCH
-0.3010 OUT FROM THE
-0.6021 OUT OF LUCK
-0.6021 OUT OF THE
-0.3010 OUT THAT THEY'RE
-0.3010 OUT THERE IN
-0.3010 OVER THE INTERVENING
-0.3010 OVERALL SHAPE </s>
-0.3010 OWN RESEARCH TOOL
-0.3010 PALETTE AND INSTEAD
-0.3010 PARTICULAR WAY INSTEAD
-0.3010 PERCENT OF THEM
-0.3010 POPULAR ONES INVOLVES
-0.3010 POWER THIS FOR
-0.3010 POWERFUL MICROSCOPE THERE'S
-0.3010 POWERFUL THEY HAVE
-0.3010 PRODUCTS AT THE
-0.6021 PROTEIN AND ANTIBODIES
-0.6021 PROTEIN AND DELIVER
-0.6021 PROTEIN OF A
-0.6021 PROTEIN OF AN
-0.3010 PROTEIN, WHICH ODDLY
-0.3010 PROTEIN, YOU GET
-0.3010 PROTEIN. NOW GREEN
-0.3010 PUT IT UNDER
-0.3010 QUICKLY CAJAL REALIZED
-0.3010 RAMON Y CAJAL
-0.3010 RATHER MAKE CONNECTIONS
-0.7782 RATHER THAN DARKENING
-0.7782 RATHER THAN JUST
-0.7782 RATHER THAN THE
-0.3010 READY-MADE SOLUTIONS RIGHT
-0.3010 REALIZED THAT NEURONS
-0.3010 REALLY GAVE US
-0.3010 REALLY LAUNCHED MODERN
-0.3010 REALLY WOULD BE
-0.3010 REASON, OR IN
-0.3010 RECENT REPRESENTATIONS OF
-0.4771 RECOGNIZE SPECIFIC MOLECULES
-0.7782 RECOGNIZE SPECIFIC SUBSTRUCTURES
-0.3010 REFINED STEADILY FOR
-0.3010 REPRESENTATIONS OF THE
-0.3010 RESEARCH TOOL PALETTE
-0.3010 RESEARCHERS HAVE USED
-0.3010 RESEARCHERS WANT TO
-0.3010 REVEALS THE TREES
-0.3010 RIGHT OUT THERE
-0.3010 SANTIAGO RAMON Y
-0.3010 SAY HEY THESE
-0.3010 SCENE AND SAY
-0.3010 SCIENTISTS COME ONTO
-0.3010 SCRATCH THERE WERE
-0.3010 SCREEN YOU REALLY
-0.3010 SEE THAT THINGS
-0.3010 SEE WAS A
-0.3010 SEE WHAT IS
-0.3010 SEEM TO BE
-0.3010 SERONTONIN MACHINERY IS
-0.3010 SEROTONIN OF COURSE
-0.3010 SEROTONIN TRANSPORTERS IN
-0.3010 SEROTONIN WORKS IT
-0.3010 SEVERAL WAYS OF
-0.3010 SHOWING YOU HERE
-0.3010 SHOWS WHAT'S THERE
-0.3010 SKULL AND YOU
-0.6021 SLICE OF IT
-0.6021 SLICE OF MOUSE
-0.3010 SO CALLED OF
-0.3010 SO COMING BACK
-0.3010 SO SOMEHOW IT
-0.3010 SO USEFUL TO
-0.3010 SO WHAT REALLY
-0.3010 SOLUTIONS RIGHT OUT
-0.3010 SOME THINGS LOOK
-0.3010 SOMEHOW IT SHOWS
-0.3010 SOMEHOW ONLY STAINS
-0.3010 SOMETIMES NEUROSCIENTISTS NEED
-0.3010 SORT OF QUESTION
-0.3010 SPANISH NEUROANATOMIST SANTIAGO
-0.6021 SPECIFIC MOLECULES INSIDE
-0.6021 SPECIFIC MOLECULES LIKE
-0.3010 SPECIFIC SUBSTRUCTURES OF
-0.3010 SSRIS WHICH ARE
-0.3010 STAIN AND IT
-0.3010 STAIN CALLED THE
-0.3010 STAIN, WHICH YIELDS
-0.3010 STAINING AGAINST SEROTONIN
-0.3010 STAINING ALL OF
-0.3010 STAININGS LIKE THIS
-0.3010 STAINS ABOUT ONE
-0.3010 STAINS FOR BRAIN
-0.3010 STEADILY FOR MILLIONS
-0.3010 STRUCTURE IT WON'T
-0.3010 SUBSTANTIALLY MORE COMPLICATED
-0.3010 SUBSTRUCTURES OF THE
-0.3010 SUDDENLY NEW CHEMICAL
-0.3010 SYSTEM AND SOME
-0.3010 SYSTEM BECAUSE THEY
-0.3010 SYSTEM YOU WILL
-0.3010 SYSTEM. BUT IT
-0.3010 TAKE A BRAIN
-0.3010 TELL YOU ANYTHING
-0.3010 THAN A CENTURY
-0.3010 THAN DARKENING THEM.
-0.3010 THAN JUST LOOKING
-0.3010 THAN THE ENTIRE
-0.3010 THANK YOU </s>
-0.3010 THAT ARE USED
-0.3010 THAT CELL WILL
-0.3010 THAT DOES NOT
-0.3010 THAT FORM CIRCUITS
-0.3010 THAT NEURONS DON'T
-0.3010 THAT SORT OF
-0.3010 THAT THEY'RE SO
-0.3010 THAT THINGS HAVE
-0.3010 THAT WE COULD
-0.3010 THAT WITH THE
-0.6021 THAT'S BECAUSE IF
-0.6021 THAT'S BECAUSE TODAY
-0.3010 THAT'S INVADING THE
-0.3010 THE BACK THERE
-0.3010 THE BODY. AND
-0.3010 THE BOTTOM OPTIC
-0.9031 THE BRAIN AS
-0.9031 THE BRAIN IT'S
-0.9031 THE BRAIN NOBODY
-0.9031 THE BRAIN RECOGNIZE
-0.3010 THE BRAIN'S WIRING
-0.6021 THE BRAIN, RATHER
-0.6021 THE BRAIN, THIS
-0.3010 THE CELL AND
-0.3010 THE CELLS INSIDE
-0.3010 THE COAT PROTEIN
-0.3010 THE COMPUTER WAS
-0.3010 THE CONTEXT OF
-0.3010 THE ENTIRE CELL
-0.3010 THE FATHER OF
-0.3010 THE FOLLOWING THOUGHT
-0.3010 THE FOREST REVEALS
-0.3010 THE GENE FOR
-0.3010 THE GET GO
-0.3010 THE GOLGI STAIN
-0.3010 THE GREATEST ENGINEER
-0.3010 THE HENCHMEN OF
-0.3010 THE IMAGES I
-0.6021 THE IMMUNE SYSTEM
-0.6021 THE IMMUNE SYSTEM.
-0.3010 THE INSIDE RATHER
-0.3010 THE INTERVENING THOUSAND
-0.3010 THE LATE 19TH
-0.3010 THE MANY VARIANTS
-0.3010 THE MODERN NOTION
-0.3010 THE MOST POPULAR
-0.3010 THE NERVE CELL,
-0.3010 THE NEURON. AND
-0.3010 THE SCENE AND
-0.3010 THE SERONTONIN MACHINERY
-0.3010 THE SKULL AND
-0.3010 THE TRANSISTOR. AND
-0.3010 THE TREES INSIDE
-0.3010 THE VISUAL SYSTEM
-0.3010 THE WIRING INSIDE
-0.3010 THEM INDIVIDUALLY </s>
-0.3010 THEM IT CLEARS
-0.3010 THEM UP FROM
-0.3010 THEM. AND THERE'S
-0.3010 THERE IN NATURE
-0.3010 THERE IS A
-0.3010 THERE IT IS
-0.3010 THERE WERE THESE
-0.3010 THERE'S NO STRUCTURE
-0.3010 THERE'S NOTHING THERE
-0.3010 THERE'S SEVERAL WAYS
-0.6021 THESE ARE FUNCTIONS
-0.6021 THESE ARE TOOLS
-0.3010 THESE DISEASES AND
-0.3010 THESE NEURONS ARE
-0.3010 THESE READY-MADE SOLUTIONS
-0.3010 THESE TOOLS FROM
-0.3010 THEY ARE ALSO
-0.3010 THEY CAN RECOGNIZE
-0.3010 THEY GAVE US
-0.3010 THEY HAVE GREAT
-0.3010 THEY LIGHT THEM
-0.3010 THEY WERE EVOLVED
-0.3010 THEY'RE SO USEFUL
-0.3010 THIN SLICE OF
-0.3010 THINGS HAVE GOTTEN
-0.3010 THINGS LOOK VERY
-0.3010 THINKING OF THE
-0.3010 THIS ALL CHANGED
-0.3010 THIS BUT ONE
-0.3010 THIS FACT IN
-0.3010 THIS FOR EXAMPLE
-0.3010 THIS GOLGI STAIN,
-0.7782 THIS IS A
-0.7782 THIS IS FROM
-0.7782 THIS IS THE
-0.3010 THIS ONE CAN
-0.3010 THIS TO MORE
-0.3010 THIS, AND REALLY
-0.3010 THIS. BUT ONE
-0.3010 THOUGHT GREEN FLUORESCENT
-0.3010 THOUSAND YEAR OLD
-0.3010 THOUSAND YEARS AND
-0.3010 TISSUE IT SOMEHOW
-0.3010 TISSUE WERE DEVELOPED
-0.3010 TO A CELL,
-0.3010 TO ANYTHING IN
-0.6021 TO BE ABLE
-0.6021 TO BE CONNECTED
-0.3010 TO DESIGNING THESE
-0.3010 TO DETECT THE
-0.3010 TO DO THAT
-0.3010 TO GET A
-0.6021 TO GLOW GREEN
-0.6021 TO GLOW MANY
-0.3010 TO IDENTIFY INDIVIDUAL
-0.3010 TO LEAVE YOU
-0.3010 TO MORE RECENT
-0.3010 TO OPEN IT
-0.3010 TO RECOGNIZE SPECIFIC
-0.6021 TO THE BRAIN,
-0.6021 TO THE IMMUNE
-0.3010 TO TREAT THESE
-0.6021 TO UNDERSTAND HOW
-0.9031 TO UNDERSTAND THAT
-0.9031 TO UNDERSTAND WHERE
-0.3010 TO VISUALIZE NEURONS,
-0.3010 TODAY TWO EYES
-0.3010 TODAY WE CAN
-0.3010 TODAY, A CENTURY
-0.3010 TOOL PALETTE AND
-0.3010 TOOLS FROM SCRATCH
-0.3010 TOOLS THESE ARE
-0.3010 TOTALLY NATURAL PRODUCTS
-0.3010 TRANSISTOR. AND VERY
-0.3010 TRANSPORTERS IN A
-0.3010 TREAT THESE DISEASES
-0.3010 TREES INSIDE IF
-0.3010 TURNS OUT THAT
-0.3010 TWO EYES AT
-0.3010 UNDER EVEN A
-0.6021 UNDERSTAND HOW A
-0.6021 UNDERSTAND HOW SEROTONIN
-0.3010 UNDERSTAND THAT SORT
-0.3010 UNDERSTAND WHERE THE
-0.3010 UNTIL A LITTLE
-0.3010 UP CRACK IT
-0.3010 UP FROM THE
-0.3010 UP UNTIL A
-0.3010 US OUR FIRST
-0.3010 US THE MODERN
-0.3010 USE IN OUR
-0.3010 USED THIS FACT
-0.6021 USED TO TREAT
-0.6021 USED TO UNDERSTAND
-0.3010 USEFUL TO THE
-0.3010 USEFUL. BECAUSE IF
-0.3010 USING ANTIBODIES AND
-0.3010 VARIANTS NOW OF
-0.3010 VERY BEAUTIFUL BUT
-0.3010 VERY FAMILIAR TODAY
-0.3010 VERY LARGE NOSE
-0.3010 VERY PARTICULAR WAY
-0.6021 VERY POWERFUL MICROSCOPE
-0.6021 VERY POWERFUL THEY
-0.3010 VERY QUICKLY CAJAL
-0.3010 VERY USEFUL. BECAUSE
-0.3010 VIRUS FOR EXAMPLE
-0.3010 VIRUS THAT'S INVADING
-0.3010 VISIBLE SO SOMEHOW
-0.6021 VISUAL SYSTEM AND
-0.6021 VISUAL SYSTEM YOU
-0.3010 VISUALIZE NEURONS, THEY
-0.6021 WANT TO BE
-0.6021 WANT TO VISUALIZE
-0.3010 WANTED TO UNDERSTAND
-0.6021 WAS A KEYBOARD
-0.6021 WAS A STAIN
-0.3010 WAS ABLE TO
-0.3010 WAS CRACKED OPEN
-0.3010 WAY INSTEAD OF
-0.3010 WAYS OF DOING
-0.3010 WE CAN SEE
-0.3010 WE COMPARE THIS
-0.3010 WE COULD USE
-0.3010 WERE DEVELOPED AND
-0.3010 WERE EVOLVED BY
-0.3010 WERE THESE READY-MADE
-0.3010 WHAT IS INSIDE
-0.3010 WHAT REALLY LAUNCHED
-0.3010 WHAT'S THERE </s>
-0.3010 WHATEVER REASON, OR
-0.3010 WHEN RESEARCHERS WANT
-0.3010 WHERE THE SERONTONIN
-0.3010 WHICH ARE DRUGS
-0.3010 WHICH LOOKS LIKE
-0.3010 WHICH ODDLY ENOUGH
-0.3010 WHICH YIELDS DATA
-0.3010 WHO IS WIDELY
-0.3010 WIDELY CONSIDERED THE
-0.3010 WILL GLOW GREEN
-0.3010 WILL SEE THAT
-0.3010 WIRING INSIDE AND
-0.3010 WIRING THE COMPUTER
-0.3010 WITH ANTIBODIES AS
-0.3010 WITH OTHERS THAT
-0.6021 WITH THE BRAIN
-0.6021 WITH THE FOLLOWING
-0.3010 WON'T TELL YOU
-0.3010 WORKS AND ALL
-0.3010 WORKS IN A
-0.3010 WORKS IT IS
-0.3010 WOULD BE KIND
-0.3010 WOULD HAVE BEEN
-0.3010 WOULD LIKE TO
-0.3010 Y CAJAL WHO
-0.3010 YEAR OLD DRAWING
-0.3010 YEARS AND THAT'S
-0.3010 YEARS BY THE
-0.3010 YIELDS DATA WHICH
-0.3010 YOU ANYTHING </s>
-0.3010 YOU ARE FAMILIAR
-0.3010 YOU CAN GET
-0.3010 YOU COULD SEE
-0.3010 YOU CUT A
-0.3010 YOU GET A
-0.3010 YOU HAVE HEARD
-0.3010 YOU HERE ARE
-0.3010 YOU REALLY WOULD
-0.3010 YOU TAKE A
-0.3010 YOU WANT TO
-0.3010 YOU WANTED TO
-0.3010 YOU WILL SEE
-0.3010 YOU WITH THE
-0.3010 YOU'RE THINKING OF

\end\
